{"learner":{"attributes":{},"feature_names":["distance","price","hour_of_day","day","week","month","day_of_year","week_of_year"],"feature_types":["float","float","float","float","float","float","float","float"],"gradient_booster":{"model":{"gbtree_model_param":{"num_trees":"2","size_leaf_vector":"0"},"tree_info":[0,0],"trees":[{"base_weights":[5.312686E-1,5.265464E-1,1.1319357E0,5.221519E-1,6.408076E-1,1.2073959E0,6.18123E-1,5.119595E-1,5.3984934E-1,9.4362605E-1,5.846453E-1,1.2771739E0,1.093828E0,5.2620965E-1,9.758065E-1,5.000494E-1,5.1770484E-1,5.562421E-1,5.3432524E-1,8.8385826E-1,1.094758E0,7.0138323E-1,5.672892E-1,1.1288135E0,1.3199195E0,9.871183E-1,1.2903225E0,5.092593E-1,6.212121E-1,7.905405E-1,1.2019231E0,5.12427E-1,5.2166086E-1,5.460754E-1,8.105111E-1,5.262257E-1,5.4190594E-1,1.0331125E0,8.0012226E-1,1.1458334E0,1.0377551E0,6.475659E-1,9.159836E-1,5.92507E-1,5.481399E-1,1.1551384E0,9.476744E-1,1.4682204E0,1.2720685E0,8.875E-1,1.0141976E0,1.2355769E0,1.4305556E0,5E-1,7.692308E-1,8.359375E-1,4.1666666E-1,5.180506E-1,5.02318E-1,5.194835E-1,5.278194E-1,6.263684E-1,5.2034235E-1,8.3078605E-1,6.5163934E-1,5.30399E-1,5.196231E-1,5.508267E-1,5.3583145E-1,8.394004E-1,7.457386E-1,6.271654E-1,6.8252844E-1,5.523016E-1,8.9192396E-1,5.600035E-1,5.2981895E-1,1.1958661E0,1.4206349E0,1.0839552E0,9.7610295E-1,8.181818E-1,3.3333334E-1,5.769231E-1,9.625E-1,5.2028555E-1,5.123523E-1,5.344217E-1,5.1827234E-1,5.40711E-1,5.2152675E-1,5.691639E-1,7.451124E-1,5.159865E-1,6.168639E-1,5.9438777E-1,8.5E-1,5.2536094E-1,5.3422874E-1,5.8876187E-1,5.446973E-1,5.2820563E-1,5.4348004E-1,6.769663E-1,8.1142855E-1,6.1707747E-1,7.022059E-1,7.553957E-1,6.320093E-1,5.627686E-1,5.407359E-1,8.7565446E-1,1.025E0,9.448052E-1,1.125E0,5.1636386E-1,5.338485E-1,5.069586E-1,5.6052095E-1,7.924837E-1,5.126166E-1,5.144797E-1,5.205627E-1,5.908324E-1,5.016725E-1,5.182817E-1,6.331909E-1,8.554348E-1,5.5268055E-1,8.987275E-1,6.132246E-1,5.0754577E-1,5.4528683E-1,1.4097222E0,5.808642E-1,5.3136706E-1,5.2003264E-1,5.327565E-1,5.493534E-1,5.230856E-1,6.04E-1,5.4127556E-1,5.690341E-1,5.304749E-1,5.1155114E-1,5.7882655E-1,5.3672343E-1,7.287234E-1,6.117647E-1,5E-1,7.734375E-1,7.734375E-1,6.0382515E-1,8.988487E-1,7.753165E-1,1.054054E0,5E-1,5.2884406E-1,5.1240194E-1,5.195566E-1,5.4802465E-1,5.011574E-1,5.1804125E-1,8.7E-1,5.7012194E-1,5.034593E-1,5.2205884E-1,5.272664E-1,5.151734E-1,5.5307597E-1,6.0753125E-1,5.154997E-1,5.376486E-1,6.8442625E-1,5.115741E-1,9.611651E-1,7.636719E-1,6.438356E-1,5.491117E-1,9.4810265E-1,8.523185E-1,6.397459E-1,5.857401E-1,5.054476E-1,5.2071756E-1,5.388781E-1,5.827787E-1,7.1938777E-1,5.493223E-1,5.242338E-1,5.4293627E-1,6.37685E-1,5.69086E-1,5.557501E-1,5.352203E-1,7.3626375E-1,5.5958086E-1,5.2499557E-1,5.3620166E-1,6.270615E-1,5.535162E-1,5.298596E-1,5.443723E-1,7.0689654E-1,5.5263156E-1,7.871901E-1,4.6875E-1,8.804348E-1,4.5E-1,6.701389E-1,5.558036E-1,8.6538464E-1,6.707317E-1,5.1932776E-1,5.458155E-1,5.6316346E-1,5.104167E-1,5.404429E-1,5.735772E-1,5.2299684E-1,5.338003E-1,5.0811404E-1,5.177221E-1,5.4074365E-1,5.8964646E-1,6.245174E-1,5.6605506E-1,7.96875E-1,1.0208334E0,6.051402E-1,7.3125E-1,5.582886E-1,5.335948E-1,8.802083E-1,9.951362E-1,6.825397E-1,9.0768194E-1,5.586158E-1,6.30597E-1,6.2362635E-1,5.636905E-1,6.1E-1,8.2191783E-1,5.339851E-1,6.09375E-1,5.9884936E-1,6.759062E-1,5.8512396E-1,5.375767E-1,5.2953696E-1,5.822888E-1,5.335171E-1,5.754986E-1,6.9753087E-1,9.5454544E-1,5.7928574E-1,5.4479915E-1,5.6989247E-1,5.3421366E-1,5.735294E-1,6.4656967E-1,5.603982E-1,5.030303E-1,5.6372094E-1,5.28775E-1,7.944915E-1,3.75E-1,7.314815E-1,5.1666665E-1,5.638235E-1,5.2569795E-1,5.535714E-1,6.298701E-1,5.2629656E-1,5.134283E-1,6.400832E-1,6.0391307E-1,6.615385E-1,5.0581396E-1,4E-1,7.569444E-1,5.458E-1,5.711538E-1,5.7954544E-1,7.289157E-1,9.295886E-1,7.6785713E-1,9E-1,6.7241377E-1,6.376518E-1,5.549569E-1,7.1153843E-1,6.415663E-1,6.401099E-1,5.507663E-1,1.0625E0,5E-1,7.119565E-1,6.0402685E-1,5.5770946E-1,8.333333E-1,5.878378E-1,5.463183E-1,5.173306E-1,5.34023E-1,5.960317E-1,6.7260444E-1,5.7713753E-1,5.366599E-1,3.3333334E-1,9.186047E-1,7.5E-1,4.5E-1,5.673077E-1,7.270408E-1,1.1428572E0,2.5E-1,7.322581E-1,5.833333E-1,5.741279E-1,6.318408E-1],"categories":[],"categories_nodes":[],"categories_segments":[],"categories_sizes":[],"default_left":[true,true,true,true,true,true,true,true,true,true,true,true,true,true,true,false,true,true,true,true,true,true,true,true,true,true,true,true,true,true,true,true,true,true,true,true,true,false,true,true,true,true,false,true,true,true,true,false,true,true,true,true,true,true,true,true,true,true,false,true,true,true,true,false,true,true,true,true,true,true,true,true,true,true,true,true,true,false,false,true,true,true,true,true,true,true,true,true,true,true,true,true,true,true,true,true,true,true,true,true,true,true,true,true,true,true,true,true,true,true,true,true,true,true,true,true,true,true,false,true,true,true,true,true,false,true,true,true,true,true,true,true,true,false,true,true,true,true,true,false,true,true,true,true,true,true,true,true,true,true,true,true,true,true,true,true,true,true,true,true,true,true,true,false,false,true,true,true,true,true,true,true,true,true,true,true,true,true,true,true,true,true,true,true,true,true,true,true,true,true,true,true,true,true,true,true,true,true,true,true,true,true,true,true,true,true,true,true,true,true,true,true,true,true,true,true,true,true,true,true,true,true,true,true,true,true,true,true,true,true,true,true,true,true,true,true,true,true,true,true,true,true,true,true,true,true,true,true,true,false,false,true,true,true,true,true,true,true,true,true,true,true,true,true,true,true,true,true,true,true,true,true,true,true,true,true,true,true,true,true,true,true,true,true,true,true,true,true,true,true,true,true,true,true,true,true,true,true,true,true,true,true,true,true,true,true,true,true,true,true,true,true,true,true,true,true,true,true,true,true,true],"id":0,"left_children":[1,3,5,7,9,11,13,15,17,19,21,23,25,-1,-1,-1,31,33,35,37,-1,41,43,-1,47,-1,-1,-1,-1,-1,-1,57,59,61,63,-1,67,-1,-1,-1,-1,-1,-1,73,-1,-1,-1,-1,77,-1,-1,-1,-1,-1,-1,-1,-1,85,-1,87,89,91,93,-1,-1,-1,-1,99,101,-1,-1,-1,-1,-1,-1,-1,-1,-1,-1,-1,-1,-1,-1,-1,-1,-1,117,119,-1,123,125,127,129,131,133,-1,-1,-1,-1,139,141,-1,145,-1,-1,-1,-1,-1,-1,-1,-1,-1,-1,-1,-1,-1,-1,-1,-1,163,-1,-1,-1,-1,-1,-1,-1,-1,-1,179,-1,-1,-1,-1,187,-1,-1,-1,-1,-1,-1,193,195,-1,-1,199,-1,-1,-1,-1,-1,-1,-1,-1,-1,-1,-1,-1,-1,-1,-1,-1,-1,-1,-1,-1,-1,-1,-1,-1,-1,-1,-1,-1,-1,-1,-1,-1,-1,-1,235,-1,-1,-1,-1,-1,-1,-1,-1,-1,-1,-1,-1,249,-1,-1,-1,-1,-1,-1,-1,-1,-1,-1,-1,-1,-1,-1,-1,-1,-1,-1,-1,-1,-1,-1,-1,-1,-1,-1,-1,-1,-1,-1,-1,-1,-1,-1,-1,-1,-1,-1,-1,-1,-1,-1,-1,-1,-1,-1,-1,-1,-1,-1,-1,-1,-1,-1,-1,-1,-1,-1,-1,-1,-1,-1,-1,-1,-1,-1,-1,-1,-1,-1,-1,-1,-1,-1,-1,-1,-1,-1,-1,-1,-1,-1,-1,-1,-1,-1,-1,-1,-1,-1,-1,-1,-1,-1,-1,-1,-1,-1,-1,-1,-1,-1,-1,-1,-1,-1,-1,-1,-1,-1,-1,-1,-1,-1,-1,-1,-1,-1,-1,-1,-1,-1,-1,-1,-1,-1,-1],"loss_changes":[8.713594E2,1.5282031E2,9.219116E1,5.2703125E1,1.9149121E2,1.5157471E1,9.6451645E0,1.2496094E1,9.421875E0,1.497522E1,1.8906982E1,6.6782227E0,1.55425415E1,8.300781E-2,1.6471176E0,0E0,2.359375E0,6.9421875E1,4.6445312E0,1.5045715E1,2.5500488E-1,1.360083E1,3.6831055E0,3.119812E-1,5.186035E0,5.1345825E-1,3.7435913E-1,0E0,2.0745945E-1,2.7968407E-1,0E0,2.8046875E0,6.894531E-1,5.3374023E1,2.7988892E0,7.949219E-1,1.9501953E0,0E0,1.1213989E0,0E0,0E0,2.75177E-1,0E0,4.2483765E1,7.315674E-1,0E0,0E0,0E0,6.893921E0,0E0,1.8218994E-2,0E0,0E0,0E0,4.6625137E-3,4.93721E-1,0E0,1.7382812E-1,0E0,6.845703E-1,1.2338867E0,4.2390137E1,7.9594727E0,0E0,8.8025665E-1,1.7773438E-1,0E0,3.574707E0,1.1533203E0,0E0,1.0409088E0,4.737854E-2,8.183594E-1,7.702637E-2,1.3946533E-2,0E0,0E0,0E0,0E0,0E0,2.0465088E-1,0E0,0E0,0E0,0E0,1.043457E0,2.2661133E0,2.1826294E1,1.5917969E-1,1.1647095E1,4.2333984E0,1.9619385E1,4.0900757E1,4.383789E0,2.3299683E1,0E0,0E0,5.419922E-2,6.591797E-3,2.0039062E0,8.9404297E-1,1.9726562E-1,2.6252441E0,1.5487671E-1,0E0,0E0,0E0,2.5376892E-1,3.8599396E-1,0E0,0E0,1.9213867E-1,8.3106995E-2,0E0,0E0,6.816406E-1,8.3618164E-1,3.0859375E-1,0E0,4.778412E0,5.24292E-2,0E0,8.330078E-1,1.345459E0,0E0,3.8232422E-1,1.8369751E0,1.497467E0,9.571533E-1,1.3527832E0,4.2999268E-1,1.4160156E-1,6.954346E-1,0E0,3.1439514E0,1.1193848E-1,0E0,0E0,0E0,0E0,1.8422241E0,8.137207E-1,2.3703003E0,6.0058594E-2,0E0,2.0457764E0,2.541504E-1,0E0,8.7509155E-2,0E0,1.673584E-1,7.112255E-1,2.1029663E-1,0E0,1.6371918E-1,0E0,0E0,4.6118164E-1,0E0,8.1817627E-1,2.244873E-1,0E0,0E0,0E0,0E0,0E0,0E0,9.9365234E-2,4.248047E-2,5.5038452E-2,9.421387E-1,0E0,0E0,0E0,0E0,1.962204E-1,0E0,5.134201E-2,2.5524902E-1,5.546875E-1,4.0426636E0,0E0,3.217926E-1,0E0,0E0,0E0,1.1708069E-1,1.1473083E0,2.8616333E-1,0E0,0E0,9.9942017E-1,1.5539551E-1,2.2746582E0,3.0786133E-1,1.0354996E-1,1.708374E-1,0E0,4.8950195E-2,3.257141E-1,1.6772461E-1,0E0,1.1658936E0,0E0,0E0,6.6223145E-2,0E0,0E0,0E0,0E0,0E0,0E0,5.804062E-3,0E0,2.9666138E-1,0E0,0E0,0E0,3.439331E-1,0E0,0E0,0E0,1.8725586E-1,0E0,0E0,2.8778076E-2,0E0,0E0,0E0,2.6478195E-1,3.7672043E-2,7.69043E-2,0E0,0E0,0E0,1.7938995E-1,4.2260742E-1,0E0,0E0,0E0,0E0,0E0,2.4700165E-1,0E0,0E0,4.6022034E-1,1.17385864E-1,0E0,0E0,0E0,0E0,0E0,2.083435E-1,0E0,8.522987E-3,0E0,0E0,0E0,0E0,0E0,9.0797424E-1,3.6450195E-1,0E0,5.8117676E-1,0E0,0E0,0E0,0E0,0E0,0E0,0E0,0E0,0E0,8.178711E-3,0E0,6.3201904E-1,0E0,0E0,0E0,0E0,0E0,4.8309326E-2,0E0,0E0,0E0,0E0,0E0,1.682167E-1,1.6293049E-1,0E0,0E0,8.168793E-2,0E0,0E0,0E0,2.3660755E-1,0E0,5.332184E-2,0E0,0E0,0E0,1.7294312E-1,0E0,0E0,0E0,0E0,0E0,0E0,0E0,0E0,0E0,0E0,0E0,0E0,0E0,0E0,0E0,0E0,0E0,0E0,0E0],"parents":[2147483647,0,0,1,1,2,2,3,3,4,4,5,5,6,6,7,7,8,8,9,9,10,10,11,11,12,12,13,13,14,14,16,16,17,17,18,18,19,19,20,20,21,21,22,22,23,23,24,24,25,25,26,26,28,28,29,29,31,31,32,32,33,33,34,34,35,35,36,36,38,38,41,41,43,43,44,44,48,48,50,50,54,54,55,55,57,57,59,59,60,60,61,61,62,62,64,64,65,65,67,67,68,68,70,70,71,71,72,72,73,73,74,74,80,80,85,85,86,86,87,87,88,88,89,89,90,90,91,91,92,92,93,93,94,94,97,97,98,98,99,99,100,100,101,101,102,102,103,103,107,107,108,108,111,111,112,112,115,115,116,116,117,117,119,119,120,120,122,122,123,123,125,125,126,126,127,127,128,128,129,129,130,130,131,131,132,132,134,134,135,135,140,140,141,141,142,142,143,143,145,145,146,146,148,148,150,150,151,151,152,152,154,154,157,157,159,159,160,160,167,167,168,168,169,169,170,170,175,175,177,177,178,178,179,179,180,180,182,182,186,186,187,187,188,188,191,191,192,192,193,193,194,194,195,195,196,196,198,198,199,199,200,200,202,202,205,205,212,212,214,214,218,218,222,222,225,225,229,229,230,230,231,231,235,235,236,236,242,242,245,245,246,246,252,252,254,254,260,260,261,261,263,263,273,273,275,275,281,281,287,287,288,288,291,291,295,295,297,297,301,301],"right_children":[2,4,6,8,10,12,14,16,18,20,22,24,26,-1,-1,-1,32,34,36,38,-1,42,44,-1,48,-1,-1,-1,-1,-1,-1,58,60,62,64,-1,68,-1,-1,-1,-1,-1,-1,74,-1,-1,-1,-1,78,-1,-1,-1,-1,-1,-1,-1,-1,86,-1,88,90,92,94,-1,-1,-1,-1,100,102,-1,-1,-1,-1,-1,-1,-1,-1,-1,-1,-1,-1,-1,-1,-1,-1,-1,118,120,-1,124,126,128,130,132,134,-1,-1,-1,-1,140,142,-1,146,-1,-1,-1,-1,-1,-1,-1,-1,-1,-1,-1,-1,-1,-1,-1,-1,164,-1,-1,-1,-1,-1,-1,-1,-1,-1,180,-1,-1,-1,-1,188,-1,-1,-1,-1,-1,-1,194,196,-1,-1,200,-1,-1,-1,-1,-1,-1,-1,-1,-1,-1,-1,-1,-1,-1,-1,-1,-1,-1,-1,-1,-1,-1,-1,-1,-1,-1,-1,-1,-1,-1,-1,-1,-1,-1,236,-1,-1,-1,-1,-1,-1,-1,-1,-1,-1,-1,-1,250,-1,-1,-1,-1,-1,-1,-1,-1,-1,-1,-1,-1,-1,-1,-1,-1,-1,-1,-1,-1,-1,-1,-1,-1,-1,-1,-1,-1,-1,-1,-1,-1,-1,-1,-1,-1,-1,-1,-1,-1,-1,-1,-1,-1,-1,-1,-1,-1,-1,-1,-1,-1,-1,-1,-1,-1,-1,-1,-1,-1,-1,-1,-1,-1,-1,-1,-1,-1,-1,-1,-1,-1,-1,-1,-1,-1,-1,-1,-1,-1,-1,-1,-1,-1,-1,-1,-1,-1,-1,-1,-1,-1,-1,-1,-1,-1,-1,-1,-1,-1,-1,-1,-1,-1,-1,-1,-1,-1,-1,-1,-1,-1,-1,-1,-1,-1,-1,-1,-1,-1,-1,-1,-1,-1,-1,-1,-1],"split_conditions":[4.65E1,3.7925E1,4.9700003E0,1.9425E1,2.755E0,3.275E0,5.375E1,8.675E0,1.725E0,4.05E1,3.045E0,5E1,6E1,1.0524193E-1,1.951613E-1,1.0000988E-1,1.255E1,3.125E1,2.425E1,1.955E0,2.1895161E-1,4.05E1,3.4650002E0,2.2576271E-1,2.1350002E0,1.9742367E-1,2.580645E-1,1.0185186E-1,1.24242425E-1,1.581081E-1,2.4038462E-1,2.475E0,2.435E0,2.425E1,1.665E0,1.05245136E-1,2.815E0,2.0662251E-1,1.6002445E-1,2.2916667E-1,2.0755103E-1,1.2951319E-1,1.8319672E-1,4.05E1,1.09627984E-1,2.3102768E-1,1.8953489E-1,2.9364407E-1,6E1,1.775E-1,2.0283952E-1,2.4711537E-1,2.8611112E-1,1E-1,1.5384616E-1,1.671875E-1,8.3333336E-2,1.745E0,1.0046361E-1,7.1500003E-1,1.5E1,2.1E1,2.9175E1,1.6615722E-1,1.3032787E-1,1.0607981E-1,1.03924625E-1,2.675E1,2.875E1,1.6788009E-1,1.4914773E-1,1.2543307E-1,1.365057E-1,1.1046032E-1,1.783848E-1,1.12000704E-1,1.0596379E-1,2.3917322E-1,2.8412697E-1,2.1679103E-1,1.9522059E-1,1.6363637E-1,6.666667E-2,1.15384616E-1,1.925E-1,1.0405711E-1,1.075E1,1.5E1,1.0365447E-1,3.545E0,3.565E0,1.065E0,1.495E0,1.425E0,1.275E0,1.1887755E-1,1.7E-1,1.0507219E-1,1.0684575E-1,1.935E0,3.325E1,1.0564113E-1,3.125E1,1.3539326E-1,1.6228572E-1,1.2341549E-1,1.4044118E-1,1.5107915E-1,1.2640187E-1,1.12553716E-1,1.0814718E-1,1.7513089E-1,2.05E-1,1.8896104E-1,2.2500001E-1,1.0327277E-1,1.067697E-1,1.01391725E-1,1.1210419E-1,6.85E-1,1.0252332E-1,1.0289594E-1,1.0411254E-1,1.18166484E-1,1.003345E-1,1.03656344E-1,1.2663817E-1,1.7108695E-1,1.1053611E-1,1.315E0,1.2264492E-1,1.01509154E-1,1.0905737E-1,2.8194445E-1,1.495E0,1.0627341E-1,1.0400653E-1,1.06551304E-1,1.0987069E-1,1.0461712E-1,1.20799996E-1,2.875E1,2.045E0,1.0609498E-1,1.0231023E-1,3.2150002E0,1.0734469E-1,1.4574468E-1,1.2235295E-1,1E-1,1.5468751E-1,1.5468751E-1,1.2076503E-1,1.7976974E-1,1.550633E-1,2.1081081E-1,1E-1,1.05768815E-1,1.0248039E-1,1.0391132E-1,1.0960493E-1,1.0023148E-1,1.0360825E-1,1.7400001E-1,1.1402439E-1,1.00691855E-1,1.0441177E-1,1.05453275E-1,1.03034675E-1,1.10615194E-1,1.2150625E-1,1.0309994E-1,1.0752972E-1,1.3688526E-1,1.0231482E-1,1.9223301E-1,1.5273438E-1,1.2876712E-1,1.0982235E-1,1.8962054E-1,1.365E0,1.2794918E-1,1.1714802E-1,1.0108953E-1,1.04143515E-1,1.0777562E-1,1.1655574E-1,1.4387755E-1,1.09864466E-1,1.0484677E-1,1.0858726E-1,1.27537E-1,1.1381721E-1,2.1750002E0,1.0704406E-1,1.4725275E-1,1.1191618E-1,1.0499912E-1,1.07240334E-1,1.254123E-1,1.10703245E-1,1.05971925E-1,1.0887446E-1,1.4137931E-1,1.10526316E-1,1.5743802E-1,9.375E-2,1.7608696E-1,8.9999996E-2,1.3402778E-1,1.1116072E-1,1.7307693E-1,1.3414635E-1,1.0386556E-1,1.09163105E-1,1.1263269E-1,1.0208334E-1,1.08088575E-1,1.1471545E-1,1.0459937E-1,1.0676006E-1,1.0162281E-1,1.03544414E-1,1.0814873E-1,1.17929295E-1,1.2490348E-1,1.1321101E-1,1.59375E-1,2.0416668E-1,1.2102804E-1,1.4625E-1,1.1165772E-1,1.0671896E-1,1.7604166E-1,1.9902724E-1,1.3650794E-1,1.8153639E-1,1.1172316E-1,1.261194E-1,1.24725275E-1,1.12738095E-1,1.22E-1,1.6438358E-1,1.0679702E-1,1.21875E-1,1.1976987E-1,1.3518123E-1,1.17024794E-1,1.07515335E-1,1.05907395E-1,1.1645776E-1,1.0670342E-1,1.1509972E-1,1.3950618E-1,1.9090909E-1,1.1585715E-1,1.0895983E-1,1.139785E-1,1.06842734E-1,1.1470588E-1,1.2931393E-1,1.1207964E-1,1.0060606E-1,1.1274419E-1,1.05754994E-1,1.5889831E-1,7.5E-2,1.462963E-1,1.0333333E-1,1.1276471E-1,1.0513959E-1,1.1071428E-1,1.2597403E-1,1.05259314E-1,1.0268565E-1,1.2801664E-1,1.20782614E-1,1.323077E-1,1.0116279E-1,8.0000006E-2,1.5138888E-1,1.0916E-1,1.1423077E-1,1.1590909E-1,1.4578314E-1,1.8591772E-1,1.5357143E-1,1.7999999E-1,1.3448276E-1,1.2753037E-1,1.1099138E-1,1.4230768E-1,1.2831326E-1,1.2802199E-1,1.1015326E-1,2.125E-1,1E-1,1.4239131E-1,1.20805375E-1,1.1154189E-1,1.6666667E-1,1.1756756E-1,1.0926366E-1,1.03466116E-1,1.068046E-1,1.1920635E-1,1.3452089E-1,1.1542751E-1,1.07331984E-1,6.666667E-2,1.8372093E-1,1.5E-1,8.9999996E-2,1.1346155E-1,1.4540817E-1,2.2857144E-1,5E-2,1.4645162E-1,1.1666667E-1,1.14825584E-1,1.2636817E-1],"split_indices":[1,1,0,1,0,0,1,1,0,1,0,1,1,1,1,0,1,1,1,0,0,1,0,0,0,1,1,2147483647,2147483647,2147483647,2147483647,0,0,1,0,0,0,0,0,2147483647,2147483647,0,0,1,0,2147483647,2147483647,0,1,2147483647,2147483647,2147483647,2147483647,2147483647,2147483647,2147483647,2147483647,0,0,0,1,1,1,0,1,2147483647,2147483647,1,1,2147483647,2147483647,2147483647,2147483647,0,0,2147483647,2147483647,0,0,2147483647,2147483647,2147483647,2147483647,2147483647,2147483647,0,1,1,0,0,0,0,0,0,0,2147483647,2147483647,2147483647,2147483647,0,1,0,1,2147483647,2147483647,2147483647,2147483647,2147483647,2147483647,2147483647,2147483647,2147483647,2147483647,2147483647,2147483647,2147483647,2147483647,1,0,0,0,2147483647,2147483647,0,0,0,0,0,0,0,0,0,0,0,0,2147483647,2147483647,2147483647,2147483647,0,0,1,0,2147483647,2147483647,0,0,2147483647,2147483647,2147483647,2147483647,2147483647,2147483647,2147483647,2147483647,2147483647,2147483647,2147483647,2147483647,2147483647,2147483647,2147483647,2147483647,0,0,2147483647,2147483647,2147483647,2147483647,2147483647,2147483647,2147483647,2147483647,2147483647,2147483647,2147483647,2147483647,2147483647,2147483647,0,0,2147483647,2147483647,2147483647,2147483647,2147483647,2147483647,0,0,2147483647,2147483647,2147483647,2147483647,0,0,2,0,2147483647,2147483647,0,0,2147483647,2147483647,2147483647,2147483647,2147483647,2147483647,2147483647,2147483647,2147483647,2147483647,2147483647,2147483647,2147483647,2147483647,2147483647,2147483647,2147483647,2147483647,2147483647,2147483647,2147483647,2147483647,2147483647,2147483647,2147483647,2147483647,2147483647,2147483647,2147483647,2147483647,2147483647,2147483647,2147483647,2147483647,0,0,2147483647,2147483647,2147483647,2147483647,2147483647,2147483647,2147483647,2147483647,2147483647,2147483647,2147483647,2147483647,0,0,2147483647,2147483647,2147483647,2147483647,2147483647,2147483647,2147483647,2147483647,2147483647,2147483647,2147483647,2147483647,2147483647,2147483647,2147483647,2147483647,2147483647,2147483647,2147483647,2147483647,2147483647,2147483647,2147483647,2147483647,2147483647,2147483647,2147483647,2147483647,2147483647,2147483647,2147483647,2147483647,2147483647,2147483647,2147483647,2147483647,2147483647,2147483647,2147483647,2147483647,2147483647,2147483647,2147483647,2147483647,2147483647,2147483647,2147483647,2147483647,2147483647,2147483647,2147483647,2147483647,2147483647,2147483647,2147483647,2147483647,2147483647,2147483647,2147483647,2147483647,2147483647,2147483647,2147483647,2147483647,2147483647,2147483647,2147483647,2147483647,2147483647,2147483647],"split_type":[0,0,0,0,0,0,0,0,0,0,0,0,0,0,0,0,0,0,0,0,0,0,0,0,0,0,0,0,0,0,0,0,0,0,0,0,0,0,0,0,0,0,0,0,0,0,0,0,0,0,0,0,0,0,0,0,0,0,0,0,0,0,0,0,0,0,0,0,0,0,0,0,0,0,0,0,0,0,0,0,0,0,0,0,0,0,0,0,0,0,0,0,0,0,0,0,0,0,0,0,0,0,0,0,0,0,0,0,0,0,0,0,0,0,0,0,0,0,0,0,0,0,0,0,0,0,0,0,0,0,0,0,0,0,0,0,0,0,0,0,0,0,0,0,0,0,0,0,0,0,0,0,0,0,0,0,0,0,0,0,0,0,0,0,0,0,0,0,0,0,0,0,0,0,0,0,0,0,0,0,0,0,0,0,0,0,0,0,0,0,0,0,0,0,0,0,0,0,0,0,0,0,0,0,0,0,0,0,0,0,0,0,0,0,0,0,0,0,0,0,0,0,0,0,0,0,0,0,0,0,0,0,0,0,0,0,0,0,0,0,0,0,0,0,0,0,0,0,0,0,0,0,0,0,0,0,0,0,0,0,0,0,0,0,0,0,0,0,0,0,0,0,0,0,0,0,0,0,0,0,0,0,0,0,0,0,0,0,0,0,0,0,0,0,0,0,0,0,0,0,0,0,0,0,0,0,0,0,0,0,0,0,0,0,0,0,0,0,0,0,0],"sum_hessian":[3.07408E5,3.05012E5,2.396E3,2.93721E5,1.1291E4,2.088E3,3.08E2,1.86399E5,1.07322E5,1.764E3,9.527E3,1.287E3,8.01E2,2.47E2,6.1E1,6.0686E4,1.25713E5,2.7025E4,8.0297E4,1.269E3,4.95E2,1.228E3,8.299E3,2.94E2,9.93E2,5.23E2,2.78E2,2.15E2,3.2E1,3.6E1,2.5E1,5.3914E4,7.1799E4,2.5989E4,1.036E3,3.8854E4,4.1443E4,4.52E2,8.17E2,2.51E2,2.44E2,9.85E2,2.43E2,3.569E3,4.73E3,2.52E2,4.2E1,2.35E2,7.58E2,1.19E2,4.04E2,2.07E2,7.1E1,2E1,1.2E1,3.1E1,5E0,3.461E4,1.9304E4,5.3108E4,1.8691E4,6.302E3,1.9687E4,9.15E2,1.21E2,2.3758E4,1.5096E4,1.6752E4,2.4691E4,4.66E2,3.51E2,6.34E2,3.51E2,3.149E3,4.2E2,2.853E3,1.877E3,5.07E2,2.51E2,1.33E2,2.71E2,1E1,2E0,1.2E1,1.9E1,2.4795E4,9.815E3,3.95E3,4.9158E4,6.103E3,1.2588E4,4.257E3,2.045E3,1.8843E4,8.44E2,9.7E1,2.4E1,1.032E4,1.3438E4,2.317E3,1.4435E4,1.2399E4,1.2292E4,1.77E2,1.74E2,5.67E2,6.7E1,1.38E2,2.13E2,1.628E3,1.521E3,3.81E2,3.9E1,2.3E2,4.1E1,1.9264E4,5.531E3,8.837E3,9.78E2,3.05E2,3.645E3,1.8594E4,3.0564E4,2.666E3,3.437E3,1.2238E4,3.5E2,2.29E2,4.028E3,9.42E2,1.103E3,1.4643E4,4.2E3,3.5E1,8.09E2,4.805E3,5.515E3,1.2279E4,1.159E3,4.43E2,1.874E3,1.2676E4,1.759E3,1.0885E4,1.514E3,1.959E3,1.0333E4,9.3E1,8.4E1,1.1E1,1.27E2,3.1E1,1.82E2,3.03E2,7.8E1,3.6E1,3E0,4.61E3,1.4654E4,2.773E3,2.758E3,5.831E3,3.006E3,2.24E2,8.1E1,1.878E3,1.767E3,1.3578E4,1.6986E4,8.28E2,1.838E3,1.0725E4,1.513E3,2.43E2,1.07E2,1.02E2,1.27E2,1.45E2,3.883E3,4.47E2,4.95E2,5.5E2,5.53E2,1.2665E4,1.978E3,3.6E3,6E2,1.46E2,6.63E2,3.001E3,1.804E3,9.45E2,9.29E2,3.712E3,8.964E3,9E1,1.669E3,5.61E3,5.275E3,6.66E2,1.293E3,5.483E3,4.85E3,2.8E1,5.6E1,1.2E2,7E0,2.2E1,9E0,7.1E1,1.11E2,3.8E1,4E1,2.974E3,1.636E3,4.7E2,2.303E3,2.144E3,6.14E2,8.261E3,5.317E3,4.559E3,1.2427E4,6.31E2,1.97E2,1.294E3,5.44E2,3.1E1,7.1E1,1.06E2,3.9E1,2.418E3,1.465E3,1.91E2,2.56E2,1.25E2,3.7E2,3.53E2,2E2,1.81E2,4.19E2,7.4E1,7.2E1,5.36E2,1.27E2,4.77E2,4.68E2,6.04E2,3.25E2,1.878E3,1.834E3,8.614E3,3.5E2,8E1,1E1,6.99E2,9.7E2,2.78E2,4.997E3,1.86E2,4.8E2,1.129E3,1.64E2,2.149E3,2.701E3,1.17E2,3E0,2.6E1,1.4E1,8.49E2,7.87E2,4.61E2,1.53E2,4.106E3,8.321E3,7.2E2,5.74E2,6.4E1,4.2E1,4E0,3.5E1,1.249E3,1.169E3,4.3E1,8.2E1,3.15E2,5.5E1,4.4E1,2.8E1,2.46E2,2.31E2,2.2E2,2.48E2,9E1,2.6E2,7E0,3E0,1.83E2,2.97E2,1.121E3,8E0,8.87E2,1.262E3,1.932E3,2.174E3,3.14E2,4.06E2,2.68E2,9.81E2,2E0,4.2E1,1.9E1,9E0,2.5E1,1.95E2,6E0,1E0,1.54E2,2.9E1,6.87E2,2E2],"tree_param":{"num_deleted":"214","num_feature":"8","num_nodes":"321","size_leaf_vector":"0"}},{"base_weights":[4.250405E-1,4.2125708E-1,9.0629894E-1,4.177378E-1,5.1276094E-1,9.6663386E-1,4.9547055E-1,4.0957543E-1,4.3191046E-1,7.5523263E-1,4.6779084E-1,1.0333188E0,8.8698083E-1,4.4623038E-1,1.0142679E0,4.0004122E-1,4.141747E-1,4.4475678E-1,4.2736563E-1,8.2934725E-1,6.7520016E-1,5.61361E-1,4.5387933E-1,9.168707E-1,1.0682433E0,8.058209E-1,1.0406581E0,4.0450454E-1,5.7038337E-1,1.0326451E0,2.7741936E-1,4.099493E-1,4.1734183E-1,4.366398E-1,6.488053E-1,4.2085457E-1,4.334546E-1,7.9057723E-1,9.277506E-1,6.160576E-1,8.196972E-1,5.1818407E-1,7.335377E-1,4.6399775E-1,4.2091265E-1,9.3026793E-1,6.477224E-1,1.1766279E0,1.026357E0,7.0687747E-1,8.340901E-1,9.9436134E-1,1.1786596E0,6.114433E-1,3.2439515E-1,4.1444966E-1,4.0185964E-1,4.1559613E-1,4.222795E-1,4.960888E-1,4.1655597E-1,6.656136E-1,5.518912E-1,4.2503542E-1,4.1438496E-1,4.410243E-1,4.2878786E-1,8.416132E-1,7.130765E-1,6.0344833E-1,7.1964806E-1,4.978561E-1,5.533831E-1,6.802688E-1,7.829132E-1,4.5348004E-1,5.45479E-1,4.311165E-1,4.0736E-1,9.503903E-1,1.1270242E0,7.129418E-1,3.9206105E-1,8.9939356E-1,7.7940506E-1,4.672353E-1,8.620766E-1,4.1000843E-1,4.1695347E-1,4.2763618E-1,4.1462E-1,4.3260458E-1,4.1723967E-1,6.834245E-1,4.7485882E-1,4.131238E-1,4.8429954E-1,6.595998E-1,8.308484E-1,4.9597362E-1,7.025097E-1,4.20368E-1,4.2852214E-1,4.774182E-1,4.355278E-1,4.175671E-1,4.327208E-1,6.5172386E-1,5.4907E-1,5.457663E-1,7.7974355E-1,4.8779228E-1,5.745973E-1,6.2681425E-1,5.0310135E-1,7.2881716E-1,8.93466E-1,4.4526124E-1,4.8381296E-1,7.3048705E-1,4.5489803E-1,9.128488E-1,4.2362216E-1,7.482361E-1,9.3227684E-1,4.0980256E-1,5.76173E-1,9.332661E-1,4.6185485E-1,4.18577E-1,4.069363E-1,4.0963688E-1,4.2291445E-1,6.3492817E-1,4.1012135E-1,4.1083083E-1,4.169117E-1,4.7643223E-1,4.0366533E-1,4.133037E-1,4.7778726E-1,6.281156E-1,7.468972E-1,4.3661422E-1,5.589605E-1,4.042407E-1,4.317961E-1,1.1356095E0,4.585944E-1,6.686485E-1,5.7166475E-1,9.465579E-1,5.976892E-1,4.6395767E-1,6.150014E-1,4.2711556E-1,4.148066E-1,4.2290646E-1,4.3321234E-1,4.1285935E-1,4.8985928E-1,4.3242064E-1,4.5865706E-1,4.3685848E-1,4.226282E-1,4.8656487E-1,6.039173E-1,1.6998777E-1,7.9021424E-1,5.086605E-1,4.6513295E-1,6.0116804E-1,3.822607E-1,3.8127956E-1,6.449361E-1,6.479716E-1,4.7501966E-1,4.2510247E-1,9.240906E-1,4.3938756E-1,5.014123E-1,6.852871E-1,4.3149334E-1,4.6997866E-1,4.2688933E-1,4.1363907E-1,4.9640083E-1,4.0815675E-1,4.2884898E-1,4.128951E-1,4.002768E-1,4.4237167E-1,4.007508E-1,4.113361E-1,4.3352345E-1,6.967733E-1,4.574881E-1,4.0099052E-1,4.1959348E-1,4.2361957E-1,4.1152504E-1,4.3505204E-1,4.9765417E-1,4.3414313E-1,4.0136716E-1,4.1185305E-1,4.27036E-1,4.921743E-1,3.861085E-1,7.917391E-1,5.640814E-1,7.026585E-1,8.5183585E-1,4.4779813E-1,4.212392E-1,7.0459896E-1,4.8706993E-1,4.2693508E-1,4.5822653E-1,5.76489E-1,4.3593314E-1,6.3914806E-1,7.046386E-1,3.892285E-1,9.949199E-1,1.6692138E-1,6.2167525E-1,4.937108E-1,3.8768724E-1,6.361486E-1,2.6197064E-1,4.1979417E-1,4.3774948E-1,4.1174924E-1,4.2634782E-1,5.1701266E-1,4.551878E-1,4.4645825E-1,4.269394E-1,5.7958794E-1,4.5194194E-1,4.2799205E-1,4.4434908E-1,4.1593528E-1,4.3113765E-1,5.475879E-1,4.1394418E-1,6.354397E-1,5.146103E-1,8.736802E-1,5.999771E-1,5.5271566E-1,4.844426E-1,5.4522413E-1,4.3270665E-1,6.0940665E-1,2.469912E-1,6.587472E-1,3.5542595E-1,7.565526E-1,3.3343813E-1,5.424245E-1,4.2744672E-1,9.610514E-1,4.2510247E-1,4.5237604E-1,4.3037352E-1,6.146244E-1,4.8303768E-1,7.142561E-1,6.1484957E-1,4.5098767E-1,4.1805026E-1,4.770611E-1,3.7535772E-1,6.233993E-1,4.6354154E-1,4.646435E-1,4.342372E-1,4.4872177E-1,4.2414984E-1,4.1935495E-1,4.3016535E-1,4.0448233E-1,4.1407597E-1,4.2276415E-1,4.7207677E-1,5.220806E-1,4.7693437E-1,4.0628058E-1,4.7141093E-1,4.5184898E-1,5.595719E-1,6.311345E-1,8.5212255E-1,4.992024E-1,5.870226E-1,4.3535233E-1,4.6071222E-1,7.8173E-1,6.824961E-1,5.173236E-1,4.6356744E-1,4.739028E-1,4.2958987E-1,4.6804082E-1,6.800112E-1,4.2432523E-1,4.592164E-1,6.73228E-1,5.987073E-1,6.687098E-1,7.5877523E-1,1.0242826E0,2.9192138E-1,1.6692138E-1,6.5045846E-1,2.6197064E-1,6.6174775E-1,4.7830206E-1,5.553637E-1,4.645236E-1,4.147682E-1,4.2305E-1,4.6891207E-1,4.2607766E-1,4.7157314E-1,5.379198E-1,8.174725E-1,4.7279117E-1,4.4098413E-1,4.3054822E-1,4.0675595E-1,4.651855E-1,4.3616736E-1,4.379701E-1,4.0774077E-1,2.7198043E-1,5.6076956E-1,5.0235766E-1,3.611389E-1,4.5064384E-1,6.611807E-1,4.2997655E-1,5.988658E-1,3.7998164E-1,9.195599E-1,6.5997744E-1,2.5498164E-1,4.5714098E-1,6.0940665E-1,4.498993E-1,5.602995E-1,4.934787E-1,6.7993486E-1,4.1603312E-1,5.027586E-1,5.999743E-1,7.514057E-1,2.8340164E-1,9.751317E-1,4.3516555E-1,4.5985314E-1,4.2526507E-1,4.5056397E-1,3.7761095E-1,6.59909E-1,7.276048E-1,4.8231396E-1,5.2229106E-1,7.032984E-1,6.228255E-1,4.4599944E-1,2.6024804E-1,6.455924E-1,3.777794E-1,4.9320486E-1,4.217729E-1,4.463347E-1,4.4075572E-1,4.6823877E-1,4.162578E-1,4.4768193E-1,4.1814664E-1,4.3944946E-1,4.3617064E-1,4.2180213E-1,4.2266735E-1,4.0978628E-1,4.7824037E-1,5.5472827E-1,4.859439E-1,4.127672E-1,4.8242754E-1,8.725113E-1,5.688914E-1,7.181326E-1,4.6701238E-1,4.2623633E-1,4.7636396E-1,4.4634974E-1,5.054007E-1,7.158438E-1,6.1084574E-1,5.0940305E-1,4.3631738E-1,4.879254E-1,5.151682E-1,4.5489275E-1,4.9150756E-1,3.306851E-1,7.593197E-1,5.334975E-1,4.4144082E-1,3.9843848E-1,5.0036883E-1,4.12276E-1,2.9192138E-1,1.0581626E0,3.6436477E-1,7.167589E-1,5.173409E-1,4.3467757E-1,5.9128505E-1,5.212514E-1,3.6403197E-1,4.680482E-1,4.0896374E-1,4.3382585E-1,4.6140933E-1,4.9863786E-1,4.221207E-1,4.3160802E-1,9.452119E-1,3.8956046E-1,4.5012355E-1,5.033588E-1,4.5197484E-1,4.2849386E-1,5.022801E-1,4.4062245E-1,4.420023E-1,4.2152828E-1,4.4275856E-1,4.1309693E-1,5.294213E-1,2.5498164E-1,6.5997744E-1,3.666463E-1,2.778651E-1,6.229304E-1,5.913275E-1,3.584381E-1,4.170443E-1,5.7739115E-1,7.3795635E-1,2.778651E-1,5.301252E-1,3.175601E-1,7.086169E-1,5.333078E-1,7.699871E-1,2.469912E-1,4.5001054E-1,4.839463E-1,4.303481E-1,4.0531E-1,5.300577E-1,4.4349763E-1,2.6024804E-1,6.7274415E-1,3.5729218E-1,7.3504823E-1,6.1401427E-1,4.4859242E-1,1.9518602E-1,7.1199083E-1,7.0031005E-1,2.6024804E-1,4.612894E-1,6.513348E-1,4.735692E-1,4.3406728E-1,4.4865206E-1,5.282269E-1,4.772047E-1,4.3876815E-1,4.0803254E-1,4.587665E-1,4.2462763E-1,4.4332612E-1,4.1372976E-1,4.304162E-1,5.327788E-1,4.4004378E-1,8.8627374E-1,4.341848E-1,4.3546724E-1,5.086506E-1,3.9843482E-1,4.373115E-1,4.5844746E-1,5.192713E-1,6.206767E-1,4.6328124E-1,7.334991E-1,5.895625E-1,8.301857E-1,5.345372E-1,4.9444184E-1,5.636305E-1,4.6433243E-1,4.1417947E-1,6.0074687E-1,4.8059523E-1,5.2239066E-1,3.5540238E-1,3.9187753E-1,5.4411924E-1,2.3741496E-1,7.780731E-1,6.1331636E-1,3.2051018E-1,4.2527783E-1,4.9170503E-1,7.398877E-1,1.9647798E-1,6.3630587E-1,5.063463E-1,4.511538E-1,6.068571E-1,5.009229E-1,4.5066357E-1,4.5581302E-1,4.242092E-1,5.5696E-1,4.646939E-1,1.043956E0,1.7637363E-1,6.1237854E-1,4.618625E-1,4.339244E-1,4.7858226E-1,4.3551964E-1,4.224825E-1,5.22353E-1,4.787984E-1,4.4767994E-1,3.92998E-1,4.3077388E-1,4.8929426E-1,4.1610962E-1,4.5083335E-1,4.237189E-1,4.4983098E-1,7.7711284E-1,5.640466E-1,8.463894E-1,4.900101E-1,3.403651E-1,8.035263E-1,5.7176995E-1,3.175601E-1,7.216219E-1,1.852434E-1,5.801784E-1,4.2696247E-1,6.009875E-1,8.7611777E-1,6.321955E-1,4.7268116E-1,4.245941E-1,4.609827E-1,6.70341E-1,4.2944604E-1,7.2419566E-1,3.0967936E-1,4.9819216E-1,3.144537E-1,1.9518602E-1,7.6229763E-1],"categories":[],"categories_nodes":[],"categories_segments":[],"categories_sizes":[],"default_left":[true,true,true,true,true,true,true,true,true,true,true,true,true,true,true,false,true,true,true,true,true,true,true,true,true,true,true,true,true,true,true,true,true,true,true,true,true,true,false,true,false,true,true,true,true,true,true,false,true,true,true,true,true,true,true,true,false,true,true,true,true,true,true,true,true,true,true,false,false,true,true,true,true,true,true,true,true,true,false,false,false,true,true,true,true,true,true,true,true,true,true,true,true,true,true,true,true,true,true,true,true,true,true,true,true,true,true,true,true,true,true,true,true,true,true,true,true,true,true,false,true,false,true,true,true,true,true,true,true,true,true,true,true,true,true,true,true,true,true,true,true,true,true,true,true,false,true,false,true,true,true,true,true,true,true,true,true,true,true,true,true,true,true,true,true,true,true,true,true,true,true,true,true,true,true,true,true,true,true,true,true,true,true,true,true,true,true,true,true,true,true,true,false,true,true,false,false,true,true,true,true,true,true,true,true,true,true,true,true,true,true,true,true,true,true,true,true,true,true,true,true,true,true,true,true,true,true,true,true,true,true,true,true,true,true,true,true,true,true,true,true,true,true,true,true,true,true,true,true,true,true,true,true,true,true,true,true,true,true,true,true,true,true,true,true,true,true,true,true,true,true,true,true,true,true,true,true,true,true,true,true,true,true,true,true,true,true,true,true,true,true,true,true,true,true,true,true,true,true,false,true,true,true,true,true,true,true,true,true,true,true,true,true,true,true,true,true,true,true,true,true,true,true,true,true,true,true,true,true,true,true,true,true,true,true,true,true,true,true,true,true,true,true,true,true,true,true,true,true,true,true,true,true,true,true,true,true,true,true,true,true,true,true,true,true,true,true,true,true,true,true,true,true,true,true,true,true,true,true,true,true,true,true,true,true,true,true,true,true,true,true,true,true,true,true,true,true,true,true,true,true,true,true,true,true,true,true,true,true,true,true,true,true,true,true,true,true,true,true,true,true,true,true,true,true,true,true,true,true,true,true,true,true,true,true,true,true,true,true,true,true,true,true,true,true,true,true,true,true,true,true,true,true,true,true,true,true,true,true,true,true,true,true,true,true,true,true,true,true,true,true,true,true,true,true,true,true,true,true,true,true,true,true,true,true,true,true,true,true,true,true,true,true,true,true,true,true,true,true,true,true,true,true,true,true,true,true,true,true,true,true,true,true,true,true,true,true,true,true,true,true,true,true,true,true,true,true,true,true,true,true,true,true,true,true,true,true,true,true,true,true,true,true,true,true,true,true,true,true,true,true,true,true,true,true,true,true,true,true,true,true,true,true,true,true,true,true,true,true,true,true,true,true,true,true,true,true,true,true,true,true],"id":1,"left_children":[1,3,5,7,9,11,13,15,17,19,21,23,25,-1,-1,-1,31,33,35,37,39,41,43,-1,47,-1,-1,-1,-1,-1,-1,55,57,59,-1,-1,65,67,-1,-1,-1,-1,-1,75,77,-1,-1,-1,79,-1,-1,-1,-1,-1,-1,87,-1,89,91,93,95,-1,-1,-1,-1,103,-1,-1,-1,-1,-1,-1,-1,-1,-1,117,119,121,-1,-1,-1,-1,-1,-1,-1,-1,-1,-1,131,133,-1,137,139,141,143,145,147,-1,-1,-1,-1,-1,-1,-1,-1,-1,-1,-1,-1,-1,-1,-1,-1,-1,-1,-1,-1,-1,181,-1,-1,-1,-1,-1,-1,-1,-1,-1,-1,-1,-1,191,-1,195,-1,-1,-1,-1,-1,-1,-1,209,-1,-1,215,-1,-1,-1,219,-1,-1,-1,-1,-1,-1,-1,-1,-1,-1,-1,-1,-1,-1,-1,-1,-1,-1,-1,-1,-1,-1,-1,-1,-1,-1,-1,-1,-1,-1,-1,-1,-1,-1,-1,-1,-1,-1,-1,-1,-1,-1,-1,-1,-1,-1,-1,-1,-1,-1,-1,-1,-1,-1,-1,-1,-1,-1,-1,-1,-1,-1,-1,-1,-1,-1,299,-1,-1,-1,-1,-1,-1,-1,-1,-1,-1,-1,-1,-1,-1,-1,-1,-1,-1,-1,-1,-1,-1,-1,-1,-1,-1,-1,-1,-1,-1,-1,-1,-1,-1,-1,-1,-1,-1,-1,-1,-1,-1,-1,-1,-1,-1,-1,-1,-1,-1,-1,-1,-1,-1,-1,-1,-1,-1,-1,-1,-1,-1,-1,-1,-1,-1,-1,-1,-1,-1,-1,-1,-1,-1,-1,-1,-1,-1,-1,-1,-1,-1,-1,-1,401,-1,-1,-1,-1,-1,-1,-1,-1,-1,-1,-1,-1,-1,-1,-1,-1,-1,-1,-1,-1,-1,-1,-1,-1,-1,-1,-1,-1,-1,-1,-1,-1,-1,-1,-1,-1,-1,-1,-1,-1,-1,-1,-1,-1,-1,-1,-1,-1,-1,-1,-1,-1,-1,-1,-1,-1,-1,-1,-1,-1,-1,-1,-1,-1,-1,-1,-1,-1,-1,-1,-1,-1,-1,-1,-1,-1,-1,-1,-1,-1,-1,-1,-1,-1,-1,-1,-1,-1,-1,-1,-1,-1,-1,-1,-1,-1,-1,-1,-1,-1,-1,-1,-1,-1,-1,-1,-1,-1,-1,-1,-1,-1,-1,-1,-1,-1,-1,-1,-1,-1,-1,-1,-1,-1,-1,-1,-1,-1,-1,-1,-1,-1,-1,-1,-1,-1,-1,-1,-1,-1,-1,-1,-1,-1,-1,-1,-1,-1,-1,-1,-1,-1,-1,-1,-1,-1,-1,-1,-1,-1,-1,-1,-1,-1,-1,-1,-1,-1,-1,-1,-1,-1,-1,-1,-1,-1,-1,-1,-1,-1,-1,-1,-1,-1,-1,-1,-1,-1,-1,-1,-1,-1,-1,-1,-1,-1,-1,-1,-1,-1,-1,-1,-1,-1,-1,-1,-1,-1,-1,-1,-1,-1,-1,-1,-1,-1,-1,-1,-1,-1,-1,-1,-1,-1,-1,-1,-1,-1,-1,-1,-1,-1,-1,-1,-1,-1,-1,-1,-1,-1,-1,-1,-1,-1,-1,-1,-1,-1,-1,-1,-1,-1,-1,-1,-1,-1,-1,-1,-1,-1,-1,-1,-1,-1,-1,-1,-1,-1,-1,-1,-1,-1,-1,-1,-1,-1,-1,-1,-1,-1],"loss_changes":[5.5935547E2,9.800781E1,5.8936157E1,3.3804688E1,1.2277466E2,1.0179565E1,7.4410095E0,8.009766E0,6.076172E0,9.909241E0,1.2147949E1,3.6202393E0,1.1122498E1,1.240509E0,6.559563E-2,0E0,1.5097656E0,4.612793E1,2.9609375E0,2.7459106E0,6.7932434E0,8.756378E0,2.5733643E0,3.638153E-1,2.7147827E0,1.1781311E0,9.23584E-1,0E0,4.985695E-1,0E0,0E0,1.796875E0,4.4335938E-1,3.1974121E1,1.3756409E0,8.613281E-1,1.2568359E0,2.0143433E0,0E0,3.6250305E-1,0E0,4.2999268E-1,1.09176636E-1,5.1868896E0,9.5458984E-2,0E0,0E0,0E0,3.7543945E0,1.1367798E-3,1.0345459E0,0E0,0E0,1.6935196E0,0E0,2.1386719E-1,0E0,4.4726562E-1,7.919922E-1,2.6723877E1,4.48584E0,3.5324097E-1,1.0328178E0,1.9824219E-1,0E0,2.9089355E0,9.3896484E-1,0E0,0E0,1.0859833E0,2.1186066E-1,2.1014404E-1,9.843216E-1,0E0,6.6482544E-2,1.1861572E0,1.1733612E1,3.5881958E0,0E0,0E0,0E0,0E0,0E0,0E0,5.984802E-1,7.889748E-3,1.3879871E-1,1.5966797E-1,7.895508E-1,1.4084412E1,2.5585938E-1,7.5495605E0,2.8027344E0,1.953186E0,1.9414795E1,3.0080566E0,1.5651978E1,3.1799316E-1,1.8965721E-1,1.8339157E-1,0E0,1.9799805E-1,1.6625977E-1,1.431427E0,7.753906E-1,0E0,5.986328E-1,0E0,6.146393E-1,0E0,1.4020729E-1,3.1982422E-2,1.1771393E-1,3.725853E-1,5.6279373E-1,0E0,1.0918808E-1,1.2427368E0,1.2216553E1,0E0,4.6539307E-3,0E0,5.837097E-1,0E0,0E0,0E0,0E0,0E0,0E0,1.7541504E-1,2.0239258E-1,2.7147217E0,1.3120117E0,3.039215E0,1.4709473E-1,0E0,9.3066406E-1,1.9104004E0,8.3740234E-2,5.9814453E-2,8.1503296E-1,3.4824524E0,8.6842346E-1,5.3460693E-1,1.9623169E1,0E0,5.9729004E-1,0E0,2.2359924E0,3.9050293E-1,0E0,7.095909E-2,2.0218372E-2,3.7794113E-2,5.056381E-3,1.6534424E-1,1.9104004E-2,0E0,0E0,0E0,1.3651428E0,7.297363E-1,1.0276184E0,6.911621E-1,1.3305664E-1,3.449974E-1,5.867386E-2,0E0,1.427021E-1,3.6315918E-2,5.016403E-1,1.8720627E-2,0E0,0E0,2.77668E-1,8.4061146E-1,3.549614E-1,0E0,1.8163109E-1,2.7642822E-1,5.622406E-1,5.6678772E-2,5.9127808E-2,2.5993347E-2,0E0,0E0,2.3683548E-1,0E0,0E0,0E0,0E0,1.8103027E-1,0E0,0E0,7.089844E-1,0E0,0E0,0E0,0E0,1.9848633E-1,1.3769531E-1,1.7758179E-1,5.5773926E-1,6.391525E-2,0E0,0E0,0E0,1.5273438E0,0E0,4.6107483E-1,1.1328888E-1,0E0,0E0,1.882019E-1,0E0,5.371094E-1,6.703186E-1,0E0,2.2064209E-1,1.3320656E0,1.7303467E-2,2.1160889E-1,1.675415E-1,0E0,1.061821E-2,0E0,3.540659E-2,0E0,0E0,2.779293E-2,0E0,0E0,0E0,0E0,0E0,1.1387787E0,9.223938E-2,1.555603E0,1.307373E-1,3.5324097E-1,1.3626099E-1,1.5625E-1,1.019043E0,0E0,2.0300293E-1,9.089279E-2,1.1270714E-1,1.6345596E-1,3.4867287E-2,2.6215553E-1,1.629157E-1,2.3072815E-1,2.5102997E-1,2.0817757E-1,3.261566E-2,0E0,0E0,2.0811462E-1,0E0,0E0,0E0,0E0,0E0,3.490448E-4,0E0,9.521484E-3,5.5511475E-2,3.3039856E-1,0E0,1.630249E-1,2.7123642E-1,4.193878E-2,0E0,0E0,0E0,1.7353058E-2,7.825279E-2,0E0,4.7454834E-2,1.6537476E-1,5.422363E-1,1.6845703E-2,8.312988E-2,0E0,2.849121E-1,0E0,0E0,7.666626E-1,0E0,0E0,0E0,3.523941E-1,0E0,0E0,1.21788025E-1,0E0,5.7388306E-2,1.6171265E-1,5.038452E-2,0E0,2.567459E0,9.698486E-2,2.7165222E-1,2.3710632E-1,0E0,7.921219E-2,4.4315338E-1,6.2042236E-2,2.747078E-1,0E0,0E0,0E0,0E0,3.847313E-2,0E0,0E0,0E0,0E0,4.966736E-2,5.8918E-1,2.6649475E-1,4.3899536E-2,0E0,7.2143555E-2,1.4770508E-1,3.2958984E-3,0E0,0E0,1.783948E-1,1.2403107E-1,0E0,4.5410156E-2,0E0,1.6064758E0,2.546997E-1,3.555298E-2,0E0,0E0,0E0,5.6004524E-3,0E0,0E0,0E0,0E0,1.3464928E-2,0E0,0E0,0E0,0E0,0E0,7.79953E-2,0E0,1.3879395E-1,1.4403057E-1,2.3819256E-1,0E0,9.041786E-3,1.94273E-1,2.1284866E-1,0E0,0E0,0E0,4.7348022E-2,2.1331787E-2,2.7252197E-2,0E0,5.0626755E-2,1.6461182E-1,0E0,8.473396E-3,2.4448395E-2,4.2498827E-2,0E0,0E0,0E0,0E0,7.300949E-2,0E0,5.369568E-2,0E0,5.584564E-1,0E0,4.6401978E-2,0E0,8.530426E-2,6.500244E-2,0E0,1.0632324E-1,0E0,4.2175293E-1,0E0,0E0,0E0,0E0,1.9367218E-2,0E0,0E0,1.318245E-1,1.281128E-1,1.809082E-1,0E0,1.1058998E-1,4.928131E-1,1.922617E-1,1.3832092E-1,2.722931E-2,2.306366E-2,2.4349213E-2,0E0,1.1175728E-1,0E0,2.557087E-1,2.9643726E-1,4.5986176E-2,0E0,0E0,0E0,0E0,0E0,0E0,3.5130024E-2,8.773804E-4,0E0,2.0846558E-1,0E0,0E0,1.06300354E-1,0E0,1.0681152E-4,0E0,3.9250183E-1,0E0,0E0,3.4730148E-1,0E0,0E0,6.5361404E-1,1.1810303E-2,2.6123047E-2,1.2321472E-1,2.3243713E-1,1.7385864E0,4.9468994E-2,1.4587402E-2,0E0,0E0,0E0,0E0,0E0,0E0,4.2850494E-2,0E0,0E0,0E0,1.9639969E-1,1.4362812E-1,0E0,7.5143814E-2,0E0,5.0099373E-2,1.6462326E-2,2.0884132E-1,0E0,0E0,2.2055817E-1,7.25708E-2,0E0,1.7789173E-1,0E0,0E0,0E0,0E0,0E0,3.1224442E-1,2.2978783E-2,0E0,0E0,3.907895E-2,0E0,0E0,0E0,0E0,0E0,0E0,0E0,0E0,0E0,0E0,0E0,0E0,0E0,0E0,0E0,0E0,0E0,0E0,0E0,0E0,0E0,0E0,0E0,0E0,0E0,0E0,0E0,0E0,0E0,0E0,0E0,0E0,0E0,0E0,0E0,0E0,0E0,0E0,0E0,0E0,0E0,0E0,0E0,0E0,0E0,0E0,0E0,0E0,0E0,0E0,0E0,0E0,0E0,0E0,0E0,0E0,0E0,0E0,0E0,0E0,0E0,0E0,0E0,0E0,0E0,0E0,0E0,0E0,0E0,0E0,0E0,0E0,0E0,0E0,0E0,0E0,0E0,0E0,0E0,0E0,0E0,0E0,0E0,0E0,0E0,0E0,0E0,0E0,0E0,0E0,0E0,0E0,0E0,0E0,0E0,0E0,0E0,0E0,0E0,0E0,0E0,0E0,0E0],"parents":[2147483647,0,0,1,1,2,2,3,3,4,4,5,5,6,6,7,7,8,8,9,9,10,10,11,11,12,12,13,13,14,14,16,16,17,17,18,18,19,19,20,20,21,21,22,22,23,23,24,24,25,25,26,26,28,28,31,31,32,32,33,33,34,34,35,35,36,36,37,37,39,39,41,41,42,42,43,43,44,44,48,48,49,49,50,50,53,53,55,55,57,57,58,58,59,59,60,60,61,61,62,62,63,63,65,65,66,66,69,69,70,70,71,71,72,72,74,74,75,75,76,76,77,77,84,84,85,85,86,86,87,87,88,88,89,89,90,90,91,91,92,92,93,93,94,94,95,95,96,96,97,97,98,98,99,99,101,101,102,102,103,103,104,104,106,106,108,108,110,110,111,111,112,112,113,113,114,114,116,116,117,117,118,118,120,120,122,122,129,129,130,130,131,131,132,132,133,133,134,134,136,136,137,137,138,138,139,139,140,140,141,141,142,142,143,143,144,144,146,146,148,148,149,149,151,151,152,152,153,153,154,154,155,155,156,156,160,160,161,161,162,162,163,163,164,164,165,165,166,166,168,168,169,169,170,170,171,171,174,174,175,175,176,176,178,178,179,179,180,180,181,181,182,182,183,183,186,186,191,191,194,194,199,199,200,200,201,201,202,202,203,203,207,207,209,209,210,210,213,213,215,215,216,216,218,218,219,219,220,220,221,221,222,222,224,224,226,226,229,229,235,235,236,236,237,237,238,238,239,239,240,240,241,241,242,242,244,244,245,245,246,246,247,247,248,248,249,249,250,250,251,251,252,252,253,253,254,254,257,257,263,263,265,265,266,266,267,267,269,269,270,270,271,271,275,275,276,276,278,278,279,279,280,280,281,281,282,282,284,284,287,287,291,291,294,294,296,296,297,297,298,298,300,300,301,301,302,302,303,303,305,305,306,306,307,307,308,308,313,313,318,318,319,319,320,320,321,321,323,323,324,324,325,325,328,328,329,329,331,331,333,333,334,334,335,335,339,339,344,344,350,350,352,352,353,353,354,354,356,356,357,357,358,358,362,362,363,363,364,364,366,366,367,367,369,369,370,370,371,371,376,376,378,378,380,380,382,382,384,384,385,385,387,387,389,389,394,394,397,397,398,398,399,399,401,401,402,402,403,403,404,404,405,405,406,406,407,407,409,409,411,411,412,412,413,413,420,420,421,421,423,423,426,426,428,428,430,430,433,433,436,436,437,437,438,438,439,439,440,440,441,441,442,442,443,443,450,450,454,454,455,455,457,457,459,459,460,460,461,461,464,464,465,465,467,467,473,473,474,474,477,477],"right_children":[2,4,6,8,10,12,14,16,18,20,22,24,26,-1,-1,-1,32,34,36,38,40,42,44,-1,48,-1,-1,-1,-1,-1,-1,56,58,60,-1,-1,66,68,-1,-1,-1,-1,-1,76,78,-1,-1,-1,80,-1,-1,-1,-1,-1,-1,88,-1,90,92,94,96,-1,-1,-1,-1,104,-1,-1,-1,-1,-1,-1,-1,-1,-1,118,120,122,-1,-1,-1,-1,-1,-1,-1,-1,-1,-1,132,134,-1,138,140,142,144,146,148,-1,-1,-1,-1,-1,-1,-1,-1,-1,-1,-1,-1,-1,-1,-1,-1,-1,-1,-1,-1,-1,182,-1,-1,-1,-1,-1,-1,-1,-1,-1,-1,-1,-1,192,-1,196,-1,-1,-1,-1,-1,-1,-1,210,-1,-1,216,-1,-1,-1,220,-1,-1,-1,-1,-1,-1,-1,-1,-1,-1,-1,-1,-1,-1,-1,-1,-1,-1,-1,-1,-1,-1,-1,-1,-1,-1,-1,-1,-1,-1,-1,-1,-1,-1,-1,-1,-1,-1,-1,-1,-1,-1,-1,-1,-1,-1,-1,-1,-1,-1,-1,-1,-1,-1,-1,-1,-1,-1,-1,-1,-1,-1,-1,-1,-1,-1,300,-1,-1,-1,-1,-1,-1,-1,-1,-1,-1,-1,-1,-1,-1,-1,-1,-1,-1,-1,-1,-1,-1,-1,-1,-1,-1,-1,-1,-1,-1,-1,-1,-1,-1,-1,-1,-1,-1,-1,-1,-1,-1,-1,-1,-1,-1,-1,-1,-1,-1,-1,-1,-1,-1,-1,-1,-1,-1,-1,-1,-1,-1,-1,-1,-1,-1,-1,-1,-1,-1,-1,-1,-1,-1,-1,-1,-1,-1,-1,-1,-1,-1,-1,-1,402,-1,-1,-1,-1,-1,-1,-1,-1,-1,-1,-1,-1,-1,-1,-1,-1,-1,-1,-1,-1,-1,-1,-1,-1,-1,-1,-1,-1,-1,-1,-1,-1,-1,-1,-1,-1,-1,-1,-1,-1,-1,-1,-1,-1,-1,-1,-1,-1,-1,-1,-1,-1,-1,-1,-1,-1,-1,-1,-1,-1,-1,-1,-1,-1,-1,-1,-1,-1,-1,-1,-1,-1,-1,-1,-1,-1,-1,-1,-1,-1,-1,-1,-1,-1,-1,-1,-1,-1,-1,-1,-1,-1,-1,-1,-1,-1,-1,-1,-1,-1,-1,-1,-1,-1,-1,-1,-1,-1,-1,-1,-1,-1,-1,-1,-1,-1,-1,-1,-1,-1,-1,-1,-1,-1,-1,-1,-1,-1,-1,-1,-1,-1,-1,-1,-1,-1,-1,-1,-1,-1,-1,-1,-1,-1,-1,-1,-1,-1,-1,-1,-1,-1,-1,-1,-1,-1,-1,-1,-1,-1,-1,-1,-1,-1,-1,-1,-1,-1,-1,-1,-1,-1,-1,-1,-1,-1,-1,-1,-1,-1,-1,-1,-1,-1,-1,-1,-1,-1,-1,-1,-1,-1,-1,-1,-1,-1,-1,-1,-1,-1,-1,-1,-1,-1,-1,-1,-1,-1,-1,-1,-1,-1,-1,-1,-1,-1,-1,-1,-1,-1,-1,-1,-1,-1,-1,-1,-1,-1,-1,-1,-1,-1,-1,-1,-1,-1,-1,-1,-1,-1,-1,-1,-1,-1,-1,-1,-1,-1,-1,-1,-1,-1,-1,-1,-1,-1,-1,-1,-1,-1,-1,-1,-1,-1,-1,-1,-1,-1,-1,-1,-1,-1,-1,-1,-1,-1,-1,-1,-1,-1],"split_conditions":[4.65E1,3.7925E1,4.9700003E0,1.9425E1,2.755E0,3.1950002E0,6.375E1,8.675E0,1.735E0,2.335E0,3.045E0,5E1,6E1,8.924608E-2,2.0285359E-1,8.0008246E-2,1.255E1,3.125E1,2.425E1,4.05E1,4.05E1,4.05E1,4.545E0,1.8337415E-1,2.1149998E0,1.6116418E-1,2.0813163E-1,8.090091E-2,1.14076674E-1,2.0652902E-1,5.5483874E-2,2.475E0,2.435E0,2.425E1,1.2976107E-1,8.4170915E-2,2.7849998E0,1.725E0,1.8555012E-1,1.2321152E-1,1.6393945E-1,1.03636816E-1,1.4670753E-1,4.4E1,4.965E0,1.8605359E-1,1.2954448E-1,2.3532557E-1,5.625E1,1.413755E-1,1.6681802E-1,1.9887227E-1,2.3573191E-1,1.2228866E-1,6.487903E-2,1.045E0,8.037193E-2,7.1500003E-1,1.5E1,1.115E0,2.9175E1,1.3312273E-1,1.1037824E-1,8.500709E-2,8.2876995E-2,2.675E1,8.5757576E-2,1.6832264E-1,1.426153E-1,1.2068967E-1,1.4392962E-1,9.957122E-2,1.10676624E-1,1.3605377E-1,1.5658264E-1,4.05E1,3.7649999E0,3.825E1,8.1472E-2,1.9007806E-1,2.2540484E-1,1.4258836E-1,7.841221E-2,1.7987871E-1,1.5588102E-1,9.344706E-2,1.7241532E-1,8.2001686E-2,9.925E0,1.5E1,8.2924E-2,3.4050002E0,3.375E0,2.1E1,2.1E1,1.325E0,1.275E0,1.3191997E-1,1.6616969E-1,9.919473E-2,1.4050195E-1,8.4073596E-2,8.570443E-2,9.5483646E-2,8.7105565E-2,8.3513424E-2,8.654416E-2,1.3034478E-1,1.09814E-1,1.0915326E-1,1.5594871E-1,9.755846E-2,1.1491946E-1,1.2536286E-1,1.0062027E-1,1.4576344E-1,1.786932E-1,8.905225E-2,3.545E0,1.460974E-1,9.0979606E-2,1.8256976E-1,8.472443E-2,1.4964722E-1,1.8645537E-1,8.1960514E-2,1.15234606E-1,1.8665323E-1,9.237097E-2,8.37154E-2,8.138726E-2,1.515E0,8.458289E-2,6.85E-1,8.202427E-2,8.2166165E-2,8.338234E-2,9.528645E-2,8.073307E-2,8.266074E-2,9.555745E-2,7.1500003E-1,1.4937945E-1,8.7322846E-2,1.495E0,8.084814E-2,8.6359225E-2,2.271219E-1,1.495E0,1.337297E-1,1.1433295E-1,1.8931158E-1,1.19537845E-1,9.2791535E-2,1.2300028E-1,8.542311E-2,8.296132E-2,8.458129E-2,8.664247E-2,8.257187E-2,9.797186E-2,8.648413E-2,9.1731414E-2,8.73717E-2,8.452564E-2,9.731298E-2,1.2078346E-1,3.3997554E-2,1.5804285E-1,1.017321E-1,9.302659E-2,1.2023361E-1,7.645214E-2,7.625591E-2,1.2898722E-1,1.2959431E-1,9.500393E-2,8.50205E-2,1.8481813E-1,8.787751E-2,1.0028245E-1,1.3705742E-1,8.629867E-2,9.3995735E-2,8.5377865E-2,8.272781E-2,9.928017E-2,8.1631355E-2,8.5769795E-2,8.2579024E-2,8.005536E-2,8.847433E-2,8.015016E-2,8.226722E-2,8.6704694E-2,1.3935466E-1,9.149762E-2,8.01981E-2,8.39187E-2,8.472391E-2,8.230501E-2,8.7010406E-2,9.953084E-2,8.682863E-2,8.0273435E-2,8.237061E-2,8.54072E-2,9.843486E-2,7.72217E-2,1.5834783E-1,1.12816274E-1,1.405317E-1,1.7036717E-1,8.955963E-2,8.424784E-2,1.315E0,9.741399E-2,8.5387014E-2,9.164531E-2,1.15297794E-1,8.718663E-2,1.2782961E-1,1.4092772E-1,7.78457E-2,1.9898398E-1,3.3384275E-2,1.2433505E-1,9.874216E-2,7.753745E-2,1.2722972E-1,5.239413E-2,8.3958834E-2,8.7549895E-2,8.234985E-2,8.526956E-2,1.0340253E-1,9.1037564E-2,8.9291655E-2,8.538788E-2,1.15917586E-1,9.038839E-2,8.559841E-2,8.886982E-2,8.318706E-2,8.622753E-2,1.09517574E-1,8.278884E-2,1.2708794E-1,1.0292206E-1,1.7473604E-1,1.19995415E-1,1.1054313E-1,9.688852E-2,1.0904483E-1,8.654133E-2,1.2188133E-1,4.939824E-2,1.3174944E-1,7.108519E-2,1.5131052E-1,6.668763E-2,1.084849E-1,8.548935E-2,1.9221029E-1,8.50205E-2,9.047521E-2,8.60747E-2,1.2292488E-1,9.6607536E-2,1.4285122E-1,1.2296992E-1,9.019753E-2,8.361005E-2,9.541222E-2,7.507154E-2,1.2467986E-1,9.270831E-2,9.29287E-2,8.684745E-2,8.974435E-2,8.482997E-2,8.387099E-2,8.603307E-2,8.089647E-2,8.281519E-2,8.455283E-2,9.441536E-2,1.04416125E-1,9.538688E-2,8.1256114E-2,9.428219E-2,9.03698E-2,1.1191439E-1,1.262269E-1,1.704245E-1,9.9840485E-2,1.1740452E-1,8.7070465E-2,9.214245E-2,1.5634601E-1,1.345E0,1.0346472E-1,9.271349E-2,9.478056E-2,8.591797E-2,9.360816E-2,1.3600224E-1,8.486505E-2,9.184328E-2,1.3464561E-1,1.1974146E-1,1.3374196E-1,1.5175505E-1,2.0485651E-1,5.8384277E-2,3.3384275E-2,1.300917E-1,5.239413E-2,1.3234955E-1,9.566041E-2,1.1107274E-1,9.2904724E-2,8.295364E-2,8.461E-2,9.378242E-2,8.521553E-2,9.431463E-2,1.0758396E-1,1.6349451E-1,9.455823E-2,8.819683E-2,8.6109646E-2,8.135119E-2,9.30371E-2,8.723348E-2,8.7594025E-2,8.1548154E-2,5.439609E-2,1.1215391E-1,1.00471534E-1,7.222778E-2,9.012877E-2,1.3223614E-1,8.599531E-2,1.19773164E-1,7.599633E-2,1.8391198E-1,1.3199548E-1,5.099633E-2,9.14282E-2,1.2188133E-1,8.997986E-2,1.12059906E-1,9.869574E-2,1.3598697E-1,8.3206624E-2,1.00551724E-1,1.1999486E-1,1.5028115E-1,5.668033E-2,1.9502634E-1,8.7033115E-2,9.197063E-2,8.505302E-2,9.01128E-2,7.552219E-2,1.319818E-1,1.4552097E-1,9.646279E-2,1.0445821E-1,1.4065968E-1,1.245651E-1,8.919989E-2,5.2049607E-2,1.2911849E-1,7.555588E-2,9.864097E-2,8.435458E-2,8.926694E-2,8.815115E-2,9.3647756E-2,8.325156E-2,8.953639E-2,8.362933E-2,8.7889895E-2,8.723413E-2,8.436043E-2,8.4533475E-2,8.195726E-2,9.564807E-2,1.1094566E-1,9.7188786E-2,8.255344E-2,9.648551E-2,1.7450227E-1,1.13778286E-1,1.4362653E-1,9.3402475E-2,8.524727E-2,9.5272794E-2,8.926995E-2,1.0108014E-1,1.4316876E-1,1.2216915E-1,1.0188061E-1,8.726348E-2,9.758508E-2,1.0303364E-1,9.0978555E-2,9.8301515E-2,6.613702E-2,1.5186395E-1,1.06699504E-1,8.8288166E-2,7.96877E-2,1.0007377E-1,8.24552E-2,5.8384277E-2,2.1163252E-1,7.287296E-2,1.4335178E-1,1.0346818E-1,8.693551E-2,1.1825701E-1,1.04250275E-1,7.2806396E-2,9.360964E-2,8.179275E-2,8.676517E-2,9.228187E-2,9.972757E-2,8.442414E-2,8.632161E-2,1.8904237E-1,7.791209E-2,9.002471E-2,1.0067176E-1,9.039497E-2,8.5698776E-2,1.0045602E-1,8.812449E-2,8.840046E-2,8.430566E-2,8.8551715E-2,8.261939E-2,1.0588427E-1,5.099633E-2,1.3199548E-1,7.332926E-2,5.5573024E-2,1.2458608E-1,1.182655E-1,7.1687624E-2,8.340886E-2,1.1547823E-1,1.4759128E-1,5.5573024E-2,1.0602504E-1,6.351202E-2,1.4172338E-1,1.0666156E-1,1.5399742E-1,4.939824E-2,9.000211E-2,9.678926E-2,8.606962E-2,8.1062004E-2,1.0601155E-1,8.869953E-2,5.2049607E-2,1.3454883E-1,7.145844E-2,1.4700966E-1,1.2280285E-1,8.971848E-2,3.9037205E-2,1.4239816E-1,1.4006202E-1,5.2049607E-2,9.225788E-2,1.3026696E-1,9.4713844E-2,8.681346E-2,8.973041E-2,1.0564538E-1,9.544095E-2,8.775363E-2,8.160651E-2,9.17533E-2,8.4925525E-2,8.8665225E-2,8.2745954E-2,8.608324E-2,1.0655576E-1,8.8008754E-2,1.7725475E-1,8.683696E-2,8.709345E-2,1.0173012E-1,7.968696E-2,8.74623E-2,9.168949E-2,1.0385426E-1,1.2413534E-1,9.265625E-2,1.4669983E-1,1.1791249E-1,1.6603714E-1,1.0690744E-1,9.888837E-2,1.1272611E-1,9.286649E-2,8.28359E-2,1.20149374E-1,9.6119046E-2,1.04478136E-1,7.1080476E-2,7.837551E-2,1.0882385E-1,4.7482993E-2,1.5561461E-1,1.22663274E-1,6.410204E-2,8.505557E-2,9.834101E-2,1.4797755E-1,3.9295595E-2,1.2726118E-1,1.0126926E-1,9.023076E-2,1.21371426E-1,1.0018458E-1,9.013271E-2,9.116261E-2,8.484184E-2,1.11392E-1,9.293878E-2,2.0879121E-1,3.5274725E-2,1.22475706E-1,9.23725E-2,8.6784884E-2,9.5716454E-2,8.7103926E-2,8.44965E-2,1.044706E-1,9.575968E-2,8.953599E-2,7.85996E-2,8.615478E-2,9.785885E-2,8.322193E-2,9.016667E-2,8.474378E-2,8.99662E-2,1.5542257E-1,1.1280932E-1,1.6927789E-1,9.8002024E-2,6.807303E-2,1.6070525E-1,1.1435399E-1,6.351202E-2,1.4432438E-1,3.704868E-2,1.1603568E-1,8.53925E-2,1.201975E-1,1.7522356E-1,1.264391E-1,9.453624E-2,8.491882E-2,9.219655E-2,1.340682E-1,8.588921E-2,1.4483914E-1,6.193587E-2,9.963843E-2,6.289074E-2,3.9037205E-2,1.5245953E-1],"split_indices":[1,1,0,1,0,0,1,1,0,0,0,1,1,1,0,0,1,1,1,1,1,1,0,0,0,1,1,2147483647,2147483647,2147483647,2147483647,0,0,1,0,0,0,0,0,0,0,0,1,1,0,2147483647,2147483647,0,1,2147483647,2147483647,2147483647,2147483647,2147483647,2147483647,0,0,0,1,0,1,2147483647,2147483647,2147483647,2147483647,1,1,0,0,2147483647,2147483647,2147483647,2147483647,2147483647,2147483647,1,0,1,0,0,0,2147483647,2147483647,2147483647,2147483647,2147483647,2147483647,1,1,1,0,0,0,1,1,0,0,2147483647,2147483647,2147483647,2147483647,2147483647,2147483647,0,1,2147483647,2147483647,2147483647,2147483647,2147483647,2147483647,2147483647,2147483647,2147483647,2147483647,2147483647,2147483647,0,0,0,3,0,0,2147483647,2147483647,2147483647,2147483647,2147483647,2147483647,2147483647,2147483647,0,0,0,0,2147483647,2147483647,0,0,0,0,0,0,0,0,0,0,0,0,2147483647,2147483647,2147483647,2147483647,2147483647,2147483647,2147483647,2147483647,2147483647,2147483647,2147483647,2147483647,2147483647,2147483647,2147483647,2147483647,2147483647,2147483647,2147483647,2147483647,2147483647,2147483647,2147483647,2147483647,2147483647,2147483647,2147483647,2147483647,2147483647,2147483647,2147483647,2147483647,0,2,2147483647,2147483647,2147483647,2147483647,2147483647,2147483647,2147483647,2147483647,0,0,2147483647,2147483647,0,0,2147483647,2147483647,2147483647,2147483647,2147483647,2147483647,2147483647,2147483647,2147483647,2147483647,2147483647,2147483647,0,3,2147483647,2147483647,2147483647,2147483647,0,0,2147483647,2147483647,0,0,2147483647,2147483647,2147483647,2147483647,2147483647,2147483647,2147483647,2147483647,2147483647,2147483647,2147483647,2147483647,2147483647,2147483647,2147483647,2147483647,2147483647,2147483647,2147483647,2147483647,2147483647,2147483647,2147483647,2147483647,2147483647,2147483647,2147483647,2147483647,2147483647,2147483647,2147483647,2147483647,2147483647,2147483647,2147483647,2147483647,2147483647,2147483647,2147483647,2147483647,2147483647,2147483647,2147483647,2147483647,2147483647,2147483647,2147483647,2147483647,2147483647,2147483647,2147483647,2147483647,2147483647,2147483647,2147483647,2147483647,2147483647,2147483647,2147483647,2147483647,2147483647,2147483647,2147483647,2147483647,2147483647,2147483647,2147483647,2147483647,2147483647,2147483647,2147483647,2147483647,2147483647,2147483647,2147483647,2147483647,2147483647,2147483647,0,0,2147483647,2147483647,2147483647,2147483647,2147483647,2147483647,2147483647,2147483647,2147483647,2147483647,2147483647,2147483647,2147483647,2147483647,2147483647,2147483647,2147483647,2147483647,2147483647,2147483647,2147483647,2147483647,2147483647,2147483647,2147483647,2147483647,2147483647,2147483647,2147483647,2147483647,2147483647,2147483647,2147483647,2147483647,2147483647,2147483647,2147483647,2147483647,2147483647,2147483647,2147483647,2147483647,2147483647,2147483647,2147483647,2147483647,2147483647,2147483647,2147483647,2147483647,2147483647,2147483647,2147483647,2147483647,2147483647,2147483647,2147483647,2147483647,2147483647,2147483647,2147483647,2147483647,2147483647,2147483647,2147483647,2147483647,2147483647,2147483647,2147483647,2147483647,2147483647,2147483647,2147483647,2147483647,2147483647,2147483647,2147483647,2147483647,2147483647,2147483647,2147483647,2147483647,2147483647,2147483647,2147483647,2147483647,2147483647,2147483647,2147483647,2147483647,2147483647,2147483647,2147483647,2147483647,2147483647,2147483647,2147483647,2147483647,2147483647,2147483647,2,0,2147483647,2147483647,2147483647,2147483647,2147483647,2147483647,2147483647,2147483647,2147483647,2147483647,2147483647,2147483647,2147483647,2147483647,2147483647,2147483647,2147483647,2147483647,2147483647,2147483647,2147483647,2147483647,2147483647,2147483647,2147483647,2147483647,2147483647,2147483647,2147483647,2147483647,2147483647,2147483647,2147483647,2147483647,2147483647,2147483647,2147483647,2147483647,2147483647,2147483647,2147483647,2147483647,2147483647,2147483647,2147483647,2147483647,2147483647,2147483647,2147483647,2147483647,2147483647,2147483647,2147483647,2147483647,2147483647,2147483647,2147483647,2147483647,2147483647,2147483647,2147483647,2147483647,2147483647,2147483647,2147483647,2147483647,2147483647,2147483647,2147483647,2147483647,2147483647,2147483647,2147483647,2147483647,2147483647,2147483647,2147483647,2147483647,2147483647,2147483647,2147483647,2147483647,2147483647,2147483647,2147483647,2147483647,2147483647,2147483647,2147483647,2147483647,2147483647,2147483647,2147483647,2147483647,2147483647,2147483647,2147483647,2147483647,2147483647,2147483647,2147483647,2147483647,2147483647,2147483647,2147483647,2147483647,2147483647,2147483647,2147483647,2147483647,2147483647,2147483647,2147483647,2147483647,2147483647,2147483647,2147483647,2147483647,2147483647,2147483647,2147483647,2147483647,2147483647,2147483647,2147483647,2147483647,2147483647,2147483647,2147483647,2147483647,2147483647,2147483647,2147483647,2147483647,2147483647,2147483647,2147483647,2147483647,2147483647,2147483647,2147483647,2147483647,2147483647,2147483647,2147483647,2147483647,2147483647,2147483647,2147483647,2147483647,2147483647,2147483647,2147483647,2147483647,2147483647,2147483647,2147483647,2147483647,2147483647,2147483647,2147483647,2147483647,2147483647,2147483647,2147483647,2147483647,2147483647,2147483647,2147483647,2147483647,2147483647,2147483647,2147483647,2147483647,2147483647,2147483647,2147483647,2147483647],"split_type":[0,0,0,0,0,0,0,0,0,0,0,0,0,0,0,0,0,0,0,0,0,0,0,0,0,0,0,0,0,0,0,0,0,0,0,0,0,0,0,0,0,0,0,0,0,0,0,0,0,0,0,0,0,0,0,0,0,0,0,0,0,0,0,0,0,0,0,0,0,0,0,0,0,0,0,0,0,0,0,0,0,0,0,0,0,0,0,0,0,0,0,0,0,0,0,0,0,0,0,0,0,0,0,0,0,0,0,0,0,0,0,0,0,0,0,0,0,0,0,0,0,0,0,0,0,0,0,0,0,0,0,0,0,0,0,0,0,0,0,0,0,0,0,0,0,0,0,0,0,0,0,0,0,0,0,0,0,0,0,0,0,0,0,0,0,0,0,0,0,0,0,0,0,0,0,0,0,0,0,0,0,0,0,0,0,0,0,0,0,0,0,0,0,0,0,0,0,0,0,0,0,0,0,0,0,0,0,0,0,0,0,0,0,0,0,0,0,0,0,0,0,0,0,0,0,0,0,0,0,0,0,0,0,0,0,0,0,0,0,0,0,0,0,0,0,0,0,0,0,0,0,0,0,0,0,0,0,0,0,0,0,0,0,0,0,0,0,0,0,0,0,0,0,0,0,0,0,0,0,0,0,0,0,0,0,0,0,0,0,0,0,0,0,0,0,0,0,0,0,0,0,0,0,0,0,0,0,0,0,0,0,0,0,0,0,0,0,0,0,0,0,0,0,0,0,0,0,0,0,0,0,0,0,0,0,0,0,0,0,0,0,0,0,0,0,0,0,0,0,0,0,0,0,0,0,0,0,0,0,0,0,0,0,0,0,0,0,0,0,0,0,0,0,0,0,0,0,0,0,0,0,0,0,0,0,0,0,0,0,0,0,0,0,0,0,0,0,0,0,0,0,0,0,0,0,0,0,0,0,0,0,0,0,0,0,0,0,0,0,0,0,0,0,0,0,0,0,0,0,0,0,0,0,0,0,0,0,0,0,0,0,0,0,0,0,0,0,0,0,0,0,0,0,0,0,0,0,0,0,0,0,0,0,0,0,0,0,0,0,0,0,0,0,0,0,0,0,0,0,0,0,0,0,0,0,0,0,0,0,0,0,0,0,0,0,0,0,0,0,0,0,0,0,0,0,0,0,0,0,0,0,0,0,0,0,0,0,0,0,0,0,0,0,0,0,0,0,0,0,0,0,0,0,0,0,0,0,0,0,0,0,0,0,0,0,0,0,0,0,0,0,0,0,0,0,0,0,0,0,0,0,0,0,0,0,0,0,0,0,0,0,0,0,0,0,0,0,0,0,0,0],"sum_hessian":[3.07408E5,3.05012E5,2.396E3,2.93721E5,1.1291E4,2.088E3,3.08E2,1.86399E5,1.07322E5,1.764E3,9.527E3,1.13E3,9.58E2,2.83E2,2.5E1,6.0686E4,1.25713E5,2.8021E4,7.9301E4,9.11E2,8.53E2,1.228E3,8.299E3,2.67E2,8.63E2,6.31E2,3.27E2,2.15E2,6.8E1,2.4E1,1E0,5.3914E4,7.1799E4,2.6952E4,1.069E3,3.8356E4,4.0945E4,6.6E2,2.51E2,6.09E2,2.44E2,9.85E2,2.43E2,6.34E3,1.959E3,2.52E2,1.5E1,2.33E2,6.3E2,1.46E2,4.85E2,2.51E2,7.6E1,5.7E1,1.1E1,3.461E4,1.9304E4,5.3108E4,1.8691E4,6.8E3,2.0152E4,9.06E2,1.63E2,2.326E4,1.5096E4,1.558E4,2.5365E4,3.92E2,2.68E2,5.49E2,6E1,6.34E2,3.51E2,1.24E2,1.19E2,5.621E3,7.19E2,1.1E3,8.59E2,3.65E2,2.65E2,1.42E2,4E0,2.14E2,2.71E2,3.8E1,1.9E1,1.2537E4,2.2073E4,3.95E3,4.9158E4,6.103E3,1.2588E4,6.89E2,6.111E3,1.9187E4,9.65E2,8.79E2,2.7E1,1.22E2,4.1E1,9.998E3,1.3262E4,2.033E3,1.3547E4,6.611E3,1.8754E4,2.85E2,2.64E2,1.8E1,4.2E1,5.67E2,6.7E1,1.38E2,2.13E2,8.5E1,3.4E1,4.435E3,1.186E3,2.34E2,4.85E2,1.5E1,1.085E3,2.3E2,4.1E1,2.8E1,1E1,1.5E1,4E0,3.273E3,9.264E3,9.941E3,1.2132E4,3.05E2,3.645E3,1.8594E4,3.0564E4,2.421E3,3.682E3,1.1827E4,7.61E2,3.74E2,3.15E2,4.205E3,1.906E3,1.3017E4,6.17E3,3.5E1,9.3E2,7.91E2,8.8E1,1.6E1,1.1E1,1E2,2.2E1,4.483E3,5.515E3,6.077E3,7.185E3,3.34E2,1.699E3,1.196E4,1.587E3,1.3271E4,5.483E3,1.28E2,1.36E2,1E0,4.1E1,2.84E2,2.83E2,5.7E1,1E1,1.1E1,1.27E2,3.1E1,1.82E2,3E0,3.1E1,4.023E3,4.12E2,2.42E2,9.44E2,3.05E2,1.8E2,9.6E2,1.25E2,1.645E3,1.628E3,4.857E3,4.407E3,2.112E3,7.829E3,5.82E3,6.312E3,2.24E2,8.1E1,1.878E3,1.767E3,1.3578E4,1.6986E4,8.28E2,1.593E3,2.45E2,3.437E3,1.0725E4,1.102E3,6.54E2,1.07E2,1.02E2,2.72E2,2.27E2,8.8E1,2.418E3,1.787E3,6.27E2,1.279E3,5.226E3,9.44E2,1.46E2,7.84E2,4.45E2,3.46E2,2E0,1.4E1,1E0,1E1,6.8E1,3.2E1,2E1,2E0,2.679E3,1.804E3,4.389E3,1.126E3,9.45E2,7.54E2,3.336E3,8.624E3,7.9E1,1.508E3,6.104E3,7.167E3,3.097E3,2.386E3,6.6E1,6.2E1,9.6E1,4E1,2.6E1,1.5E1,9.3E1,1.91E2,7.7E1,2.06E2,5.5E1,2E0,1.2E2,7E0,2.2E1,9E0,7.1E1,1.11E2,2.8E1,3E0,1.628E3,2.395E3,5.3E1,3.59E2,1.65E2,7.7E1,3.72E2,5.72E2,2.8E2,2.5E1,2.2E1,1.03E2,5.5E2,1.562E3,2.39E3,3.922E3,8.261E3,5.317E3,4.559E3,1.2427E4,6.31E2,1.97E2,7.2E2,8.73E2,1.47E2,9.8E1,4.14E2,2.4E2,3.1E1,7.1E1,7.7E1,1.95E2,1.249E3,1.169E3,1.32E2,4.95E2,5.5E2,7.29E2,6E2,3.44E2,7.4E1,7.2E1,5.36E2,2.48E2,2.33E2,2.12E2,2.16E2,1.3E2,1.3E1,1E0,1E0,9E0,2E0,1.8E1,4.77E2,4.68E2,6.04E2,1.5E2,1.643E3,1.693E3,8.471E3,1.53E2,7E1,9E0,5.05E2,1.003E3,5.431E3,6.73E2,2.005E3,5.162E3,1.833E3,5.53E2,4E0,6.2E1,2E1,4.2E1,1.4E1,8.2E1,2.3E1,1.7E1,3E0,2.3E1,1.2E1,3E0,3.8E1,5.5E1,1.36E2,5.5E1,5.9E1,1.8E1,1.72E2,3.4E1,7.8E1,4.2E1,1E0,2.7E1,5.11E2,1.117E3,1.929E3,4.66E2,1E1,4.3E1,1.54E2,1.1E1,4.1E1,3.6E1,7E0,3.65E2,2E0,2E1,3E1,7.3E1,7.87E2,7.75E2,1.714E3,6.76E2,2.951E3,9.71E2,7.813E3,4.48E2,3.065E3,2.252E3,4.106E3,8.321E3,3.14E2,4.06E2,2.15E2,1.99E2,5E0,6.6E1,1.76E2,1.9E1,2.68E2,9.81E2,5.44E2,6.25E2,8.1E1,4.14E2,3.7E1,5.13E2,3.53E2,3.76E2,1.81E2,4.19E2,6.1E1,1.3E1,4.4E1,2.8E1,3.13E2,2.23E2,1.27E2,1.21E2,1E0,1.2E1,4E0,1.4E1,2.46E2,2.31E2,2.2E2,2.48E2,2.4E1,5.8E2,7.29E2,9.14E2,1.365E3,3.28E2,4.983E3,3.488E3,6E0,3E0,2.99E2,2.06E2,4.56E2,4.975E3,7.91E2,1.214E3,3.67E3,1.492E3,1.523E3,3.1E2,1.7E1,3E0,1.2E1,5E0,3E0,5.2E1,4.6E1,9E0,3.4E1,2.5E1,1.5E1,3E0,2.8E1,6E0,2.6E1,5.2E1,4E1,2E0,8.07E2,3.1E2,1.521E3,4.08E2,3.2E1,4.34E2,2E0,4.1E1,4E0,1.5E2,1.5E1,2.6E1,1E0,3.5E1,5E0,2E0,6.4E1,9E0,2.29E2,5.46E2,5.16E2,1.6E2,2.13E2,7.58E2,1.79E2,2.69E2,1.196E3,1.869E3,1.932E3,2.174E3,1.24E2,1.9E2,6.3E1,3E0,1.59E2,1.09E2,2.9E2,6.91E2,3.92E2,1.52E2,1.8E1,6.3E1,3.59E2,5.5E1,7E0,3E1,4.1E2,1.03E2,1.47E2,2.06E2,1.8E1,3.58E2,1.71E2,1E1,2.4E1,3.7E1,2E0,4.2E1,1.9E1,9E0,2.44E2,6.9E1,1.3E1,1E0,1.6E1,2.3E2,2.5E1,1.95E2,1.91E2,3.89E2,2.64E2,6.5E2,1.15E2,2.13E2,5E0,1E0,5.3E1,1.53E2,2.82E2,1.74E2,2.261E3,2.714E3,4.15E2,3.76E2,1.05E3,1.64E2,2.974E3,6.96E2,1.272E3,2.2E2,4.29E2,1.094E3,1.1E1,4.1E1,4E0,2.1E1,3E0,1.2E1,2.2E1,6E0,2.5E1,1E0,3.3E1,1.9E1,1.8E1,2.2E1,1.8E1,2.92E2,1.293E3,2.28E2,1.1E1,2.1E1,1E1,5E0,1.7E1,9E0,1E0,4E0],"tree_param":{"num_deleted":"472","num_feature":"8","num_nodes":"581","size_leaf_vector":"0"}}]},"name":"gbtree"},"learner_model_param":{"base_score":"5E-1","num_class":"0","num_feature":"8"},"objective":{"name":"reg:squarederror","reg_loss_param":{"scale_pos_weight":"1"}}},"version":[1,4,1]}