{"learner":{"attributes":{},"feature_names":["distance","hour_of_day","day","week","month","day_of_year","week_of_year"],"feature_types":["float","float","float","float","float","float","float"],"gradient_booster":{"model":{"gbtree_model_param":{"num_trees":"2","size_leaf_vector":"0"},"tree_info":[0,0],"trees":[{"base_weights":[1.6851341E1,1.4409389E1,2.0599869E1,1.3165733E1,1.6487997E1,1.9506676E1,2.5066565E1,1.2707024E1,1.4178188E1,1.5884843E1,1.71055E1,1.8642664E1,2.0268646E1,2.4685867E1,2.6670248E1,1.2333337E1,1.3131596E1,1.3853047E1,1.4574698E1,1.5614832E1,1.6373533E1,1.6561058E1,1.7197172E1,1.8147081E1,1.9091873E1,1.9828514E1,2.081248E1,2.3204275E1,2.4717634E1,2.6578716E1,3.0373787E1,1.2210384E1,1.2592185E1,1.2976901E1,1.3261797E1,1.4133327E1,1.3761514E1,1.4280321E1,1.4689115E1,1.4988282E1,1.5672299E1,1.6687466E1,1.6135258E1,1.9283934E1,1.7170668E1,1.77356E1,1.8285473E1,1.949976E1,1.9005432E1,2.0120893E1,1.9729109E1,2.0600416E1,2.123143E1,2.3802711E1,2.073889E1,2.7004894E1,2.4639439E1,2.7391632E1,2.6273048E1,3.0717821E1,8.666667E0,1.2044572E1,1.2321952E1,1.2391853E1,1.2667408E1,1.3383051E1,1.30554085E1,1.4473684E1,1.3960643E1,1.3552936E1,1.3932228E1,1.4944078E1,1.4534161E1,1.2670886E1,1.5078895E1,1.6062122E1,1.5518498E1,2.0228632E1,1.740625E1,1.7482792E1,1.7093895E1,1.791697E1,1.7386423E1,1.9385113E1,2.0677053E1,1.8665993E1,1.9294903E1,2.0179102E1,1.8635088E1,1.9540056E1,2.0083706E1,2.1892418E1,2.0465425E1,2.0304688E1,2.4546469E1,1.7191177E1,2.2491228E1,2.8231482E1,2.4925848E1,2.505214E1,2.44877E1,2.6804823E1,2.888E1,1.26475725E1,1.1985178E1,1.2086505E1,1.2385379E1,1.2763812E1,1.2427155E1,1.3858818E1,1.333474E1,1.2646694E1,1.311342E1,1.2953947E1,1.4621585E1,1.3829613E1,1.4545848E1,1.3236266E1,1.3678145E1,1.3531294E1,1.4070146E1,1.5023241E1,1.4059682E1,1.4225915E1,1.467904E1,1.5465517E1,1.0833333E1,1.5889213E1,1.4885228E1,1.6130655E1,1.4800956E1,1.5158881E1,1.5819066E1,1.8879433E1,2.2037233E1,1.6951612E1,2.52E1,1.8683258E1,1.743114E1,1.6633696E1,1.7121988E1,1.638368E1,1.7553133E1,2.0835806E1,2.0072168E1,1.964877E1,1.9014397E1,2.0503311E1,1.9928858E1,1.8333334E1,2.0548294E1,2.1963415E1,1.6625E1,1.1642858E1,2.3539215E1,2.3489584E1,2.8833838E1,2.7484211E1,2.3038733E1,2.6872341E1,2.4973583E1,2.19E1,2.7008413E1,1.2788333E1,1.1583969E1,1.1829499E1,1.2105682E1,1.22840395E1,1.1700392E1,1.2446965E1,1.2153206E1,1.2715189E1,1.3307002E1,1.465E1,1.3612668E1,1.3259668E1,1.3584848E1,1.3128378E1,5.2E0,1.3737833E1,1.2799383E1,1.2192983E1,1.4347352E1,1.085E1,1.7E1,1.6047546E1,1.2138889E1,1.6050962E1,1.689406E1,2.176923E1,1.7601942E1,2.075926E1,2.7857143E1,2.0185345E1,1.6863207E1,1.5789618E1,1.6921675E1,2.0246468E1,2.1987013E1,2.0725466E1,1.9604425E1,2.375E1,6.5E0,2.5742424E1,1.7375E1,2.7879122E1,1.48E1,2.335E1,2.921101E1,2.3932894E1,2.5218079E1,2.224359E1,4.25E0,2.3339622E1,2.7223078E1,1.3315445E1,1.2375723E1,1.0366667E1,1.2982456E1,1.1268657E1,1.2049911E1,1.1542208E1,1.2186838E1,1.1532946E1,1.2367525E1,1.2953837E1,1.2399085E1,1.3561291E1,1.1892473E1,1.2511865E1,1.52E1,5.0833335E0,1.56E1,1.7916666E1,5.8333335E0,2.25E0,1.2588235E1,2.28E1,1.02E1,3.25E0,1.7710785E1,3.25E0,2.09375E1,2.9833334E1,1.0666667E1,1.8213333E1,2.322619E1,2.1145763E1,1.9413994E1,2.3258242E1,1.9992126E1,2.0434717E1,2.1375143E1,1.8464285E1,6.5E0,4.25E0,2.9402779E1,2.552754E1,2.4623007E1,1.3285714E1,2.4340425E1,2.8470383E1,2.644332E1,1.2342105E1,1.4204663E1,1.1301339E1,1.3146959E1,1.0588729E1,1.1563312E1,1.2122728E1,1.1345454E1,9.317073E0,1.165137E1,1.2327009E1,1.196775E1,9.290909E0,1.2080882E1,1.9E1,2.776923E1,2.1134615E1,8.833333E0,2.151724E1,1.5787234E1,2.3952898E1,2.5320065E1,2.5855263E1,1.615E1,2.7358736E1,4.2710526E1,8.347826E0,1.1581683E1,1.1869919E1,1.3974138E1,1.1968698E1,1.0811378E1,4.4E0,1.1417178E1,9.819445E0,4.75E0,2.25E0,1.1E1,2.18E1,4.6833332E1,1.186236E1,9.12E0,1.2722826E1,1.5192771E1,2.475E1,5E0],"categories":[],"categories_nodes":[],"categories_segments":[],"categories_sizes":[],"default_left":[true,true,true,true,true,true,true,true,true,true,true,true,true,true,true,true,true,true,true,true,true,false,true,true,true,true,true,true,true,true,true,true,true,false,true,true,true,false,true,true,true,false,false,true,true,true,false,true,true,true,true,false,true,true,true,true,true,true,false,false,false,true,true,false,true,true,true,true,true,true,true,true,true,true,true,true,true,true,true,true,true,false,true,false,false,false,false,true,false,true,true,false,true,true,false,false,true,true,true,true,false,true,false,true,true,true,true,true,false,true,true,false,false,true,false,false,false,false,true,false,false,false,true,false,false,true,false,true,false,true,false,false,false,true,true,false,false,true,false,true,false,false,false,true,false,false,false,false,false,false,true,false,false,false,true,true,false,true,false,true,true,true,true,true,true,true,true,true,false,true,false,false,true,false,false,false,false,false,false,false,true,false,false,true,true,false,true,false,false,true,true,true,true,true,false,false,false,true,true,true,false,false,false,false,true,false,false,false,true,false,true,false,false,true,true,true,true,false,false,true,true,true,true,true,false,false,false,false,false,false,false,false,false,false,false,false,false,true,false,false,false,false,true,false,false,true,false,false,false,false,false,false,false,false,false,false,false,false,true,false,true,true,false,false,false,true,true,false,true,false,true,true,false,false,false,false,false,false,false,false,true,false,false,false,false,false,false,false,true,false,true,false,true,false,false,false,false,false,false,false,false,true,false,false,false,false,false,false,false],"id":0,"left_children":[1,3,5,7,9,11,13,15,17,19,21,23,25,27,29,31,33,35,37,39,41,-1,43,45,47,49,51,53,55,57,59,61,63,-1,65,67,69,-1,71,73,75,-1,-1,77,79,81,-1,83,85,87,89,-1,91,93,95,97,99,101,-1,-1,-1,103,105,-1,107,109,111,113,115,117,119,121,123,125,127,129,131,133,135,137,139,-1,141,-1,-1,-1,-1,143,-1,145,147,-1,149,151,-1,-1,153,155,157,159,-1,161,-1,163,165,167,169,171,-1,173,175,-1,-1,177,-1,-1,-1,-1,179,-1,-1,-1,181,-1,-1,183,-1,185,-1,187,-1,-1,-1,189,191,-1,-1,193,-1,195,-1,-1,-1,197,-1,-1,-1,-1,-1,-1,199,-1,-1,-1,201,203,-1,205,-1,207,209,211,213,215,217,219,221,223,-1,225,-1,-1,227,-1,-1,-1,-1,-1,-1,-1,229,-1,-1,231,233,-1,235,-1,-1,237,239,241,243,245,-1,-1,-1,247,249,251,-1,-1,-1,-1,253,-1,-1,-1,255,-1,257,-1,-1,259,261,263,265,-1,-1,267,269,271,273,275,-1,-1,-1,-1,-1,-1,-1,-1,-1,-1,-1,-1,-1,277,-1,-1,-1,-1,279,-1,-1,281,-1,-1,-1,-1,-1,-1,-1,-1,-1,-1,-1,-1,283,-1,285,287,-1,-1,-1,289,291,-1,293,-1,295,297,-1,-1,-1,-1,-1,-1,-1,-1,299,-1,-1,-1,-1,-1,-1,-1,301,-1,303,-1,305,-1,-1,-1,-1,-1,-1,-1,-1,307,-1,-1,-1,-1,-1,-1,-1],"loss_changes":[2.813648E6,4.80992E5,5.91624E5,5.3912E4,2.568E4,6.376E4,1.3896E4,1.2557E4,4.479E3,4.397E3,1.433E3,9.82E3,1.1974E4,3.34E2,7.39E2,1.204E3,5.83E2,3.1775E2,3.405E2,5.84E2,6.6775E2,0E0,1.297E3,9.13E2,4.73E2,4.35E2,1.618E3,1.275E2,2.708E3,3.8825E2,5.0298438E2,3.87E2,4.95E1,0E0,3.3375E2,8.46875E1,3.4875E2,0E0,2.4625E2,2.1484375E2,9.98E2,0E0,0E0,2.8825E2,3.97E2,3.7E1,0E0,1.59E2,1.5845E3,2.4775E2,1.043E3,0E0,3.4715E3,3.6534375E2,1.7285938E2,8.595625E2,5.29E2,2.695625E2,0E0,0E0,0E0,2.67E2,1.0825E2,0E0,7.1E1,1.085E2,1.35E1,1.7359375E2,4.91875E1,8.975E1,2.665E2,9.675E1,1.1875E2,2.3814453E2,5.4625E1,2.675E2,1.37575E3,1.5494531E2,2.6363281E1,2.75E1,1.75E1,0E0,3.25625E1,0E0,0E0,0E0,0E0,6.85E1,0E0,4.27E2,7.275E1,0E0,2.59625E2,2.5488281E1,0E0,0E0,3.739668E2,4.02375E2,5.061875E2,2.4E1,0E0,2.7825E2,0E0,6.0625E0,5.675E1,1.388125E2,4.2625E1,1.675E1,0E0,2.475E1,3.7875E1,0E0,0E0,1.373164E2,0E0,0E0,0E0,0E0,7.93125E1,0E0,0E0,0E0,2.7507812E1,0E0,0E0,2.094043E1,0E0,8.8671875E0,0E0,6.6E1,0E0,0E0,0E0,1.3734766E2,1.2085156E2,0E0,0E0,2.6379688E2,0E0,6.828125E1,0E0,0E0,0E0,1.953125E2,0E0,0E0,0E0,0E0,0E0,0E0,1.71875E2,0E0,0E0,0E0,2.8796875E1,2.139336E2,0E0,6.3257812E1,0E0,8.6659375E2,5.86E2,1.4803906E2,1.9875E1,3.0953125E1,8.8427734E1,4.44625E2,1.321875E2,9.8125E0,0E0,9.85E1,0E0,0E0,3.9078125E1,0E0,0E0,0E0,0E0,0E0,0E0,0E0,3.3453125E1,0E0,0E0,1.946167E2,1.00208496E2,0E0,5.1660156E1,0E0,0E0,2.3252344E2,1.0333594E2,1.8474219E2,1.5737988E2,2.7257812E2,0E0,0E0,0E0,6.6359375E1,3.1610938E2,1.09875E2,0E0,0E0,0E0,0E0,6.951807E1,0E0,0E0,0E0,3.9679688E2,0E0,6.5E1,0E0,0E0,2.0990625E2,5.8125E0,1.553125E2,2.8146875E2,0E0,0E0,1.4601562E2,3.459375E1,7.847656E1,1.20625E1,2.0470703E2,0E0,0E0,0E0,0E0,0E0,0E0,0E0,0E0,0E0,0E0,0E0,0E0,0E0,1.3329102E2,0E0,0E0,0E0,0E0,4.1835938E0,0E0,0E0,2.6147266E2,0E0,0E0,0E0,0E0,0E0,0E0,0E0,0E0,0E0,0E0,0E0,0E0,8.6875E0,0E0,1.6557422E2,3.3747188E3,0E0,0E0,0E0,8.8791016E1,1.4680469E2,0E0,1.5225781E2,0E0,1.1415234E2,4.7426514E1,0E0,0E0,0E0,0E0,0E0,0E0,0E0,0E0,1.8041672E1,0E0,0E0,0E0,0E0,0E0,0E0,0E0,6.1702344E2,0E0,3.1384766E1,0E0,7.203516E1,0E0,0E0,0E0,0E0,0E0,0E0,0E0,0E0,1.2405005E2,0E0,0E0,0E0,0E0,0E0,0E0,0E0],"parents":[2147483647,0,0,1,1,2,2,3,3,4,4,5,5,6,6,7,7,8,8,9,9,10,10,11,11,12,12,13,13,14,14,15,15,16,16,17,17,18,18,19,19,20,20,22,22,23,23,24,24,25,25,26,26,27,27,28,28,29,29,30,30,31,31,32,32,34,34,35,35,36,36,38,38,39,39,40,40,43,43,44,44,45,45,47,47,48,48,49,49,50,50,52,52,53,53,54,54,55,55,56,56,57,57,61,61,62,62,64,64,65,65,66,66,67,67,68,68,69,69,70,70,71,71,72,72,73,73,74,74,75,75,76,76,77,77,78,78,79,79,80,80,82,82,87,87,89,89,90,90,92,92,93,93,96,96,97,97,98,98,99,99,101,101,103,103,104,104,105,105,106,106,107,107,109,109,110,110,113,113,118,118,122,122,125,125,127,127,129,129,133,133,134,134,137,137,139,139,143,143,150,150,154,154,155,155,157,157,159,159,160,160,161,161,162,162,163,163,164,164,165,165,166,166,167,167,169,169,172,172,180,180,183,183,184,184,186,186,189,189,190,190,191,191,192,192,193,193,197,197,198,198,199,199,204,204,208,208,210,210,213,213,214,214,215,215,216,216,219,219,220,220,221,221,222,222,223,223,237,237,242,242,245,245,258,258,260,260,261,261,265,265,266,266,268,268,270,270,271,271,280,280,288,288,290,290,292,292,301,301],"right_children":[2,4,6,8,10,12,14,16,18,20,22,24,26,28,30,32,34,36,38,40,42,-1,44,46,48,50,52,54,56,58,60,62,64,-1,66,68,70,-1,72,74,76,-1,-1,78,80,82,-1,84,86,88,90,-1,92,94,96,98,100,102,-1,-1,-1,104,106,-1,108,110,112,114,116,118,120,122,124,126,128,130,132,134,136,138,140,-1,142,-1,-1,-1,-1,144,-1,146,148,-1,150,152,-1,-1,154,156,158,160,-1,162,-1,164,166,168,170,172,-1,174,176,-1,-1,178,-1,-1,-1,-1,180,-1,-1,-1,182,-1,-1,184,-1,186,-1,188,-1,-1,-1,190,192,-1,-1,194,-1,196,-1,-1,-1,198,-1,-1,-1,-1,-1,-1,200,-1,-1,-1,202,204,-1,206,-1,208,210,212,214,216,218,220,222,224,-1,226,-1,-1,228,-1,-1,-1,-1,-1,-1,-1,230,-1,-1,232,234,-1,236,-1,-1,238,240,242,244,246,-1,-1,-1,248,250,252,-1,-1,-1,-1,254,-1,-1,-1,256,-1,258,-1,-1,260,262,264,266,-1,-1,268,270,272,274,276,-1,-1,-1,-1,-1,-1,-1,-1,-1,-1,-1,-1,-1,278,-1,-1,-1,-1,280,-1,-1,282,-1,-1,-1,-1,-1,-1,-1,-1,-1,-1,-1,-1,284,-1,286,288,-1,-1,-1,290,292,-1,294,-1,296,298,-1,-1,-1,-1,-1,-1,-1,-1,300,-1,-1,-1,-1,-1,-1,-1,302,-1,304,-1,306,-1,-1,-1,-1,-1,-1,-1,-1,308,-1,-1,-1,-1,-1,-1,-1],"split_conditions":[2.4450002E0,1.625E0,3.545E0,1.305E0,2.125E0,2.9850001E0,4.7650003E0,1.045E0,1.465E0,1.955E0,2.1750002E0,2.745E0,3.205E0,3.6550002E0,5.66E0,7.95E-1,1.135E0,1.355E0,1.495E0,1.685E0,2.0349998E0,3.3122118E0,2.1950002E0,2.495E0,2.815E0,3.0549998E0,3.375E0,3.485E2,3.7649999E0,5.185E0,2.25E1,5.85E-1,1.35E1,2.5953803E0,3.405E2,7.5E0,1.415E0,2.8560643E0,1.525E0,5E-1,1.725E0,3.3374932E0,3.2270515E0,3.475E2,2.3049998E0,4.95E1,3.6570947E0,2.15E1,2.8850002E0,2.25E1,3.1550002E0,4.1200833E0,3.4650002E0,2.5E0,7.5E0,2.2E1,3.325E2,5.0699997E0,5.2546096E0,6.143564E0,1.7333335E0,1.5E0,9.5E0,2.4783707E0,1.65E1,1.5E0,2.5E0,1.315E0,3.495E2,6.5E0,3.325E2,2.15E1,1.535E0,1.65E1,1.645E0,3.515E2,1.755E0,1.35E1,2.25E1,3.305E2,1.5E0,3.5833938E0,1.35E1,3.8770225E0,4.135411E0,3.7331986E0,3.8589807E0,2.5E0,3.7270176E0,3.145E0,3.325E2,4.378484E0,5E-1,3.585E0,4.9092937E0,3.4382355E0,3.5549998E0,2.5E0,3.705E0,3.9650002E0,4.89754E0,5E-1,5.776E0,3.495E2,1.15E1,7.1500003E-1,1.85E1,1.035E0,2.485431E0,2.5E0,3.355E2,2.5293388E0,2.622684E0,3.515E2,2.9243171E0,2.7659225E0,2.9091697E0,2.6472533E0,2.95E1,2.7062588E0,2.8140292E0,3.0046482E0,6E0,2.8451831E0,2.935808E0,3E0,2.1666667E0,2.95E1,2.9770458E0,2.15E1,2.9601912E0,3.0317762E0,3.1638134E0,3.5E0,4.95E1,3.3903224E0,5.0400004E0,1.65E1,3.4862282E0,2.355E0,3.4243977E0,3.276736E0,3.5106266E0,3.46E2,4.014434E0,3.929754E0,3.8028793E0,4.100662E0,3.9857717E0,3.6666667E0,1.95E1,4.392683E0,3.325E0,2.3285716E0,2.25E1,1.55E1,5.7667675E0,2.25E1,4.6077466E0,3.815E0,4.225E0,5E0,3.305E2,4.95E-1,5.3499997E-1,3.335E2,2.5E0,1.5E0,2.3400784E0,5.95E-1,2.4306412E0,2.543038E0,5.05E1,2.93E0,2.7225337E0,2.6519337E0,2.7169697E0,2.6256757E0,1.04E0,2.7475667E0,2.15E1,2.4385965E0,2.8694704E0,1.655E0,1.665E0,3.2095094E0,2E0,3.2101924E0,3.378812E0,8.5E0,3.305E2,1.45E1,1.85E1,2.2849998E0,3.3726413E0,3.1579235E0,3.384335E0,3.0149999E0,1.65E1,1.35E1,3.920885E0,4.75E0,1.3000001E0,5.1484847E0,3.745E0,5.5758243E0,2.96E0,4.67E0,5E-1,4.7865787E0,4.565E0,4.448718E0,8.5E-1,4.795E0,4.795E0,3.335E2,5.55E-1,2.0733335E0,2.5964913E0,4.5499998E-1,3.515E2,4.25E-1,4.95E1,6.15E-1,2.473505E0,2.5907676E0,2.4798172E0,2.712258E0,2.3784947E0,2.502373E0,3.04E0,1.0166668E0,3.1200001E0,3.5833333E0,1.1666667E0,4.5000002E-1,2.517647E0,6.5E0,2.04E0,6.5000004E-1,3.542157E0,6.5000004E-1,2.25E1,5.9666667E0,2.1333334E0,6.5E0,4.6452384E0,4.2291527E0,3.882799E0,4.6516485E0,3.9984252E0,4.0869436E0,4.2750287E0,3.692857E0,1.3000001E0,8.5E-1,5.8805556E0,5.1055083E0,4.625E0,2.6571429E0,2.15E1,2.25E1,5.288664E0,2.468421E0,2.8409326E0,1.5E0,1.45E1,2.1177459E0,5.65E-1,2.4245458E0,3.9499998E-1,1.95E1,2.330274E0,2.465402E0,2.39355E0,1.8581818E0,2.4161766E0,3.8E0,5.553846E0,4.226923E0,2.185E0,4.303448E0,3.1574469E0,4.79058E0,5.064013E0,5.1710525E0,3.23E0,5.4717474E0,1.55E1,1.6695652E0,4.95E1,2.3739839E0,5E-1,2.3937395E0,2.1622756E0,8.8000005E-1,2.2834356E0,1.963889E0,9.5E-1,4.5000002E-1,2.2E0,1.45E1,9.366667E0,2.372472E0,1.824E0,2.5445652E0,3.0385542E0,4.9500003E0,1E0],"split_indices":[0,0,0,0,0,0,0,0,0,0,0,0,0,0,0,0,0,0,0,0,0,0,0,0,0,0,0,5,0,0,1,0,2,0,5,1,0,0,0,1,0,0,0,5,0,3,0,1,0,1,0,0,0,2,1,2,5,0,0,0,0,1,2,0,1,1,1,0,5,1,5,1,0,2,0,5,0,1,1,5,2,0,2,0,0,0,0,1,0,0,5,0,1,0,0,0,0,1,0,0,0,1,0,5,1,0,1,0,0,2,5,0,0,5,0,0,0,0,2,0,0,0,2,0,0,2,0,2,0,1,0,0,0,2,3,0,0,1,0,0,0,0,0,5,0,0,0,0,0,0,1,0,0,0,1,2,0,1,0,0,0,0,5,0,0,5,2,1,0,0,0,0,3,0,0,0,0,0,0,0,1,0,0,0,0,0,1,0,0,1,5,1,1,0,0,0,0,0,2,1,0,0,0,0,0,0,0,0,1,0,0,0,0,0,0,5,0,0,0,0,5,0,3,0,0,0,0,0,0,0,0,0,0,0,0,0,0,1,0,0,0,0,1,0,0,1,0,0,0,0,0,0,0,0,0,0,0,0,0,0,1,1,0,0,0,2,2,0,0,0,0,1,0,0,0,0,0,0,0,0,0,0,0,0,0,0,0,0,2,0,3,0,1,0,0,0,0,0,0,0,0,2,0,0,0,0,0,0,0],"split_type":[0,0,0,0,0,0,0,0,0,0,0,0,0,0,0,0,0,0,0,0,0,0,0,0,0,0,0,0,0,0,0,0,0,0,0,0,0,0,0,0,0,0,0,0,0,0,0,0,0,0,0,0,0,0,0,0,0,0,0,0,0,0,0,0,0,0,0,0,0,0,0,0,0,0,0,0,0,0,0,0,0,0,0,0,0,0,0,0,0,0,0,0,0,0,0,0,0,0,0,0,0,0,0,0,0,0,0,0,0,0,0,0,0,0,0,0,0,0,0,0,0,0,0,0,0,0,0,0,0,0,0,0,0,0,0,0,0,0,0,0,0,0,0,0,0,0,0,0,0,0,0,0,0,0,0,0,0,0,0,0,0,0,0,0,0,0,0,0,0,0,0,0,0,0,0,0,0,0,0,0,0,0,0,0,0,0,0,0,0,0,0,0,0,0,0,0,0,0,0,0,0,0,0,0,0,0,0,0,0,0,0,0,0,0,0,0,0,0,0,0,0,0,0,0,0,0,0,0,0,0,0,0,0,0,0,0,0,0,0,0,0,0,0,0,0,0,0,0,0,0,0,0,0,0,0,0,0,0,0,0,0,0,0,0,0,0,0,0,0,0,0,0,0,0,0,0,0,0,0,0,0,0,0,0,0,0,0,0,0,0,0,0,0,0,0,0,0,0,0,0,0,0,0,0,0,0,0,0,0],"sum_hessian":[3.07408E5,1.86148E5,1.2126E5,1.1647E5,6.9678E4,9.7422E4,2.3838E4,8.0164E4,3.6306E4,3.5262E4,3.4416E4,4.5666E4,5.1756E4,1.9278E4,4.56E3,4.2653E4,3.7511E4,1.9968E4,1.6338E4,2.2734E4,1.2528E4,4.986E3,2.943E4,2.1732E4,2.3934E4,2.8626E4,2.313E4,4.2E2,1.8858E4,4.458E3,1.02E2,2.895E4,1.3703E4,1.7189E4,2.0322E4,4.878E3,1.509E4,4.608E3,1.173E4,1.932E3,2.0802E4,5.376E3,7.152E3,3.6E2,2.907E4,5.502E3,1.623E4,4.146E3,1.9788E4,7.212E3,2.1414E4,1.539E4,7.74E3,3.31E2,8.9E1,6.12E2,1.8246E4,1.194E3,3.264E3,1E2,2E0,1.1688E4,1.7262E4,3.786E3,9.917E3,1.2761E4,7.561E3,1.614E3,3.264E3,6.828E3,8.262E3,4.398E3,7.332E3,7.8E1,1.854E3,5.856E3,1.4946E4,2.33E2,1.27E2,5.694E3,2.3376E4,3.588E3,1.914E3,3.794E3,3.52E2,9.138E3,1.065E4,6.928E3,2.84E2,1.4004E4,7.41E3,4.14E3,3.6E3,6.3E1,2.68E2,3.3E1,5.6E1,3.77E2,2.35E2,4.861E3,1.3385E4,8.7E2,3.24E2,1.029E3,1.0659E4,3.704E3,1.3558E4,7.04E3,2.877E3,1.15E3,1.1611E4,9.67E2,6.594E3,1.51E2,1.463E3,2.687E3,5.77E2,1.965E3,4.863E3,2.14E3,6.122E3,4.022E3,3.76E2,2.376E3,4.956E3,2.8E1,5E1,3.42E2,1.512E3,5.543E3,3.13E2,6.828E3,8.118E3,1.4E2,9.3E1,1.23E2,4E0,2.2E2,5.474E3,1.379E3,2.1997E4,2.87E2,1.627E3,9.43E2,5.985E3,1.1574E4,2.43E3,1.962E3,5.448E3,1.43E2,3.457E3,4E1,2.3E1,6E0,5E1,4.7E1,3.3E2,9.4E1,1.41E2,1.87E2,4.674E3,3.9E1,8.31E2,8.99E2,1.3E2,4.694E3,5.965E3,2.43E3,1.274E3,1.0674E4,2.884E3,6.484E3,5.56E2,2.59E2,8.91E2,8.972E3,2.639E3,1.47E2,4E0,4.54E3,3.23E2,5.6E1,3.2E2,9E0,1.9E1,3.25E2,1.7E1,5.039E3,5.04E2,3.8E1,1.02E2,8E1,1.3E1,1.15E2,1.05E2,3.65E2,1.014E3,6.36E2,3.07E2,2.893E3,5.64E2,4.9E1,1E0,3.2E1,1.5E1,9E1,4E0,7.9E1,1.08E2,9.08E2,3.766E3,3.8E1,1E0,5.2E1,7.79E2,3.81E2,5.18E2,7.4E1,5.6E1,1.339E3,3.355E3,7.69E2,5.196E3,2.57E2,2.173E3,8.98E2,9.776E3,4.64E2,9.2E1,2.94E2,2.9E1,5E0,4E0,1.7E1,2E0,1E0,1.6E1,3.4E1,4E0,1E0,1.01E2,1E0,7.9E1,1.1E1,2E0,7.4E1,4.1E1,2.94E2,3.42E2,1.81E2,1.26E2,2.021E3,8.72E2,1.3E1,2E0,1E0,1.07E2,2.45E3,1.316E3,6E0,4.6E1,2.86E2,4.93E2,1.89E2,1.92E2,2.23E2,2.95E2,4.16E2,9.23E2,3.026E3,3.29E2,4E1,7.29E2,3.135E3,2.061E3,5.4E1,2.03E2,2.2E1,1.2E1,7.7E1,2E0,2.8E1,4.6E1,6.89E2,6.27E2,3.7E1,9E0,2.68E2,1.8E1,2.2E1,2.01E2,1.22E2,1.73E2,5.9E2,3.33E2,4E0,3.25E2,3.5E1,5E0,1E0,1E0,4E0,1.4E1,1.77E2,2.4E1,9.1E1,8.2E1,3E0,1E0],"tree_param":{"num_deleted":"0","num_feature":"7","num_nodes":"309","size_leaf_vector":"0"}},{"base_weights":[1.34826975E1,1.1528876E1,1.6481918E1,1.0533787E1,1.319204E1,1.5606309E1,2.0059582E1,1.0166793E1,1.1343809E1,1.270908E1,1.3686489E1,1.491478E1,1.621617E1,1.9753338E1,2.1349648E1,9.868436E0,1.0505777E1,1.1119503E1,1.1713959E1,1.2485354E1,1.3086678E1,1.3249511E1,1.3760068E1,1.451831E1,1.5274151E1,1.5864219E1,1.6651041E1,1.9884827E1,1.9441355E1,2.1274963E1,2.4375504E1,9.770475E0,1.0074667E1,1.0381672E1,1.0610233E1,1.13091755E1,1.1066738E1,1.1275836E1,1.1745988E1,1.200108E1,1.2531004E1,1.3283151E1,1.2886936E1,1.332737E1,1.2803078E1,1.55369625E1,1.373753E1,1.4190364E1,1.4628603E1,1.5601739E1,1.5204729E1,1.6100111E1,1.5784025E1,1.64806E1,1.698777E1,1.9628025E1,2.028319E1,1.9588907E1,1.8744593E1,2.197112E1,2.1025812E1,2.4635086E1,7.511111E0,9.639607E0,9.858522E0,1.0119677E1,9.850262E0,1.0707305E1,1.0445008E1,1.1583028E1,1.1170253E1,1.084395E1,1.1205036E1,1.1510342E1,1.0418061E1,1.2029882E1,1.169047E1,1.0276625E1,1.206805E1,1.2851328E1,1.2399636E1,1.3144737E1,1.3586081E1,1.3708188E1,1.2850963E1,1.33953085E1,1.2653991E1,1.6316296E1,1.3990862E1,1.3989564E1,1.3675543E1,1.4334573E1,1.3912683E1,1.4686226E1,1.4287579E1,1.5675733E1,1.4359306E1,1.4933202E1,1.5436284E1,1.614628E1,1.4921148E1,1.5632597E1,1.6068056E1,1.6123098E1,1.65316E1,1.738729E1,1.6111103E1,2.0440498E1,1.9488474E1,2.0670584E1,1.9838186E1,1.796953E1,1.9220083E1,2.1185852E1,2.2820286E1,2.1919918E1,2.0807207E1,1.0141168E1,9.5902405E0,9.783606E0,9.986114E0,9.933172E0,1.0188413E1,1.0624047E1,9.791684E0,1.0785507E1,1.0502532E1,9.778981E0,1.0470319E1,1.0387275E1,1.16992655E1,1.1064719E1,1.1641711E1,1.059036E1,1.0944221E1,1.15706005E1,1.1154005E1,1.0356578E1,1.17385E1,1.2044226E1,6.868668E0,1.1787381E1,1.1493692E1,1.2678851E1,8.70915E0,1.272938E1,1.191015E1,1.2941738E1,1.2192465E1,1.2127549E1,1.264413E1,1.2416922E1,1.3209173E1,1.3546812E1,1.3030693E1,1.5214086E1,1.7796032E1,1.3588632E1,2.1168E1,1.5016646E1,1.394555E1,1.3621263E1,1.3910969E1,1.4101627E1,1.4647406E1,1.3377119E1,1.4151585E1,1.4631694E1,1.6080982E1,1.2303692E1,1.4366377E1,1.5577248E1,1.6708563E1,1.5559282E1,1.5178469E1,1.66864E1,1.6058405E1,1.424048E1,1.6173273E1,1.577198E1,1.5326468E1,1.5643184E1,1.6185993E1,1.6626932E1,1.6303024E1,1.7487198E1,1.6296982E1,1.3962766E1,1.6190384E1,1.862148E1,2.1409765E1,1.8678667E1,1.9611115E1,2.0915003E1,1.9073174E1,2.0568844E1,1.9454102E1,2.2481377E1,1.9768293E1,2.3190077E1,1.6811579E1,2.294672E1,1.9658194E1,9.8977165E0,1.055941E1,9.181335E0,9.621237E0,9.64916E0,9.876714E0,1.0038342E1,9.574308E0,9.995471E0,9.053937E0,1.0829333E1,5.5752482E0,9.220454E0,9.872556E0,1.1194671E1,1.0744929E1,1.0379604E1,1.0971387E1,8.068698E0,9.980503E0,1.0500204E1,9.887844E0,1.0520444E1,4.368E0,1.0882296E1,1.1355148E1,1.0977955E1,1.1985179E1,1.0649345E1,9.667842E0,1.0990871E1,1.0256612E1,1.2747669E1,1.1307035E1,1.1079747E1,1.13759575E1,1.1194674E1,9.034223E0,1.1153636E1,1.2574879E1,7.62645E0,7.82096E-1,1.1741868E1,1.2294309E1,1.1424416E1,1.2344256E1,9.001667E0,1.38835E1,2.1666665E0,8.796666E0,1.5015788E1,1.2454077E1,1.1048742E1,1.2026987E1,1.2876838E1,1.3585522E1,1.1312156E1,1.2544501E1,1.2303863E1,1.1993964E1,1.2549588E1,1.2886193E1,8.886787E0,1.2605867E1,1.2815912E1,1.33514385E1,1.26652975E1,1.3666389E1,1.7707535E1,1.4122254E1,2.1615942E1,1.6328615E1,1.4453244E1,1.1251528E1,1.6184534E1,1.3413951E1,1.3660293E1,1.3077085E1,1.3846128E1,1.4927523E1,1.4329647E1,1.3501349E1,1.5301391E1,1.4314023E1,1.3914751E1,1.2606963E1,1.3972155E1,1.5841158E1,1.4660735E1,1.3978147E1,1.3497526E1,1.7137215E1,1.2796041E1,9.205087E0,1.5485912E1,1.6541204E1,1.6273283E1,1.5453038E1,1.5001321E1,1.5953297E1,1.620991E1,1.7617695E1,1.5468663E1,1.6153795E1,2.3864913E0,1.629719E1,1.5750664E1,1.2259424E1,1.6519844E1,1.7098518E1,1.4920799E1,1.639937E1,1.7687479E1,1.708854E1,6.7161374E0,1.634518E1,1.1632575E1,1.5699346E1,1.5785267E1,1.6548183E1,1.751412E1,1.9482037E1,2.0309057E1,2.3681036E1,1.9683361E1,1.8595142E1,2.146715E1,2.0108467E1,2.0061626E1,1.754485E1,2.136641E1,1.9896044E1,1.7862772E1,1.9641457E1,2.1600523E1,3.497456E1,2.6794765E1,2.244178E1,5.2434883E0,1.773223E1,2.2519089E1,3.0162277E1,2.0333021E1,1.2433121E1,1.0408676E1,9.498783E0,9.473181E0,8.807261E0,9.489626E0,9.722146E0,9.698483E0,9.061928E0,9.77974E0,1.0110036E1,7.651197E0,9.4197035E0,6.298202E0,2.5728452E-1,1.0014792E1,9.457654E0,1.1934439E1,1.0939041E1,1.26059475E1,1.0831218E1,4.176529E0,8.424703E0,1.0014863E1,7.28792E0,1.1152975E1,1.0604522E1,1.1107445E1,1.2034332E1,1.188667E1,9.693104E0,1.3843951E1,1.1651484E1,7.9076552E0,1.0099219E1,1.1334069E1,1.0898982E1,1.0017974E1,1.2261333E1,9.006906E0,1.2946586E1,1.3429393E1,1.122521E1,1.0964318E1,1.1344034E1,1.1465207E1,1.0788955E1,7.5355244E0,1.0263796E1,9.342458E0,1.1357694E1,1.421874E1,1.1885476E1,1.167306E1,1.2067986E1,1.0232563E1,1.262315E1,1.1378675E1,1.3220942E1,4.3866663E0,1.1347222E1,8.618196E0,1.2701277E1,7.614771E-1,1.1098355E1,1.2159045E1,1.2932547E1,1.3726475E1,1.0206589E1,1.2151489E1,1.0062384E1,1.2121444E1,1.3549555E1,1.1358944E1,1.2357713E1,1.2038859E1,1.0998786E1,1.2380343E1,1.282435E1,1.1985154E1,1.314131E1,5.169163E0,1.0190175E1,1.3498267E1,1.1953373E1,1.3188722E1,1.2419058E1,1.5078925E1,1.3272483E1,1.35134945E1,1.2168567E1,1.2869967E1,1.4675068E1,1.8507254E1,8.568E0,2.925E0,1.4203355E1,2.5214787E1,1.3216097E1,1.3867809E1,1.9916334E1,1.3322581E0,1.2063686E1,1.4570898E1,1.8402279E1,1.3125688E1,1.3694794E1,1.229762E1,1.3372295E1,1.3918996E1,1.3060243E1,1.615898E1,1.1887928E1,1.4219241E1,1.5773136E1,1.5901071E1,1.3210383E1,1.288914E1,1.5252491E1,1.4515597E1,1.3613535E1,1.8305443E1,1.4489504E1,1.4632195E1,1.5539417E1,1.1997926E1,1.4358563E1,1.4349971E1,1.1976628E1,1.5809517E1,1.830051E1,6.4086146E0,1.1550042E1,1.6562744E1,1.5015931E1,1.6930946E1,1.5542515E1,1.863215E1,1.6025185E1,1.5047309E1,1.6204678E1,1.6683037E1,1.6054483E1,2.2926361E1,1.5481536E1,1.6214321E1,1.5058053E1,1.2768851E1,4.611383E0,1.6168255E1,1.6679598E1,1.7327124E1,1.614327E1,1.3676299E1,1.5609798E1,1.6263449E1,1.7224575E1,1.7418608E1,1.8143356E1,1.6829065E1,1.8190998E1,1.0607581E0,8.247678E0,4.388889E0,1.1873015E1,1.5948978E1,6.388889E0,1.6796865E1,1.5358366E1,1.973515E1,1.6101158E1,2.0596151E1,1.7247196E1,2.197738E1,1.9517527E1,2.399215E1,1.3970677E1,9.479194E0,1.8837648E1,2.108049E1,2.2378069E1,1.9051884E1,2.2044744E1,1.9302727E1,2.1763388E1,1.9259577E1,1.608404E1,1.8096224E1,1.9955242E1,1.1008163E1,2.1782343E1,1.863E1,3.809111E1,2.891494E1,1.624186E1,2.0195686E1,2.354083E1,2.0337582E1,2.3256098E1,2.2380362E1,3.805146E1,1.3761304E1,5.6963124E0,1.1312155E1,9.166242E0,8.521092E0,1.0167822E1,9.004304E0,7.2964706E0,9.019906E0,9.696685E0,9.942432E0,9.607601E0,9.779885E0,9.290997E0,8.312517E0,9.422234E0,9.964353E0,8.910951E0,1.1244374E1,1.0022502E1,2.5728452E-1,7.262141E0,1.0679141E1,1.1903272E1,1.0337519E1,1.5882379E1,1.019445E1,1.1151773E1,4.727996E0,9.853306E-1,9.603416E0,1.1140074E1,5.8537335E0,9.897763E0,1.05982065E1,1.1544111E1,1.118811E1,9.065428E0,1.1005219E1,1.2817524E1,1.0616983E1,1.3643204E1,5.492358E0,9.871395E0,1.2129973E1,1.6835154E1,1.0523406E1,1.2266995E1,8.04748E0,1.9263734E0,1.1424288E1,9.584118E0,1.0338018E1,1.0989254E1,1.0367373E1,5.238309E0,1.1582106E1,1.3553654E1,8.486762E0,1.1281214E1,1.0986729E1,1.160824E1,9.960026E0,1.1298028E1,1.4170034E1,1.1036459E1,1.1146412E1,1.3603698E1,1.1241875E1,1.1739389E1,1.1646704E1,1.288806E1,1.2649206E1,3.209603E-2,3.485264E0,1.3588366E1,8.967134E0,6.452453E-1,1.3532709E1,1.1974908E1,1.1376229E1,1.2860814E1,1.2359069E1,7.765712E0,6.608878E0,1.1846723E1,1.241096E1,1.1384014E1,1.1856371E1,1.2471919E1,1.1344963E1,7.6448126E0,1.3410327E1,1.2442751E1,1.2123091E1,9.855711E0,1.3392776E1,1.2688562E1,1.3714186E1,8.687721E0,1.1497035E1,1.2702068E1,1.3044538E1,1.6137537E1,1.4115747E1,1.1830054E1,1.0773481E1,1.2490961E1,1.4787269E1,6.265841E0,1.396875E1,2.1212692E1,2.23E0,9.594999E0,1.610015E1,1.044359E1,3.3048387E0,-4.2688164E-1,1.7362188E1,1.2580934E1,7.569841E0,1.8708693E1,1.3017938E1,1.500864E1,1.3211708E1,1.1826291E1,1.3586515E1,1.4081226E1,1.2573442E1,1.6945562E1,9.659157E0,1.3500587E1,1.3942386E1,1.4818211E1,1.6762327E1,1.2065914E1,1.4530553E1,2.056055E1,1.4712163E1,1.4358635E1,1.356303E1,1.6564419E1,6.8571863E0,1.2487489E1,1.4775798E1,1.234465E1,1.2949497E1,9.806257E0,7.112542E0,1.6129555E1,1.4700575E1,1.8796722E1,1.09214525E1,4.693693E0,1.7335262E1,1.603196E1,1.6428679E1,1.2038957E1,1.593427E1,1.6666222E1,1.6663065E1,1.5471955E1,1.0333659E1,1.4550738E1,1.8019234E1,1.65632E1,1.4959398E1,1.7454527E1,1.5845536E1,2.1293673E1,1.431276E1,6.936288E0,1.6389471E1,1.5424712E1,1.6483927E1,2.0845219E1,1.8452942E1,1.714484E1,1.7492281E1,1.6021038E1,1.6762197E1,1.9291073E1,1.8648788E1,1.6274395E1,1.4595279E1,1.5852398E1,2.311379E1,1.58083105E1,1.6467386E1,1.0279424E1,2.2886208E1,1.910174E1,1.3512488E1,1.839138E1,2.1541014E1,1.8536612E1,2.2930536E1,3.7156155E1,3.6166162E0,1.4719282E1,9.968922E0,1.80123E0,1.9997345E1,1.770337E1,2.3580082E1,2.081092E1,1.4828493E1,2.2861101E1,2.2620481E1,1.7530169E1,1.8261948E1,2.0447292E1,2.4252306E1,1.7614433E1,1.6790264E1,2.0144846E1,2.246274E1,1.8811115E1,2.1037498E1,4.5E0,3.011204E1,1.785452E1,1.9364288E1,2.033502E0,2.1390087E1,1.5631E1,4.185319E1,1.6496927E1,1.0542477E1,1.2406416E1,5.1699247E0,9.325632E0,6.7508507E0,8.749422E0,9.550455E0,1.1531065E1,7.6176343E0,9.282224E0,4.777389E0,8.480735E0,8.541362E0,9.305501E0,9.768672E0,9.08595E0,8.487392E0,9.812076E0,6.9034433E0,8.904012E0,1.1350833E1,8.989403E0,1.2383634E1,1.0084156E1,1.0100574E1,9.625748E0,1.1474126E1,1.5968859E1,1.1194143E1,6.8093925E0,8.941199E0,1.8398216E1,6.6997194E0,1.0303015E1,1.0150581E1,1.2714739E1,9.127188E0,1.0878329E1,7.3978133E0,1.1506238E1,9.904289E0,1.3420621E1,1.1372135E1,8.205552E0,9.281747E0,1.445324E1,1.8405771E1,3.8938868E0,9.590621E0,1.1522839E1,1.0537088E1,7.0022902E0,1.05823555E1,9.240155E0,8.429854E-1,5.9487762E0,1.1711165E1,4.6239805E0,1.481194E1,1.2346146E1,4.9932976E0,1.0874963E1,1.1141582E1,9.471226E0,1.083118E1,8.739937E0,1.5734341E1,1.0872658E1,1.720997E1,1.0833026E1,7.2513533E0,1.400721E1,1.0128172E1,1.1470249E1,1.1751668E1,9.513734E0,1.4000981E1,1.183998E1,9.962668E0,1.2799199E1,6.452453E-1,9.350966E0,1.2170039E1,7.2620916E0,1.0246733E1,4.175304E0,1.1658588E1,7.5091295E0,1.2041458E1,1.1426748E1,1.0826083E1,1.4680423E1,1.3559934E1,1.1713462E1,2.2241244E0,1.0263181E1,1.364743E1,1.2315035E1,8.202568E0,1.2743463E1,3.6271398E0,1.0613489E1,2.1083379E0,1.1615255E1,1.4260668E1,9.41834E0,2.2006075E1,1.4950897E1,1.0967705E1,3.515841E0,1.2052707E1,1.3546559E1,7.958525E0,5.938941E-1,1.6582153E1,2.025E0,1.477094E1,8.168109E0,1.2696967E1,3.5636792E0,1.451343E1,1.713441E1,1.7131521E1,1.2467684E1,1.4574585E1,1.5022703E1,1.2896829E1,1.443025E1,1.2651569E1,1.9665224E1,1.616455E1,2.01361E1,7.862542E0,3.1321788E0,1.3043637E1,8.496984E0,1.3804889E1,1.5499724E1,7.737542E0,1.2639978E1,1.089527E1,4.035754E0,1.6531643E1,1.9221514E1,1.5082585E1,1.7074478E1,1.6313517E1,8.32495E0,1.60589E1,1.8747221E1,1.700258E1,1.6226627E1,1.6287844E1,1.1544721E1,1.6101477E1,1.7621704E1,2.5327778E-1,8.393259E0,1.1226284E1,1.5609221E1,1.7423056E1,1.5392574E1,2.3193697E1,1.7600945E1,1.9478025E1,1.545223E1,2.0222998E1,1.7030155E1,1.4633836E1,1.6355692E1,1.5549288E1,2.0772682E1,1.614627E1,1.359804E1,4.2271376E0,2.4100443E1,7.953532E-1,1.1244837E1,2.4216665E1,1.4743571E1,4.045353E0,1.921888E1,9.679651E0,1.7527212E1,1.4679748E1,2.2137033E1,1.2490289E1,1.8865202E1,1.7904531E1,2.3423939E1,4.565176E1,2.2954079E1,1.6962399E1,2.0643208E1,1.4775916E1,1.8148098E1,1.9639591E1,2.120812E1,1.5281949E1,3.2349732E0,2.4692873E1,2.0613209E1,2.2318989E1,1.2070751E1,1.8601896E1,1.40444355E1,2.2210041E1,1.7979454E1,2.5628962E1,1.80123E0,1.9261211E1,1.4331668E1,2.039217E1,1.7893272E1,2.4953207E1,3.317138E1,1.2921129E1,2.3041122E1,2.3075573E0,6.0566807E-1,1.2011304E1,2.0329237E1,5.4874682E0,8.854658E0,1.5503029E0,7.810077E0,9.014193E0,1.1181958E1,2.6454792E0,5.699751E0,9.224765E0,7.97107E0,1.2245322E1,9.191118E0,9.915279E0,9.382535E0,3.6959999E0,9.140746E0,9.164606E0,6.636353E0,8.080184E0,5.868519E0,9.565435E0,1.3431089E1,1.1453136E1,1.3899117E1,1.0249109E1,9.847445E0,1.1005383E1,7.93345E0,9.3851385E0,3.2636244E0,2.8670387E0,1.2030979E1,4.287262E0,1.0661824E1,1.8762167E0,9.707385E0,1.0922098E1,9.562679E0,7.6097517E0,1.2766721E1,6.1627245E0,2.1235557E0,9.878361E0,7.203417E0,1.046174E1,7.7119374E0,4.982952E0,1.800694E1,8.6796055E0,1.1133661E1,7.0104647E0,1.2807773E1,1.7595322E1,1.1999686E1,5.1233735E0,1.0319752E1,1.2275061E1,1.1051801E1,1.0427947E0,1.0061978E1,1.5225192E1,9.089689E0,2.7465138E0,1.0662741E1,1.3178033E1,1.1383957E1,7.3204207E0,1.2315221E1,2.4117649E-1,8.109559E0,6.971401E0,1.1923349E1,1.3120578E1,1.4307752E1,7.5210547E0,1.2119996E1,1.3142879E1,1.4130638E1,5.812534E-1,2.5812535E0,2.5996433E1,1.2018359E1,1.0502368E1,1.715023E1,-5.414745E-1,7.843894E0,1.244351E1,2.1545769E1,9.174787E0,4.1184616E0,1.4683695E1,1.1830298E1,1.9616013E1,1.2039159E1,1.4744197E1,1.4286365E1,1.4765805E1,1.5763668E1,1.0668618E1,1.3788385E1,1.2703708E1,3.1714525E0,2.1239605E1,9.632179E0,1.663432E1,1.2033909E1,1.89527E0,9.439329E0,1.5227032E1,1.2738842E1,1.6092108E1,1.9180336E1,1.7532248E1,1.3371658E1,1.56323185E1,1.9308687E1,1.7173544E1,1.5071603E1,1.699853E1,1.6054073E1,3.1899583E0,1.647838E1,1.8077106E1,1.4535083E1,1.9053595E1,1.741082E1,1.5837701E1,1.213392E1,1.5708668E1,1.0637423E1,1.3671038E1,2.4883162E1,1.6409393E1,3.1439959E1,3.7161372E0,2.1139086E1,1.7303349E1,1.6354805E1,1.1157132E1,1.5315758E1,1.2366776E1,2.5252705E1,7.2535715E0,1.6917347E1,1.4025488E1,1.9952404E1,1.01E1,2.0795353E1,2.367531E1,1.8364151E1,1.3666162E0,1.3140759E1,2.1994759E1,2.6137344E1,4.05123E0,2.0723597E1,1.55988E1,9.373537E0,1.8767466E1,2.3340658E1,2.296971E1,2.067084E1,8.016394E0,1.6218184E1,8.0122995E-1,4.05123E0,1.2842214E1,3.0368853E1,8.202187E0,1.4138599E1,1.4624545E1,1.80123E0,1.9482803E1,2.4992878E1,1.5531949E1,2.0873348E1,1.4487398E1,4.05123E0,2.012447E1,2.2444103E1,2.131571E1,1.6568367E1,1.7387386E1,3.019624E1,4.200855E0,1.5569069E1,1.2799291E1,4.3302603E0],"categories":[],"categories_nodes":[],"categories_segments":[],"categories_sizes":[],"default_left":[true,true,true,true,true,true,true,true,true,true,true,true,true,true,true,true,true,true,true,true,true,true,true,true,true,true,true,true,true,true,true,true,true,false,true,true,true,true,true,true,true,true,true,true,false,true,true,true,true,true,true,true,true,true,true,true,true,false,true,true,true,false,false,true,true,true,true,true,true,true,true,true,true,true,false,true,true,true,true,true,true,true,false,false,false,true,false,true,true,true,true,true,true,true,true,true,false,false,true,true,true,true,true,false,true,true,true,true,true,true,true,false,false,true,true,true,false,true,true,true,true,true,false,true,true,true,true,true,true,true,false,true,true,true,true,true,true,true,true,false,true,true,true,true,true,true,true,true,true,true,true,true,true,false,true,true,true,true,false,true,false,true,true,true,true,true,true,true,true,true,false,true,false,true,true,true,true,false,true,false,false,true,false,true,true,true,true,true,true,true,true,false,true,true,true,true,true,true,false,true,true,true,true,true,false,true,true,true,false,true,false,false,true,false,true,false,true,true,false,false,true,true,false,false,true,false,false,true,true,true,true,false,true,true,true,true,true,true,true,false,true,true,true,false,false,true,true,false,true,true,false,false,false,false,true,true,false,true,true,true,true,true,true,true,true,true,true,true,true,true,true,true,true,true,true,false,true,true,false,true,true,true,true,true,true,false,false,true,false,true,true,true,true,true,true,false,true,false,false,true,false,false,false,true,true,true,true,false,true,true,true,true,true,true,true,true,true,true,false,true,true,true,false,true,true,true,true,false,true,true,false,false,false,true,true,true,true,true,true,true,true,false,false,true,true,false,true,true,true,false,true,true,true,true,true,true,true,false,false,true,false,false,false,false,true,true,true,true,false,true,true,true,false,true,true,true,true,true,true,true,false,true,true,false,false,true,true,false,true,false,true,false,true,false,false,false,true,false,true,true,true,false,true,false,true,false,false,true,true,false,false,true,false,false,true,false,false,false,false,true,true,true,true,false,true,true,true,false,false,true,false,false,true,true,false,true,true,false,true,true,true,false,false,false,false,true,false,true,false,true,true,true,false,true,false,true,false,true,true,true,true,true,false,false,false,false,false,false,false,true,true,true,true,false,true,true,true,true,false,true,false,false,false,false,false,false,true,false,true,false,false,true,false,true,false,false,true,true,true,true,false,true,true,true,false,true,true,false,false,false,false,false,false,true,true,true,true,true,true,false,true,true,true,true,true,true,false,true,true,true,false,false,false,true,true,false,true,true,false,true,true,false,false,true,false,false,true,false,false,true,true,true,true,true,true,true,true,false,false,true,false,true,true,false,false,true,true,false,false,false,true,true,true,true,false,false,false,false,true,false,false,true,false,false,true,false,true,true,true,false,false,false,true,false,false,false,false,true,true,true,false,false,true,true,true,true,false,true,false,true,true,true,false,false,true,true,true,false,true,true,false,false,false,true,false,false,true,false,false,false,true,false,false,false,true,true,false,true,false,true,false,false,true,true,true,false,true,true,false,true,true,false,false,true,true,false,true,false,false,false,false,true,true,false,false,false,true,false,false,false,false,false,false,false,false,false,false,false,false,false,true,false,false,true,false,true,true,true,true,true,true,true,true,true,true,true,false,false,false,false,false,true,true,false,false,false,false,false,false,false,true,true,true,true,true,false,false,false,true,false,true,true,true,true,true,false,true,false,false,true,false,false,true,true,false,false,true,true,true,true,false,true,true,true,true,false,false,false,false,true,true,false,true,true,false,true,true,true,true,true,false,true,true,false,false,false,false,true,false,true,true,false,true,false,false,false,false,false,false,true,false,false,false,true,true,true,false,true,true,true,true,true,false,true,false,true,false,true,false,true,false,false,false,false,false,false,false,false,false,true,false,false,false,true,true,true,false,false,false,false,false,false,false,true,false,false,false,true,false,false,false,false,false,false,true,true,false,false,true,false,true,true,true,false,true,false,true,true,true,false,true,true,false,true,true,false,false,true,true,false,false,true,false,false,false,false,false,true,true,false,false,true,false,false,false,false,false,true,false,false,false,true,false,true,true,false,false,false,false,true,false,false,true,false,false,true,true,false,false,true,true,true,false,true,true,true,false,false,false,false,true,true,false,false,false,false,false,false,false,false,true,false,false,true,true,true,true,true,false,true,true,false,false,false,true,false,true,true,true,false,false,true,true,true,false,false,false,false,false,false,true,false,false,false,true,false,true,false,true,false,true,true,false,false,true,false,false,false,true,true,false,true,true,true,true,false,false,true,true,false,true,true,true,false,false,false,true,true,true,true,false,true,false,true,true,true,false,false,false,false,false,false,false,false,false,false,false,false,false,false,false,false,false,false,false,false,false,false,false,false,false,false,false,false,false,false,false,false,false,false,false,false,false,false,false,false,false,false,false,false,false,false,false,false,false,false,false,false,false,false,false,false,false,false,false,false,false,false,false,false,false,false,false,false,false,false,false,false,false,false,false,false,false,false,false,true,true,false,false,false,false,false,false,false,false,false,false,true,true,false,false,false,false,false,false,false,false,false,false,false,false,false,false,false,false,false,false,false,false,false,false,false,false,false,false,false,false,false,false,false,false,false,false,false,false,false,false,false,false,false,false,false,false,false,false,false,false,false,false,false,false,false,false,false,false,false,false,false,false,false,false,false,false,false,false,false,false,false,false,false,false,false,false,false,false,false,false,false,false,false,false,false,false,false,false,false,false,false,false,false,false,false,false,false,false],"id":1,"left_children":[1,3,5,7,9,11,13,15,17,19,21,23,25,27,29,31,33,35,37,39,41,43,45,47,49,51,53,55,57,59,61,63,65,-1,67,69,71,73,75,77,79,81,83,85,-1,87,89,91,93,95,97,99,101,103,105,107,109,-1,111,113,115,-1,-1,117,119,121,123,125,127,129,131,133,135,137,-1,139,141,143,145,147,149,151,-1,-1,-1,153,-1,155,157,159,161,163,165,167,169,171,-1,-1,173,175,177,179,181,-1,183,185,187,189,191,193,195,-1,-1,197,199,201,-1,203,205,207,209,211,-1,213,215,217,219,221,223,225,-1,227,229,231,233,235,237,239,241,-1,243,245,247,249,251,253,255,257,259,261,263,265,267,-1,269,271,273,275,-1,277,-1,279,281,283,285,287,289,291,293,295,-1,297,-1,299,301,303,305,-1,307,-1,-1,309,-1,311,313,315,317,319,321,323,325,-1,327,329,331,333,335,337,-1,339,341,343,345,347,-1,349,351,353,-1,355,-1,-1,357,-1,359,-1,361,363,-1,-1,365,367,-1,-1,369,-1,-1,371,373,375,377,-1,379,381,383,385,387,389,391,-1,393,395,397,-1,-1,399,401,-1,403,405,-1,-1,-1,-1,407,409,-1,411,413,415,417,419,421,423,425,427,429,431,433,435,437,439,441,443,445,-1,447,449,-1,451,453,455,457,459,461,-1,-1,463,-1,465,467,469,471,473,475,-1,477,-1,-1,479,-1,-1,-1,481,483,485,487,-1,489,491,493,495,497,499,501,503,505,507,-1,509,511,513,-1,515,517,519,521,-1,523,525,-1,-1,-1,527,529,531,533,535,537,539,541,-1,-1,543,545,-1,547,549,551,-1,553,555,557,559,561,563,565,-1,-1,567,-1,-1,-1,-1,569,571,573,575,-1,577,579,581,-1,583,585,587,589,591,593,595,-1,597,599,-1,-1,601,603,-1,605,-1,607,-1,609,-1,-1,-1,611,-1,613,615,617,-1,619,-1,621,-1,-1,623,625,-1,-1,627,-1,-1,629,-1,-1,-1,-1,631,633,635,637,-1,639,641,643,-1,-1,645,-1,-1,647,649,-1,651,653,-1,655,657,659,-1,-1,-1,-1,661,-1,663,-1,665,667,669,-1,671,-1,673,-1,675,677,679,681,683,-1,-1,-1,-1,-1,-1,-1,685,687,689,691,-1,-1,695,697,699,-1,701,-1,-1,-1,-1,-1,-1,703,-1,705,-1,-1,707,-1,709,-1,-1,711,713,715,717,-1,719,721,723,-1,725,727,-1,-1,-1,-1,-1,-1,729,731,733,735,737,739,-1,741,743,745,747,749,751,-1,753,755,757,-1,-1,-1,759,761,-1,763,765,-1,767,769,-1,-1,771,-1,-1,773,-1,-1,775,777,779,781,783,785,787,789,-1,-1,791,-1,793,795,-1,-1,797,799,-1,-1,-1,801,803,805,807,-1,-1,-1,-1,809,-1,-1,811,-1,-1,813,-1,815,817,819,-1,-1,-1,821,-1,-1,-1,-1,823,825,827,-1,-1,829,831,833,835,-1,837,-1,839,841,843,-1,-1,845,847,849,-1,851,853,-1,-1,-1,855,-1,-1,857,-1,-1,-1,859,-1,-1,-1,861,863,-1,865,-1,867,-1,-1,869,871,873,-1,875,877,-1,879,881,-1,-1,883,885,-1,887,-1,-1,-1,-1,889,891,-1,-1,-1,893,-1,-1,-1,-1,-1,-1,-1,-1,-1,-1,-1,-1,-1,895,-1,-1,897,-1,899,901,903,905,907,909,911,913,-1,-1,915,-1,-1,-1,-1,-1,917,919,-1,-1,-1,-1,-1,-1,-1,921,923,925,927,929,-1,-1,-1,931,-1,933,935,937,939,941,-1,943,-1,-1,945,-1,-1,947,949,-1,-1,951,953,955,957,-1,959,961,963,965,-1,-1,-1,-1,967,969,-1,971,973,-1,975,977,979,981,983,-1,985,987,-1,-1,-1,-1,989,-1,991,-1,-1,995,-1,-1,-1,-1,-1,-1,997,-1,-1,-1,999,1001,1003,-1,1005,1007,1009,1011,1013,-1,1015,-1,1017,-1,1019,-1,1021,-1,-1,-1,-1,-1,-1,-1,-1,-1,1023,-1,-1,-1,1025,1027,1029,-1,-1,-1,-1,-1,-1,-1,1031,-1,-1,-1,1033,-1,-1,-1,-1,-1,-1,1035,1037,-1,-1,1039,-1,1041,1043,1045,-1,1047,-1,1049,1051,1053,-1,1055,1057,-1,1059,1061,-1,-1,1063,1065,-1,-1,1067,-1,-1,-1,-1,-1,1069,1071,-1,-1,1073,-1,-1,-1,-1,-1,-1,-1,-1,-1,1077,-1,1079,1081,-1,-1,-1,-1,1083,-1,-1,1085,-1,-1,-1,1089,-1,-1,1091,1093,1095,-1,1097,1099,1101,-1,-1,-1,-1,1103,1105,-1,-1,-1,-1,-1,-1,-1,-1,1107,-1,-1,1109,1111,1113,1115,1117,-1,1119,1121,-1,-1,-1,1123,-1,1125,1127,1129,-1,-1,1131,1133,1135,-1,-1,-1,-1,-1,-1,1137,-1,-1,-1,1139,-1,1141,-1,1143,-1,1145,1147,-1,-1,1149,-1,-1,-1,1151,1153,-1,1155,1157,1159,1161,-1,-1,1163,1165,-1,1167,1169,1171,-1,-1,-1,1173,1175,1177,1179,-1,1181,-1,-1,-1,1183,-1,-1,-1,-1,-1,-1,-1,-1,-1,-1,-1,-1,-1,-1,-1,-1,-1,-1,-1,-1,-1,-1,-1,-1,-1,-1,-1,-1,-1,-1,-1,-1,-1,-1,-1,-1,-1,-1,-1,-1,-1,-1,-1,-1,-1,-1,-1,-1,-1,-1,-1,-1,-1,-1,-1,-1,-1,-1,-1,-1,-1,-1,-1,-1,-1,-1,-1,-1,-1,-1,-1,-1,-1,-1,-1,-1,-1,-1,-1,-1,-1,-1,-1,-1,-1,-1,-1,-1,-1,-1,-1,-1,-1,-1,-1,-1,-1,-1,-1,-1,-1,-1,-1,-1,-1,-1,-1,-1,-1,-1,-1,-1,-1,-1,-1,-1,-1,-1,-1,-1,-1,-1,-1,-1,-1,-1,-1,-1,-1,-1,-1,-1,-1,-1,-1,-1,-1,-1,-1,-1,-1,-1,-1,-1,-1,-1,-1,-1,-1,-1,-1,-1,-1,-1,-1,-1,-1,-1,-1,-1,-1,-1,-1,-1,-1,-1,-1,-1,-1,-1,-1,-1,-1,-1,-1,-1,-1,-1,-1,-1,-1,-1,-1,-1,-1,-1,-1,-1,-1],"loss_changes":[1.801208E6,3.07938E5,3.79552E5,3.4508E4,1.6465E4,4.0846E4,8.996E3,8.0045E3,2.884E3,2.8155E3,9.245E2,6.285E3,7.658E3,4.04E2,5.12125E2,7.6325E2,3.76E2,1.0125E2,5.9625E1,3.3975E2,3.43E2,2.6875E0,9.65E2,5.785E2,3.07E2,2.875E2,1.048E3,9.85E2,2.2525E2,3.11375E2,2.658672E2,2.3875E2,3.875E1,0E0,2.1425E2,5.61875E1,4.2525E2,7.258594E1,5.9875E1,9.925E1,6.92E2,9.7E1,1.675E1,2.36875E1,0E0,2.0670312E2,2.63E2,2.0875E1,1.0925E2,1.56125E2,1.014E3,1.5175E2,6.7E2,1.4E1,2.43125E3,5.37E2,4.9825E2,0E0,3.41875E1,2.854375E2,1.9025E2,0E0,0E0,1.9225E2,6.7375E1,4.475E1,1.4375E0,9.1125E1,2.50625E1,1.029375E2,3.3625E1,5.775E1,7.475E1,7.375781E1,0E0,6.88125E1,6.825E1,1.8704688E2,4.209375E1,1.910625E2,8.03E2,4.8875E1,0E0,0E0,0E0,3.4375E1,0E0,1.1090234E2,8.187305E1,4.8E1,1.09E2,5.49375E1,5.571875E1,8.18E2,1.9575E2,1.3675E2,0E0,0E0,1.0175E2,6.0875E1,1.25859375E1,3.5575E2,1.18125E2,0E0,2.15E1,2.92875E2,1.89E2,1.6976875E3,3.3525E2,6.91625E2,2.949375E2,0E0,0E0,6.813125E2,8.1221875E2,1.0143125E3,0E0,3.671875E-1,4.675E1,4.14375E1,4.01875E1,7.953125E1,0E0,9.716406E1,9.5E0,3.2375E1,9.159375E1,2.0111328E1,2.275E1,7.588672E1,0E0,1.8875E1,1.953125E-1,4.015625E0,4.33125E1,2.6257812E2,3.2375E1,4.404785E1,1.5910938E2,0E0,3.0933746E1,1.98125E1,6.896875E1,3.4873047E0,1.0141846E1,2.8894531E1,1.940625E1,3.95625E1,8.2453125E1,1.33125E1,1.1E1,1.454375E2,6.14375E1,0E0,9.334375E1,1.3379297E2,1.7394727E2,8.794531E1,0E0,1.965586E2,0E0,2.26E2,7.89375E1,9.178125E1,1.093125E2,7.674219E1,1.7489062E2,4.8E1,1.1630625E3,3.1719727E1,0E0,5.88125E1,0E0,2.92625E2,2.384375E2,1.3334375E2,8.675E1,0E0,1.19990234E2,0E0,0E0,4.03375E2,0E0,1.9375E2,2.885E2,8.475E1,1.02640625E2,1.977539E2,7.85625E1,5.996875E1,1.4415312E3,0E0,8.275E1,6.425E2,2.2509375E2,2.35E1,1.3875E2,2.6889844E3,0E0,7.6625E2,2.7977637E2,6.413906E2,7.4183594E2,3.7089844E1,0E0,9.5703125E-1,3.90625E1,4.284375E1,0E0,5.0625E0,0E0,0E0,3.8751953E1,0E0,2.9136703E1,0E0,1.6921875E1,2.1875E1,0E0,0E0,2.9109375E1,1.4696777E1,0E0,0E0,4.986328E1,0E0,0E0,7.65625E0,3.6921875E1,1.2880273E2,6.819141E1,0E0,1.8088867E1,1.96875E1,3.216797E1,5.6023438E1,3.68125E1,9.64375E1,5.625E-1,0E0,2.5851562E1,3.0265625E1,1.0752344E2,0E0,0E0,6.125E0,2.5389844E2,0E0,6.626953E1,5.8470947E1,0E0,0E0,0E0,0E0,1.8638672E2,9.0052734E1,0E0,3E1,7.5171875E1,1.0535742E2,5.1757812E1,7.46875E0,4.3E1,9.54375E1,3.213125E2,5.8771973E1,5.060547E1,3.25E0,2.12875E2,1.481875E2,1.3728125E2,1.2648242E2,5.1990234E1,3.6204395E2,3.5946875E2,0E0,2.9005664E2,1.7203516E2,0E0,1.4775E2,1.3423438E2,5.225E1,7.3245703E2,1.38125E1,2.0259375E2,0E0,0E0,2.8223438E2,0E0,3.43125E1,1.27802734E2,9.25E1,2.714297E2,2.6496094E1,2.6515625E2,0E0,3.7459473E1,0E0,0E0,8.2484375E1,0E0,0E0,0E0,4.3390625E1,1.99E2,2.19375E1,1.875E0,0E0,1.4251758E2,2.6515625E2,1.554043E2,1.635E2,9.5E1,1.9746094E1,1.385E2,7.575E1,1.6584375E2,2.5896973E1,0E0,2.4524414E1,1.6637695E1,2.26125E2,0E0,2.910586E2,2.1246875E2,2.6432812E2,4.0496875E2,0E0,7.5875E2,2.73125E1,0E0,0E0,0E0,1.5934375E2,9.8421875E1,1.4738281E2,3.463125E2,3.2835938E2,2.5819727E2,1.3650391E3,5.762031E2,0E0,0E0,1.8301562E2,4.3764648E2,0E0,1.0056543E2,2.1285938E2,1.6584766E2,0E0,3.9384766E1,3.3396875E2,4.46875E1,4.678125E1,2.0234375E1,1.1121875E2,3.2003125E2,0E0,0E0,3.8893097E1,0E0,0E0,0E0,0E0,2.6E1,2.1486523E2,2.36875E1,4.1405563E0,0E0,5.598047E1,2.0664185E1,5.7539062E1,0E0,2.3101562E1,6.769531E1,1.1832031E2,1.46875E1,5.7259766E1,9.310156E1,9.587402E0,0E0,3.796875E1,6.909375E1,0E0,0E0,2.2598389E1,2.3597656E1,0E0,6.46875E1,0E0,7.75E1,0E0,2.6726562E1,0E0,0E0,0E0,1.3903125E2,0E0,7.440625E1,2.36875E1,2.340625E2,0E0,1.5805469E2,0E0,4.1051367E2,0E0,0E0,5.5419434E1,1.3691406E1,0E0,0E0,4.8164062E1,0E0,0E0,1.9609863E1,0E0,0E0,0E0,0E0,3.1327734E2,6.25E-1,1.480625E2,1.2342383E2,0E0,2.92875E2,1.8867188E1,1.371875E1,0E0,0E0,3.2501953E1,0E0,0E0,1.1328125E0,5.8695312E1,0E0,1.0168359E2,8.041406E1,0E0,6.963281E1,1.334375E2,1.1148773E1,0E0,0E0,0E0,0E0,1.8348047E2,0E0,1.5290956E1,0E0,2.0371387E2,1.7700195E1,2.7796875E1,0E0,2.7304688E0,0E0,9.5625E0,0E0,2.7484766E2,1.3916406E2,2.525E1,1.5346094E2,7.801172E1,0E0,0E0,0E0,0E0,0E0,0E0,0E0,5.925E1,5.5527344E2,1.6855957E2,2.2849219E2,0E0,1.8144531E0,3.723672E2,5.4148438E1,2.612967E1,0E0,2.140625E1,0E0,0E0,0E0,0E0,0E0,0E0,8.121875E1,0E0,5.4E1,0E0,0E0,5.434375E1,0E0,7.093945E1,0E0,0E0,5.23375E2,1.5246875E2,1.9316406E2,3.5114648E2,0E0,8.7875E1,1.0267031E3,2.60125E2,0E0,4.426875E2,1.5132031E2,0E0,0E0,0E0,0E0,0E0,0E0,8.0625E0,7.021875E1,5.7659375E2,9.5103516E1,6.591016E1,1.0188867E2,0E0,3.251875E2,2.4461094E3,2.4276978E1,3.092517E1,1.879375E2,1.9115625E2,0E0,1.1249961E3,3.2864062E2,6.0203125E1,0E0,0E0,0E0,3.350547E2,3.836875E2,0E0,1.616875E2,7.542114E1,0E0,3.4947266E2,6.7045605E2,0E0,0E0,2.1551172E2,0E0,0E0,4.7052734E1,0E0,0E0,3.1210938E0,3.0771484E1,6.817383E0,7.8396484E1,4.798828E1,9.671387E1,1.0365625E2,4.2875E1,0E0,0E0,5.98125E1,0E0,4.438086E1,9.74707E1,0E0,0E0,2.769453E2,2.8375E1,0E0,0E0,0E0,2.7882812E1,2.351001E1,1.6729248E2,2.0892578E1,0E0,0E0,0E0,0E0,8.051758E0,0E0,0E0,4.6996094E1,0E0,0E0,5.3270264E1,0E0,1.1481055E2,3.9618164E1,2.8364258E1,0E0,0E0,0E0,2.5354248E2,0E0,0E0,0E0,0E0,4.9054688E1,5.4157227E1,4.0902344E1,0E0,0E0,1.372168E1,1.2300781E1,3.7441406E1,1.5427551E2,0E0,1.15546875E2,0E0,4.7762695E1,2.0067773E2,1.1789307E2,0E0,0E0,2.402832E1,7.4328125E1,1.64375E1,0E0,2.6347266E2,6.671094E1,0E0,0E0,0E0,6.1044678E1,0E0,0E0,6.24375E1,0E0,0E0,0E0,7.3019165E1,0E0,0E0,0E0,7.6302734E1,7.353125E1,0E0,1.2144141E2,0E0,4.375E1,0E0,0E0,8.290112E1,1.1159375E2,4.2007812E1,0E0,4.921295E1,1.3423242E2,0E0,7.7364746E1,2.1416797E2,0E0,0E0,9.81709E1,1.3449219E1,0E0,3.3676727E1,0E0,0E0,0E0,0E0,1.4281299E2,8.613208E1,0E0,0E0,0E0,4.9746094E0,0E0,0E0,0E0,0E0,0E0,0E0,0E0,0E0,0E0,0E0,0E0,0E0,0E0,5.2046875E1,0E0,0E0,4.9317383E1,0E0,1.88E2,1.11125E2,5.131836E2,3.0132812E1,1.6567627E1,9.112598E1,6.717969E1,2.4652344E1,0E0,0E0,4.913858E1,0E0,0E0,0E0,0E0,0E0,1.1425E2,1.8389844E2,0E0,0E0,0E0,0E0,0E0,0E0,0E0,1.6050732E2,2.8404688E2,4.4325E2,1.6125E2,9.1875E0,0E0,0E0,0E0,1.0498065E2,0E0,1.640625E2,1.715E2,2.2415625E2,9.6940625E2,2.2890625E2,0E0,4.8484375E1,0E0,0E0,9.83125E1,0E0,0E0,9.446875E1,5.689668E2,0E0,0E0,8.261682E1,2.1713086E2,8.980078E1,1.8426172E2,0E0,1.3714453E2,2.6702344E2,1.2864844E2,8.8258984E2,0E0,0E0,0E0,0E0,3.403125E1,1.4359375E1,0E0,1.246875E1,1.9239355E2,0E0,5.06E2,6.717822E2,2.5492188E1,3.1845312E2,4.4835547E2,0E0,1.7350977E2,2.64375E2,0E0,0E0,0E0,0E0,1.0344141E2,0E0,1.02578125E1,1.6760826E-1,0E0,1.6396729E2,0E0,0E0,0E0,0E0,0E0,0E0,1.2542358E1,0E0,0E0,0E0,5.44458E1,2.7519531E1,1.8350098E1,0E0,1.2640625E2,1.65875E2,5.7828125E1,6.3683594E1,5.3253418E1,0E0,3.7304688E0,0E0,2.0088867E1,0E0,5.092383E1,0E0,2.571875E1,0E0,0E0,0E0,0E0,0E0,0E0,0E0,0E0,0E0,2.4506348E1,0E0,0E0,0E0,1.5833801E2,1.990686E1,7.343286E1,0E0,0E0,0E0,0E0,0E0,0E0,0E0,2.7726074E1,0E0,0E0,0E0,3.9664062E1,0E0,0E0,0E0,0E0,0E0,0E0,6.2208984E1,2.718457E1,0E0,0E0,1.56328125E1,0E0,2.7291016E1,2.767766E2,8.111328E0,0E0,3.8537476E1,0E0,1.13006836E2,7.752832E1,7.111719E1,0E0,1.3347583E2,9.017617E2,0E0,1.2226953E2,9.285156E1,0E0,0E0,1.968164E1,5.1594116E1,0E0,0E0,9.30957E1,0E0,0E0,0E0,0E0,0E0,5.1140625E1,3.155957E1,0E0,0E0,1.2984375E1,0E0,0E0,0E0,0E0,0E0,6.661835E-1,0E0,0E0,0E0,1.2596582E2,0E0,9.031641E1,7.448837E1,0E0,0E0,0E0,0E0,2.4546143E2,0E0,0E0,2.744104E1,0E0,0E0,1.2578125E0,3.2019336E2,0E0,0E0,1.13875E2,3.179375E2,1.3499023E2,0E0,2.0013672E1,4.8149414E1,2.441836E2,0E0,0E0,0E0,0E0,6.920526E1,7.891797E1,0E0,0E0,0E0,0E0,0E0,0E0,0E0,0E0,1.154375E2,0E0,0E0,2.3275586E2,2.1059375E2,4.304375E2,9.66875E1,7.9703125E1,0E0,2.138164E2,1.309375E1,0E0,0E0,0E0,1.389375E2,0E0,1.4403516E2,3.8379102E2,1.2719531E2,0E0,0E0,7.228965E2,7.03125E0,1.3733008E2,0E0,0E0,0E0,0E0,0E0,0E0,1.4739453E2,0E0,0E0,0E0,4.0104492E1,0E0,7.825E1,0E0,3.269873E1,0E0,1.5720312E2,9.781177E1,0E0,0E0,1.9294531E2,0E0,0E0,0E0,1.2546094E2,4.932129E0,0E0,3.5921875E2,1.65E2,1.6928809E2,2.7137108E0,0E0,0E0,9.831582E2,3.6024902E1,0E0,1.08603516E2,2.1129688E2,1.9992383E2,0E0,0E0,0E0,6.948242E0,1.036875E2,1.9096484E2,5.0633008E2,0E0,9.623193E1,0E0,0E0,0E0,4.1416748E1,0E0,0E0,0E0,0E0,0E0,0E0,0E0,0E0,0E0,0E0,0E0,0E0,0E0,0E0,0E0,0E0,0E0,0E0,0E0,0E0,0E0,0E0,0E0,0E0,0E0,0E0,0E0,0E0,0E0,0E0,0E0,0E0,0E0,0E0,0E0,0E0,0E0,0E0,0E0,0E0,0E0,0E0,0E0,0E0,0E0,0E0,0E0,0E0,0E0,0E0,0E0,0E0,0E0,0E0,0E0,0E0,0E0,0E0,0E0,0E0,0E0,0E0,0E0,0E0,0E0,0E0,0E0,0E0,0E0,0E0,0E0,0E0,0E0,0E0,0E0,0E0,0E0,0E0,0E0,0E0,0E0,0E0,0E0,0E0,0E0,0E0,0E0,0E0,0E0,0E0,0E0,0E0,0E0,0E0,0E0,0E0,0E0,0E0,0E0,0E0,0E0,0E0,0E0,0E0,0E0,0E0,0E0,0E0,0E0,0E0,0E0,0E0,0E0,0E0,0E0,0E0,0E0,0E0,0E0,0E0,0E0,0E0,0E0,0E0,0E0,0E0,0E0,0E0,0E0,0E0,0E0,0E0,0E0,0E0,0E0,0E0,0E0,0E0,0E0,0E0,0E0,0E0,0E0,0E0,0E0,0E0,0E0,0E0,0E0,0E0,0E0,0E0,0E0,0E0,0E0,0E0,0E0,0E0,0E0,0E0,0E0,0E0,0E0,0E0,0E0,0E0,0E0,0E0,0E0,0E0,0E0,0E0,0E0,0E0,0E0,0E0,0E0,0E0,0E0,0E0,0E0,0E0,0E0,0E0,0E0,0E0,0E0,0E0,0E0],"parents":[2147483647,0,0,1,1,2,2,3,3,4,4,5,5,6,6,7,7,8,8,9,9,10,10,11,11,12,12,13,13,14,14,15,15,16,16,17,17,18,18,19,19,20,20,21,21,22,22,23,23,24,24,25,25,26,26,27,27,28,28,29,29,30,30,31,31,32,32,34,34,35,35,36,36,37,37,38,38,39,39,40,40,41,41,42,42,43,43,45,45,46,46,47,47,48,48,49,49,50,50,51,51,52,52,53,53,54,54,55,55,56,56,58,58,59,59,60,60,63,63,64,64,65,65,66,66,67,67,68,68,69,69,70,70,71,71,72,72,73,73,75,75,76,76,77,77,78,78,79,79,80,80,81,81,85,85,87,87,88,88,89,89,90,90,91,91,92,92,93,93,94,94,95,95,98,98,99,99,100,100,101,101,102,102,104,104,105,105,106,106,107,107,108,108,109,109,110,110,113,113,114,114,115,115,117,117,118,118,119,119,120,120,121,121,123,123,124,124,125,125,126,126,127,127,128,128,129,129,131,131,132,132,133,133,134,134,135,135,136,136,137,137,138,138,140,140,141,141,142,142,143,143,144,144,145,145,146,146,147,147,148,148,149,149,150,150,151,151,152,152,154,154,155,155,156,156,157,157,159,159,161,161,162,162,163,163,164,164,165,165,166,166,167,167,168,168,169,169,171,171,173,173,174,174,175,175,176,176,178,178,181,181,183,183,184,184,185,185,186,186,187,187,188,188,189,189,190,190,192,192,193,193,194,194,195,195,196,196,197,197,199,199,200,200,201,201,202,202,203,203,205,205,206,206,207,207,209,209,212,212,214,214,216,216,217,217,220,220,221,221,224,224,227,227,228,228,229,229,230,230,232,232,233,233,234,234,235,235,236,236,237,237,238,238,240,240,241,241,242,242,245,245,246,246,248,248,249,249,254,254,255,255,257,257,258,258,259,259,260,260,261,261,262,262,263,263,264,264,265,265,266,266,267,267,268,268,269,269,270,270,271,271,272,272,273,273,274,274,276,276,277,277,279,279,280,280,281,281,282,282,283,283,284,284,287,287,289,289,290,290,291,291,292,292,293,293,294,294,296,296,299,299,303,303,304,304,305,305,306,306,308,308,309,309,310,310,311,311,312,312,313,313,314,314,315,315,316,316,317,317,319,319,320,320,321,321,323,323,324,324,325,325,326,326,328,328,329,329,333,333,334,334,335,335,336,336,337,337,338,338,339,339,340,340,343,343,344,344,346,346,347,347,348,348,350,350,351,351,352,352,353,353,354,354,355,355,356,356,359,359,364,364,365,365,366,366,367,367,369,369,370,370,371,371,373,373,374,374,375,375,376,376,377,377,378,378,379,379,381,381,382,382,385,385,386,386,388,388,390,390,392,392,396,396,398,398,399,399,400,400,402,402,404,404,407,407,408,408,411,411,414,414,419,419,420,420,421,421,422,422,424,424,425,425,426,426,429,429,432,432,433,433,435,435,436,436,438,438,439,439,440,440,445,445,447,447,449,449,450,450,451,451,453,453,455,455,457,457,458,458,459,459,460,460,461,461,469,469,470,470,471,471,472,472,474,474,475,475,476,476,477,477,479,479,486,486,488,488,491,491,493,493,496,496,497,497,498,498,499,499,501,501,502,502,503,503,505,505,506,506,513,513,514,514,515,515,516,516,517,517,518,518,520,520,521,521,522,522,523,523,524,524,525,525,527,527,528,528,529,529,533,533,534,534,536,536,537,537,539,539,540,540,543,543,546,546,549,549,550,550,551,551,552,552,553,553,554,554,555,555,556,556,559,559,561,561,562,562,565,565,566,566,570,570,571,571,572,572,573,573,578,578,581,581,584,584,586,586,587,587,588,588,592,592,597,597,598,598,599,599,602,602,603,603,604,604,605,605,607,607,609,609,610,610,611,611,614,614,615,615,616,616,618,618,619,619,623,623,626,626,630,630,634,634,635,635,637,637,639,639,642,642,643,643,644,644,646,646,647,647,649,649,650,650,653,653,654,654,656,656,661,661,662,662,666,666,680,680,683,683,685,685,686,686,687,687,688,688,689,689,690,690,691,691,692,692,695,695,701,701,702,702,710,710,711,711,712,712,713,713,714,714,718,718,720,720,721,721,722,722,723,723,724,724,726,726,729,729,732,732,733,733,736,736,737,737,738,738,739,739,741,741,742,742,743,743,744,744,749,749,750,750,752,752,753,753,755,755,756,756,757,757,758,758,759,759,761,761,762,762,767,767,769,769,770,770,772,772,779,779,783,783,784,784,785,785,787,787,788,788,789,789,790,790,791,791,793,793,795,795,797,797,799,799,809,809,813,813,814,814,815,815,823,823,827,827,834,834,835,835,838,838,840,840,841,841,842,842,844,844,846,846,847,847,848,848,850,850,851,851,853,853,854,854,857,857,858,858,861,861,867,867,868,868,871,871,877,877,881,881,883,883,884,884,889,889,892,892,895,895,896,896,899,899,900,900,901,901,903,903,904,904,905,905,910,910,911,911,920,920,923,923,924,924,925,925,926,926,927,927,929,929,930,930,934,934,936,936,937,937,938,938,941,941,942,942,943,943,950,950,954,954,956,956,958,958,960,960,961,961,964,964,968,968,969,969,971,971,972,972,973,973,974,974,977,977,978,978,980,980,981,981,982,982,986,986,987,987,988,988,989,989,991,991,995,995],"right_children":[2,4,6,8,10,12,14,16,18,20,22,24,26,28,30,32,34,36,38,40,42,44,46,48,50,52,54,56,58,60,62,64,66,-1,68,70,72,74,76,78,80,82,84,86,-1,88,90,92,94,96,98,100,102,104,106,108,110,-1,112,114,116,-1,-1,118,120,122,124,126,128,130,132,134,136,138,-1,140,142,144,146,148,150,152,-1,-1,-1,154,-1,156,158,160,162,164,166,168,170,172,-1,-1,174,176,178,180,182,-1,184,186,188,190,192,194,196,-1,-1,198,200,202,-1,204,206,208,210,212,-1,214,216,218,220,222,224,226,-1,228,230,232,234,236,238,240,242,-1,244,246,248,250,252,254,256,258,260,262,264,266,268,-1,270,272,274,276,-1,278,-1,280,282,284,286,288,290,292,294,296,-1,298,-1,300,302,304,306,-1,308,-1,-1,310,-1,312,314,316,318,320,322,324,326,-1,328,330,332,334,336,338,-1,340,342,344,346,348,-1,350,352,354,-1,356,-1,-1,358,-1,360,-1,362,364,-1,-1,366,368,-1,-1,370,-1,-1,372,374,376,378,-1,380,382,384,386,388,390,392,-1,394,396,398,-1,-1,400,402,-1,404,406,-1,-1,-1,-1,408,410,-1,412,414,416,418,420,422,424,426,428,430,432,434,436,438,440,442,444,446,-1,448,450,-1,452,454,456,458,460,462,-1,-1,464,-1,466,468,470,472,474,476,-1,478,-1,-1,480,-1,-1,-1,482,484,486,488,-1,490,492,494,496,498,500,502,504,506,508,-1,510,512,514,-1,516,518,520,522,-1,524,526,-1,-1,-1,528,530,532,534,536,538,540,542,-1,-1,544,546,-1,548,550,552,-1,554,556,558,560,562,564,566,-1,-1,568,-1,-1,-1,-1,570,572,574,576,-1,578,580,582,-1,584,586,588,590,592,594,596,-1,598,600,-1,-1,602,604,-1,606,-1,608,-1,610,-1,-1,-1,612,-1,614,616,618,-1,620,-1,622,-1,-1,624,626,-1,-1,628,-1,-1,630,-1,-1,-1,-1,632,634,636,638,-1,640,642,644,-1,-1,646,-1,-1,648,650,-1,652,654,-1,656,658,660,-1,-1,-1,-1,662,-1,664,-1,666,668,670,-1,672,-1,674,-1,676,678,680,682,684,-1,-1,-1,-1,-1,-1,-1,686,688,690,692,-1,-1,696,698,700,-1,702,-1,-1,-1,-1,-1,-1,704,-1,706,-1,-1,708,-1,710,-1,-1,712,714,716,718,-1,720,722,724,-1,726,728,-1,-1,-1,-1,-1,-1,730,732,734,736,738,740,-1,742,744,746,748,750,752,-1,754,756,758,-1,-1,-1,760,762,-1,764,766,-1,768,770,-1,-1,772,-1,-1,774,-1,-1,776,778,780,782,784,786,788,790,-1,-1,792,-1,794,796,-1,-1,798,800,-1,-1,-1,802,804,806,808,-1,-1,-1,-1,810,-1,-1,812,-1,-1,814,-1,816,818,820,-1,-1,-1,822,-1,-1,-1,-1,824,826,828,-1,-1,830,832,834,836,-1,838,-1,840,842,844,-1,-1,846,848,850,-1,852,854,-1,-1,-1,856,-1,-1,858,-1,-1,-1,860,-1,-1,-1,862,864,-1,866,-1,868,-1,-1,870,872,874,-1,876,878,-1,880,882,-1,-1,884,886,-1,888,-1,-1,-1,-1,890,892,-1,-1,-1,894,-1,-1,-1,-1,-1,-1,-1,-1,-1,-1,-1,-1,-1,896,-1,-1,898,-1,900,902,904,906,908,910,912,914,-1,-1,916,-1,-1,-1,-1,-1,918,920,-1,-1,-1,-1,-1,-1,-1,922,924,926,928,930,-1,-1,-1,932,-1,934,936,938,940,942,-1,944,-1,-1,946,-1,-1,948,950,-1,-1,952,954,956,958,-1,960,962,964,966,-1,-1,-1,-1,968,970,-1,972,974,-1,976,978,980,982,984,-1,986,988,-1,-1,-1,-1,990,-1,992,-1,-1,996,-1,-1,-1,-1,-1,-1,998,-1,-1,-1,1000,1002,1004,-1,1006,1008,1010,1012,1014,-1,1016,-1,1018,-1,1020,-1,1022,-1,-1,-1,-1,-1,-1,-1,-1,-1,1024,-1,-1,-1,1026,1028,1030,-1,-1,-1,-1,-1,-1,-1,1032,-1,-1,-1,1034,-1,-1,-1,-1,-1,-1,1036,1038,-1,-1,1040,-1,1042,1044,1046,-1,1048,-1,1050,1052,1054,-1,1056,1058,-1,1060,1062,-1,-1,1064,1066,-1,-1,1068,-1,-1,-1,-1,-1,1070,1072,-1,-1,1074,-1,-1,-1,-1,-1,-1,-1,-1,-1,1078,-1,1080,1082,-1,-1,-1,-1,1084,-1,-1,1086,-1,-1,-1,1090,-1,-1,1092,1094,1096,-1,1098,1100,1102,-1,-1,-1,-1,1104,1106,-1,-1,-1,-1,-1,-1,-1,-1,1108,-1,-1,1110,1112,1114,1116,1118,-1,1120,1122,-1,-1,-1,1124,-1,1126,1128,1130,-1,-1,1132,1134,1136,-1,-1,-1,-1,-1,-1,1138,-1,-1,-1,1140,-1,1142,-1,1144,-1,1146,1148,-1,-1,1150,-1,-1,-1,1152,1154,-1,1156,1158,1160,1162,-1,-1,1164,1166,-1,1168,1170,1172,-1,-1,-1,1174,1176,1178,1180,-1,1182,-1,-1,-1,1184,-1,-1,-1,-1,-1,-1,-1,-1,-1,-1,-1,-1,-1,-1,-1,-1,-1,-1,-1,-1,-1,-1,-1,-1,-1,-1,-1,-1,-1,-1,-1,-1,-1,-1,-1,-1,-1,-1,-1,-1,-1,-1,-1,-1,-1,-1,-1,-1,-1,-1,-1,-1,-1,-1,-1,-1,-1,-1,-1,-1,-1,-1,-1,-1,-1,-1,-1,-1,-1,-1,-1,-1,-1,-1,-1,-1,-1,-1,-1,-1,-1,-1,-1,-1,-1,-1,-1,-1,-1,-1,-1,-1,-1,-1,-1,-1,-1,-1,-1,-1,-1,-1,-1,-1,-1,-1,-1,-1,-1,-1,-1,-1,-1,-1,-1,-1,-1,-1,-1,-1,-1,-1,-1,-1,-1,-1,-1,-1,-1,-1,-1,-1,-1,-1,-1,-1,-1,-1,-1,-1,-1,-1,-1,-1,-1,-1,-1,-1,-1,-1,-1,-1,-1,-1,-1,-1,-1,-1,-1,-1,-1,-1,-1,-1,-1,-1,-1,-1,-1,-1,-1,-1,-1,-1,-1,-1,-1,-1,-1,-1,-1,-1,-1,-1,-1,-1,-1,-1,-1],"split_conditions":[2.4450002E0,1.625E0,3.545E0,1.305E0,2.125E0,2.9850001E0,4.7650003E0,1.045E0,1.485E0,1.945E0,2.1750002E0,2.745E0,3.205E0,4.545E0,5.66E0,7.95E-1,1.135E0,1.355E0,1.5E0,1.685E0,2.045E0,2.85E1,2.1950002E0,2.495E0,2.815E0,3.0549998E0,3.375E0,4.365E0,3.495E2,5.175E0,2.25E1,5.85E-1,1.95E1,2.0763345E0,3.405E2,7.5E0,1.415E0,1.545E0,9.5E0,5E-1,1.725E0,3.475E2,3.305E2,2.165E0,2.5606155E0,3.475E2,2.3049998E0,4.95E1,2.7150002E0,2.95E1,2.8850002E0,2.25E1,3.1550002E0,2.5E0,3.4850001E0,3.7849998E0,4.85E1,3.9177816E0,4.5950003E0,4.9449997E0,3.5E0,4.927017E0,1.5022222E0,1.5E0,2.65E1,1.35E1,8.85E-1,1.255E0,5E-1,1.315E0,3.495E2,6.5E0,2.5E0,1.495E0,2.0836122E0,1.605E0,1.55E1,1.65E1,1.645E0,5.05E1,1.755E0,1.955E0,2.7172163E0,2.7416377E0,2.5701926E0,3.485E2,2.5307982E0,1.35E1,2.25E1,3.305E2,2.4250002E0,1.45E1,1.45E1,2.705E0,3.305E2,2.15E1,2.8718612E0,2.9866405E0,2.955E0,2.5E0,2.65E1,3.1350002E0,6.5E0,3.2246196E0,3.295E0,2.15E1,5E-1,3.6550002E0,2.5E0,2.05E1,7.5E0,3.5939062E0,3.8440168E0,4.795E0,2.95E1,2.75E1,4.1614413E0,2.75E1,1.5E0,4.95E1,7.55E-1,1.035E0,2.0376825E0,5.05E1,9.45E-1,1.5E0,1.285E0,1.2E1,1.285E0,3.515E2,2.339853E0,1.75E1,1.25E1,3.515E2,2.95E1,1.435E0,1.465E0,1.3E1,1.45E1,2.4088452E0,2.15E1,1.45E1,2.95E1,1.645E0,1.635E0,3.315E2,2.5E0,2.15E1,1.705E0,1.735E0,2.75E1,5E-1,6.5E0,2.7093625E0,1.35E1,3.5E0,1.65E1,1.45E1,4.2336E0,1.75E1,2.78911E0,2.95E1,2.95E1,1.05E1,1.75E1,1.45E1,2.05E1,2.6950002E0,1.35E1,2.7350001E0,2.8732755E0,3.515E2,3.3417127E0,2.5E0,1.95E1,3.46E2,5.5E0,2.8480961E0,2.995E0,3.154396E0,3.0652938E0,2.25E1,3.2371986E0,3.2649999E0,3.5E0,3.455E0,3.3850002E0,3.505E0,1.65E1,1.05E1,3.475E2,3.7357335E0,2.95E1,4.495E0,3.325E2,4.465E0,9.5E0,2.25E1,3.9536588E0,4.965E0,4.965E0,3.515E2,5.425E0,4.95E-1,2.111882E0,5.3499997E-1,1.15E1,3.375E2,1.9753428E0,4.5E0,1.9148617E0,1.9990942E0,5.5E0,2.1658666E0,2.25E1,1.8440908E0,2.75E1,2.5E0,2.1489859E0,2.0759208E0,3.305E2,1.155E0,1.9961007E0,2.100041E0,2.25E1,2.1040888E0,8.736E-1,1.25E1,1.345E0,1.05E1,1.35E1,2.1298692E0,1.375E0,1.05E1,2.15E1,1.5E0,5E-1,3.485E2,5.05E1,2.2389348E0,1.85E1,1.5E0,1.515E0,1.52529E0,1.564192E-1,5.05E1,1.495E0,2.2848833E0,1.525E0,6E0,2.7767E0,4.333333E-1,1.7593333E0,3.0031576E0,3.325E2,1.5E0,2.4053974E0,1.5E0,2.95E1,1.15E1,1.45E1,5E-1,2.25E1,1.865E0,4.5E0,3.5E0,2.65E1,2.005E0,7.5E0,4.5E0,1.65E1,8.5E0,3.305E2,2.185E0,2.185E0,2.8906488E0,1.65E1,2.2849998E0,2.6827903E0,1.5E0,6.5E0,2.85E1,1.55E1,3.375E2,1.5E0,3.0602782E0,2.8628047E0,9.5E0,2.5213926E0,7.5E0,2.15E1,2.685E0,3.315E2,1.65E1,3.335E2,2.5592082E0,1.45E1,3.0971825E0,3.308241E0,2.9450002E0,3.0906076E0,3.0002642E0,3.1906593E0,3.0149999E0,1.65E1,3.0349998E0,3.315E2,4.7729826E-1,3.005E0,2.5E0,3.1950002E0,7.5E0,3.495E2,3.315E0,5.05E1,3.435E0,1.75E1,7E0,3.269036E0,1.5E0,2.95E1,5.5E0,3.3096368E0,3.565E0,1.85E1,3.705E0,2.25E1,3.9366722E0,3.855E0,2.85E1,4.0216937E0,4.0123253E0,3.50897E0,7E0,5.5E0,1.45E1,6E0,3.305E2,1.55E1,3.49E2,5.0550003E0,1.0486977E0,3.5464458E0,5E-1,5.385E0,4.066604E0,1.5E0,1.55E1,5.55E-1,1.8946362E0,2.05E1,3.335E2,3.325E2,7.45E-1,1.5E0,3.5E0,6.5E0,1.5302395E0,1.8839407E0,2.05E1,5.1456906E-2,2.0029585E0,1.8915309E0,2.3868878E0,1.245E0,1.85E1,3.325E2,1.145E0,1.6849406E0,1.65E1,1.5E1,2.05E1,2.1209044E0,2.95E1,3.335E2,1.75E1,1.315E0,1.345E0,1.65E1,5.5E0,2.0198438E0,3.515E2,1.25E1,2.0035949E0,2.4522667E0,1.425E0,1.425E0,2.6858785E0,1.5E0,2.1928637E0,9.5E0,2.2930415E0,8.5E0,1.5071049E0,2.0527592E0,1.8684915E0,2.5E0,2.843748E0,1.535E0,1.495E0,9.5E0,2.0465126E0,1.615E0,2.2757351E0,1.65E1,8.773333E-1,2.2694445E0,1.85E1,1.05E1,1.5229543E-1,2.219671E0,9.5E0,2.5865095E0,2.745295E0,2.25E1,2.4302979E0,2.0124767E0,2.4242887E0,2.709911E0,1.5E0,3.515E2,1.55E1,2.85E1,2.4760687E0,1.905E0,1.935E0,1.865E0,1.0338327E0,2.0380352E0,2.25E1,2.3906746E0,2.6377444E0,2.0149999E0,1.995E0,2.6544967E0,1.75E1,2.1350002E0,2.5739934E0,2.25E1,4.5E0,1.1E1,5.85E-1,2.840671E0,5.0429573E0,2.6432195E0,3.325E2,3.9832668E0,1.5E1,2.4127374E0,6.5E0,6.5E0,2.25E1,2.7389588E0,1.5E0,2.6744592E0,1.35E1,2.6120486E0,2.5E0,2.435E0,2.85E1,4.5E0,2.475E0,2.6420767E0,2.5778282E0,3.0504982E0,2.9031196E0,2.722707E0,3.6610887E0,2.8979008E0,2.6550002E0,7.5E0,3.5E0,2.85E1,2.8699942E0,2.3953257E0,1.5E0,5.5E0,8E0,2.3100085E0,8.5E0,3.0031862E0,3.3861892E0,3.108503E0,3.7264302E0,3.2050369E0,3.0094619E0,2.95E1,3.3366075E0,2.85E1,4.5852723E0,3.0963073E0,3.185E0,3.0116107E0,3.1750002E0,9.222766E-1,3.233651E0,1.1E1,3.305E2,2.15E1,1.95E1,3.1219597E0,3.355E0,3.355E0,3.5E0,3.6286714E0,1.75E1,1.65E1,2.1215163E-1,1.6495355E0,8.7777776E-1,2.374603E0,3.1897957E0,1.2777778E0,3.495E0,1.25E1,5.5E0,9.5E0,3.5749998E0,1.95E1,4.3954763E0,3.5E0,2.05E1,3.7150002E0,3.8449998E0,4.1949997E0,4.375E0,4.475614E0,4.425E0,1.75E1,4.5150003E0,4.352678E0,3.8519154E0,3.216808E0,4.375E0,4.375E0,2.2016327E0,1.85E1,1.45E1,7.618222E0,2.15E1,1.1E1,4.0391374E0,4.708166E0,1.65E1,4.65122E0,4.4760723E0,5.395E0,2.752261E0,1.1392626E0,7E0,4.1E-1,1.5E0,1.65E1,5.45E-1,5.65E-1,4.75E-1,3.515E2,1.9884865E0,1.9215202E0,5E-1,1.8581994E0,6.45E-1,6.15E-1,1.9928706E0,1.7821902E0,6.45E-1,2.95E1,5.1456906E-2,1.4524282E0,2.1358283E0,2.95E1,1.65E1,1.295E0,5E-1,2.2303548E0,9.455992E-1,1.9706611E-1,1.9206833E0,1.55E1,1.1707467E0,1.9795526E0,8.5E0,2.3088224E0,2.237622E0,1.335E0,2.2010438E0,1.85E1,1.345E0,1.325E0,1.0984716E0,1.974279E0,2.4259946E0,1.65E1,2.1046813E0,2.4533992E0,1.609496E0,3.8527468E-1,3.305E2,1.385E0,2.75E1,2.197851E0,2.0734746E0,1.5E0,2.25E1,1.05E1,1.5E0,2.2562428E0,8.5E0,2.3216481E0,1.75E1,9.5E0,1.525E0,2.2072918E0,2.2292824E0,1.55E1,1.45E1,1.615E0,2.3293407E0,1.525E0,3.305E2,6.4192056E-3,6.9705284E-1,2.717673E0,8.5E0,1.2904906E-1,2.7065418E0,2.95E1,2.275246E0,2.5721629E0,2.471814E0,1.715E0,1.3217757E0,2.3693445E0,2.482192E0,1.85E1,1.05E1,2.4943838E0,2.75E1,1.5289625E0,2.15E1,2.4885502E0,2.4246182E0,2.85E1,1.95E1,5.5E0,2.7428372E0,2.5E0,3.305E2,2.5404136E0,1.985E0,1.5E0,2.8231494E0,2.366011E0,1.25E1,1.75E1,2.9574537E0,2.145E0,2.79375E0,4.2425385E0,4.46E-1,1.9189999E0,2.25E1,1.75E1,6.6096777E-1,-8.537633E-2,3.4724376E0,1.65E1,1.5139682E0,3.7417386E0,2.6035876E0,3.001728E0,2.6423416E0,2.3652582E0,2.717303E0,2.8162453E0,2.5146885E0,3.3891125E0,1.9318314E0,2.7001176E0,2.7884772E0,9.5E0,3.3524654E0,2.413183E0,2.455E0,4.11211E0,2.5949998E0,5E-1,3.495E2,2.25E1,5E-1,2.05E1,1.35E1,5E-1,2.5898995E0,1.9612515E0,2.75E1,3.225911E0,2.940115E0,3.7593446E0,2.1842906E0,9.3873864E-1,5.5E0,1.5E0,3.2857358E0,2.4077914E0,3.1868541E0,3.3332443E0,3.332613E0,3.094391E0,2.066732E0,2.5E0,1.15E1,1.45E1,3.2849998E0,7E0,3.1691072E0,4.2587347E0,2.8625522E0,2.1E1,3.2778943E0,3.305E2,1.75E1,1.45E1,1.65E1,3.3850002E0,3.4984562E0,2.5E0,3.3524396E0,3.8582146E0,3.5E0,3.254879E0,2.9190557E0,1.55E1,3.305E2,3.161662E0,3.2934773E0,9E0,3.48E2,3.305E2,4.9E1,3.678276E0,3.7150002E0,6.5E0,1.5E0,1.55E1,7.233233E-1,2.9438565E0,1.9937843E0,3.60246E-1,6E0,4.215E0,4.7160163E0,4.425E0,6.5E0,4.5722203E0,3.5E0,4.435E0,4.5E0,3.5E0,2.25E1,3.5228868E0,1.55E1,4.535E0,4.492548E0,3.762223E0,4.2075E0,9.0000004E-1,4.955E0,3.5709043E0,4.955E0,4.0670043E-1,4.2780175E0,5.38E0,8.370639E0,3.2993855E0,2.1084955E0,2.4812832E0,1.033985E0,1.8651265E0,5.45E-1,1.7498845E0,1.910091E0,2.3062131E0,2.5E0,1.85E1,2.15E1,1.696147E0,7.5E0,4.85E-1,8.5E0,3.9499998E-1,7.1500003E-1,1.9624151E0,5E-1,1.7808024E0,6.05E-1,1.7978805E0,2.95E1,2.0168312E0,1.75E1,1.9251496E0,2.2948253E0,3.1937718E0,2.2388287E0,1.3618785E0,1.7882398E0,3.6796434E0,1.3399439E0,2.060603E0,1.45E1,2.5429478E0,1.8254375E0,2.1756659E0,1.325E0,1.85E1,3.355E2,2.6841242E0,2.2744272E0,1.6411104E0,1.8563493E0,2.8906481E0,3.6811543E0,7.7877736E-1,1.365E0,2.3045678E0,2.1074178E0,1.4004581E0,1.395E0,1.848031E0,1.6859709E-1,1.1897553E0,2.3422332E0,9.247961E-1,2.962388E0,1.15E1,1.455E0,2.1749926E0,2.2283163E0,1.455E0,2.166236E0,1.475E0,1.475E0,1.15E1,3.4419942E0,1.535E0,1.4502707E0,1.95E1,5E-1,2.65E1,2.3503337E0,1E0,1.35E1,2.367996E0,1.525E0,1.545E0,1.2904906E-1,1.8701934E0,1.15E1,1.45E1,2.0493467E0,8.350608E-1,3E0,1.5018259E0,2.4082916E0,2.2853496E0,2.1652167E0,2.9360845E0,1.35E1,2.5E0,4.448249E-1,2.0526361E0,1.795E0,2.463007E0,1.6405137E0,2.5486925E0,7.25428E-1,2.1226978E0,4.2166758E-1,2.3230512E0,2.8521335E0,1.883668E0,2.03E0,2.9901795E0,1.15E1,1.75E1,2.4105413E0,2.709312E0,1.5917051E0,1.18778825E-1,1.95E1,4.0500003E-1,2.954188E0,2.1E1,2.5393934E0,7.1273583E-1,2.9026859E0,2.4850001E0,3.4263043E0,2.4935367E0,2.545E0,1.75E1,1.2E1,2.88605E0,3.485E2,6E0,2.05E1,4.0272202E0,1.5725085E0,6.2643576E-1,2.6087275E0,2.15E1,1.15E1,3.0999448E0,1.5475085E0,2.5279958E0,2.179054E0,8.0715084E-1,3.3063285E0,3.844303E0,3.0165172E0,1.85E1,3.2627034E0,1.6649901E0,3.245E0,3.2150002E0,2.95E1,3.2150002E0,8E0,2.3089442E0,3.275E0,2.5E0,5.0655555E-2,1.6786518E0,2.245257E0,2.25E1,3.4846113E0,3.3449998E0,2.5E0,2.25E1,3.895605E0,3.0904462E0,2.5E0,3.4250002E0,3.315E2,3.2711384E0,3.1098576E0,4.1545367E0,3.2292542E0,2.719608E0,8.454275E-1,5E-1,1.5907064E-1,2.2489674E0,4.8433332E0,1.45E1,8.090706E-1,2.5E0,1.9359303E0,3.565E0,2.9359496E0,3.7649999E0,3.75E0,3.7730405E0,3.5809064E0,1.65E1,9.130352E0,4.590816E0,3.3924797E0,3.89E0,2E1,3.6296196E0,1.65E1,4.4449997E0,5E-1,4.395E0,4.938575E0,4.122642E0,3.5E0,4.4449997E0,3.7203794E0,1.75E1,1.55E1,4.5E0,5.1257925E0,3.60246E-1,3.8522422E0,1.75E1,4.525E0,1.35E1,3.325E2,6.634276E0,2E0,4.6082244E0,4.6151146E-1,1.2113362E-1,5.365E0,4.0658474E0,1.0974936E0,1.7709316E0,3.100606E-1,1.5620154E0,1.8028386E0,2.2363918E0,5.290958E-1,1.1399502E0,1.844953E0,1.594214E0,2.4490645E0,1.8382237E0,1.983056E0,1.876507E0,7.392E-1,1.8281492E0,1.8329213E0,1.3272706E0,1.6160368E0,1.1737038E0,1.9130871E0,2.686218E0,2.2906272E0,2.7798235E0,2.0498219E0,1.969489E0,2.2010765E0,1.5866901E0,1.8770278E0,6.527249E-1,5.7340777E-1,2.4061959E0,8.574524E-1,2.132365E0,3.7524334E-1,1.9414771E0,2.1844196E0,1.9125359E0,1.5219504E0,2.5533442E0,1.2325449E0,4.2471114E-1,1.9756721E0,1.4406834E0,2.0923479E0,1.5423875E0,9.9659044E-1,3.6013882E0,1.7359211E0,2.2267323E0,1.4020929E0,2.5615547E0,3.5190644E0,2.3999374E0,1.0246748E0,2.0639503E0,2.455012E0,2.2103603E0,2.0855895E-1,2.0123956E0,3.0450385E0,1.8179379E0,5.4930276E-1,2.132548E0,2.6356065E0,2.2767913E0,1.4640841E0,2.4630442E0,4.8235297E-2,1.6219119E0,1.3942803E0,2.38467E0,2.6241157E0,2.8615503E0,1.504211E0,2.4239993E0,2.6285758E0,2.8261278E0,1.1625069E-1,5.162507E-1,5.199287E0,2.403672E0,2.1004736E0,3.430046E0,-1.08294904E-1,1.5687789E0,2.488702E0,4.309154E0,1.8349574E0,8.236923E-1,2.936739E0,2.3660598E0,3.9232025E0,2.407832E0,2.9488394E0,2.8572729E0,2.953161E0,3.1527336E0,2.1337237E0,2.757677E0,2.5407417E0,6.342905E-1,4.247921E0,1.9264358E0,3.326864E0,2.406782E0,3.79054E-1,1.8878659E0,3.0454063E0,2.5477684E0,3.2184217E0,3.8360672E0,3.5064495E0,2.6743317E0,3.1264637E0,3.8617375E0,3.4347088E0,3.0143206E0,3.399706E0,3.2108147E0,6.3799167E-1,3.295676E0,3.6154213E0,2.9070165E0,3.810719E0,3.4821641E0,3.1675403E0,2.426784E0,3.1417336E0,2.1274846E0,2.7342076E0,4.9766326E0,3.2818787E0,6.287992E0,7.432274E-1,4.227817E0,3.4606698E0,3.270961E0,2.2314265E0,3.0631516E0,2.4733553E0,5.050541E0,1.4507143E0,3.3834693E0,2.8050976E0,3.990481E0,2.0200002E0,4.1590705E0,4.735062E0,3.6728303E0,2.7332327E-1,2.628152E0,4.398952E0,5.227469E0,8.10246E-1,4.1447196E0,3.11976E0,1.8747075E0,3.753493E0,4.668132E0,4.593942E0,4.134168E0,1.6032788E0,3.2436368E0,1.60246E-1,8.10246E-1,2.5684428E0,6.0737705E0,1.6404374E0,2.82772E0,2.924909E0,3.60246E-1,3.8965607E0,4.9985757E0,3.1063898E0,4.1746697E0,2.8974798E0,8.10246E-1,4.024894E0,4.4888206E0,4.263142E0,3.3136735E0,3.4774773E0,6.039248E0,8.40171E-1,3.1138139E0,2.559858E0,8.660521E-1],"split_indices":[0,0,0,0,0,0,0,0,0,0,0,0,0,0,0,0,0,0,2,0,0,2,0,0,0,0,0,0,5,0,1,0,1,0,5,1,0,0,2,1,0,5,5,0,0,5,0,3,0,2,0,1,0,2,0,0,3,0,0,0,1,0,0,1,2,2,0,0,1,0,5,1,2,0,0,0,1,2,0,3,0,0,0,0,0,5,0,1,1,5,0,1,2,0,5,1,0,0,0,1,2,0,2,0,0,1,1,0,2,1,1,0,0,0,2,2,0,2,2,3,0,0,0,3,0,1,0,2,0,5,0,1,1,5,2,0,0,1,1,0,1,1,2,0,0,5,2,1,0,0,2,1,1,0,1,2,1,1,0,1,0,2,2,1,1,1,1,0,2,0,0,5,0,2,1,5,1,0,0,0,0,1,0,0,2,0,0,0,2,1,5,0,2,0,5,0,1,1,0,0,0,5,0,0,0,0,1,5,0,1,0,0,1,0,1,0,2,2,0,0,5,0,0,0,1,0,0,1,0,1,1,0,0,1,1,1,1,5,3,0,1,1,0,0,0,3,0,0,0,2,0,0,0,0,5,1,0,2,2,1,1,1,1,0,1,2,2,0,1,1,2,1,5,0,0,0,1,0,0,2,1,2,1,5,2,0,0,1,0,1,1,0,5,1,5,0,1,0,0,0,0,0,0,0,2,0,5,0,0,2,0,1,5,0,3,0,1,2,0,2,2,1,0,0,1,0,1,0,0,2,0,0,0,2,1,2,2,5,2,5,0,0,0,1,0,0,1,2,0,0,1,5,5,0,1,1,1,0,0,1,0,0,0,0,0,1,5,0,0,1,2,2,0,2,5,2,0,0,1,1,0,5,1,0,0,0,0,0,1,0,1,0,1,0,0,0,1,0,0,0,1,0,0,0,1,0,0,1,1,0,0,1,0,0,1,0,0,0,0,2,5,1,2,0,0,0,0,0,0,1,0,0,0,0,0,2,0,0,1,1,1,0,0,0,0,5,0,2,0,1,1,1,0,1,0,2,0,1,0,2,1,0,0,0,0,0,0,0,0,0,1,1,2,0,2,1,1,1,0,1,0,0,0,0,0,0,2,0,2,0,0,0,0,0,0,0,2,5,1,1,0,0,0,2,0,2,2,0,0,0,0,0,0,0,1,1,1,0,1,0,2,1,0,0,0,0,0,0,2,0,0,0,0,0,0,0,1,2,0,1,1,0,0,2,0,0,0,0,0,2,0,2,2,0,0,0,5,0,0,1,0,0,0,0,0,0,2,0,0,0,2,1,0,1,0,0,0,0,2,0,0,1,0,0,0,0,1,0,0,0,0,0,2,0,0,0,0,5,0,2,0,0,2,1,1,2,0,1,0,2,1,0,0,0,1,2,0,0,0,5,0,0,0,1,0,0,2,0,0,0,0,0,0,0,1,1,0,2,0,1,0,0,2,1,1,0,2,5,0,0,2,0,0,1,2,0,0,0,0,0,0,1,1,0,0,0,1,0,0,0,0,0,0,0,0,0,0,0,0,0,1,0,0,0,0,0,1,5,1,1,1,2,1,2147483647,2147483647,2,0,0,0,0,0,1,2,0,0,0,0,0,0,0,2,1,1,0,2,0,0,0,1,0,5,2,1,1,0,0,1,0,0,2,0,0,2,5,0,0,2,5,5,3,0,0,2,1,2,0,0,0,0,1,0,0,0,1,0,1,0,1,1,1,0,1,0,0,0,0,0,0,0,0,0,0,0,0,0,0,0,0,0,0,0,0,0,1,1,1,0,1,0,1,0,0,0,1,0,0,0,2,0,1,0,0,0,0,0,0,0,0,0,2,0,0,0,0,1,5,0,0,0,0,0,0,0,0,0,0,0,0,0,0,0,0,0,0,1,0,0,0,0,0,0,0,1,0,0,0,1,1,2,0,1,1,0,0,0,0,0,1,1,0,0,1,0,0,0,0,0,1,2,0,0,0,0,0,0,0,0,1,0,0,0,0,0,1,2,0,0,0,0,1,0,0,2,0,0,1,0,0,0,0,1,2,0,5,1,1,0,0,0,0,1,1,0,0,0,0,0,0,0,0,1,0,0,0,0,2,0,1,0,0,1,0,0,0,1,0,0,1,1,0,0,1,0,5,0,0,0,0,0,0,1,0,0,0,1,0,2,0,0,0,0,0,0,0,2,0,0,0,0,1,0,1,0,1,0,0,0,1,0,0,2,2,1,0,0,0,2,0,2,5,0,1,0,2147483647,2147483647,0,0,0,0,0,0,0,0,0,0,0,0,0,0,0,0,0,0,0,0,0,0,0,0,0,0,0,0,0,0,0,0,0,0,0,0,0,0,0,0,0,0,0,0,0,0,0,0,0,0,0,0,0,0,0,0,0,0,0,0,0,0,0,0,0,0,0,0,0,0,0,0,0,0,0,0,0,0,0,0,2147483647,2147483647,0,0,0,0,0,0,0,0,0,0,2147483647,2147483647,0,0,0,0,0,0,0,0,0,0,0,0,0,0,0,0,0,0,0,0,0,0,0,0,0,0,0,0,0,0,0,0,0,0,0,0,0,0,0,0,0,0,0,0,0,0,0,0,0,0,0,0,0,0,0,0,0,0,0,0,0,0,0,0,0,0,0,0,0,0,0,0,0,0,0,0,0,0,0,0,0,0,0,0,0,0,0,0,0,0,0,0,0,0,0,0],"split_type":[0,0,0,0,0,0,0,0,0,0,0,0,0,0,0,0,0,0,0,0,0,0,0,0,0,0,0,0,0,0,0,0,0,0,0,0,0,0,0,0,0,0,0,0,0,0,0,0,0,0,0,0,0,0,0,0,0,0,0,0,0,0,0,0,0,0,0,0,0,0,0,0,0,0,0,0,0,0,0,0,0,0,0,0,0,0,0,0,0,0,0,0,0,0,0,0,0,0,0,0,0,0,0,0,0,0,0,0,0,0,0,0,0,0,0,0,0,0,0,0,0,0,0,0,0,0,0,0,0,0,0,0,0,0,0,0,0,0,0,0,0,0,0,0,0,0,0,0,0,0,0,0,0,0,0,0,0,0,0,0,0,0,0,0,0,0,0,0,0,0,0,0,0,0,0,0,0,0,0,0,0,0,0,0,0,0,0,0,0,0,0,0,0,0,0,0,0,0,0,0,0,0,0,0,0,0,0,0,0,0,0,0,0,0,0,0,0,0,0,0,0,0,0,0,0,0,0,0,0,0,0,0,0,0,0,0,0,0,0,0,0,0,0,0,0,0,0,0,0,0,0,0,0,0,0,0,0,0,0,0,0,0,0,0,0,0,0,0,0,0,0,0,0,0,0,0,0,0,0,0,0,0,0,0,0,0,0,0,0,0,0,0,0,0,0,0,0,0,0,0,0,0,0,0,0,0,0,0,0,0,0,0,0,0,0,0,0,0,0,0,0,0,0,0,0,0,0,0,0,0,0,0,0,0,0,0,0,0,0,0,0,0,0,0,0,0,0,0,0,0,0,0,0,0,0,0,0,0,0,0,0,0,0,0,0,0,0,0,0,0,0,0,0,0,0,0,0,0,0,0,0,0,0,0,0,0,0,0,0,0,0,0,0,0,0,0,0,0,0,0,0,0,0,0,0,0,0,0,0,0,0,0,0,0,0,0,0,0,0,0,0,0,0,0,0,0,0,0,0,0,0,0,0,0,0,0,0,0,0,0,0,0,0,0,0,0,0,0,0,0,0,0,0,0,0,0,0,0,0,0,0,0,0,0,0,0,0,0,0,0,0,0,0,0,0,0,0,0,0,0,0,0,0,0,0,0,0,0,0,0,0,0,0,0,0,0,0,0,0,0,0,0,0,0,0,0,0,0,0,0,0,0,0,0,0,0,0,0,0,0,0,0,0,0,0,0,0,0,0,0,0,0,0,0,0,0,0,0,0,0,0,0,0,0,0,0,0,0,0,0,0,0,0,0,0,0,0,0,0,0,0,0,0,0,0,0,0,0,0,0,0,0,0,0,0,0,0,0,0,0,0,0,0,0,0,0,0,0,0,0,0,0,0,0,0,0,0,0,0,0,0,0,0,0,0,0,0,0,0,0,0,0,0,0,0,0,0,0,0,0,0,0,0,0,0,0,0,0,0,0,0,0,0,0,0,0,0,0,0,0,0,0,0,0,0,0,0,0,0,0,0,0,0,0,0,0,0,0,0,0,0,0,0,0,0,0,0,0,0,0,0,0,0,0,0,0,0,0,0,0,0,0,0,0,0,0,0,0,0,0,0,0,0,0,0,0,0,0,0,0,0,0,0,0,0,0,0,0,0,0,0,0,0,0,0,0,0,0,0,0,0,0,0,0,0,0,0,0,0,0,0,0,0,0,0,0,0,0,0,0,0,0,0,0,0,0,0,0,0,0,0,0,0,0,0,0,0,0,0,0,0,0,0,0,0,0,0,0,0,0,0,0,0,0,0,0,0,0,0,0,0,0,0,0,0,0,0,0,0,0,0,0,0,0,0,0,0,0,0,0,0,0,0,0,0,0,0,0,0,0,0,0,0,0,0,0,0,0,0,0,0,0,0,0,0,0,0,0,0,0,0,0,0,0,0,0,0,0,0,0,0,0,0,0,0,0,0,0,0,0,0,0,0,0,0,0,0,0,0,0,0,0,0,0,0,0,0,0,0,0,0,0,0,0,0,0,0,0,0,0,0,0,0,0,0,0,0,0,0,0,0,0,0,0,0,0,0,0,0,0,0,0,0,0,0,0,0,0,0,0,0,0,0,0,0,0,0,0,0,0,0,0,0,0,0,0,0,0,0,0,0,0,0,0,0,0,0,0,0,0,0,0,0,0,0,0,0,0,0,0,0,0,0,0,0,0,0,0,0,0,0,0,0,0,0,0,0,0,0,0,0,0,0,0,0,0,0,0,0,0,0,0,0,0,0,0,0,0,0,0,0,0,0,0,0,0,0,0,0,0,0,0,0,0,0,0,0,0,0,0,0,0,0,0,0,0,0,0,0,0,0,0,0,0,0,0,0,0,0,0,0,0,0,0,0,0,0,0,0,0,0,0,0,0,0,0,0,0,0,0,0,0,0,0,0,0,0,0,0,0,0,0,0,0,0,0,0,0,0,0,0,0,0,0,0,0,0,0,0,0,0,0,0,0,0,0,0,0,0,0,0,0,0,0,0,0,0,0,0,0,0,0,0,0,0,0,0,0,0,0,0,0,0,0,0,0,0,0,0,0,0,0,0,0,0,0,0,0,0,0,0,0,0,0,0,0,0,0,0,0,0,0,0,0,0,0,0,0,0,0,0,0,0,0,0,0,0,0,0,0,0,0,0,0,0,0,0,0,0,0,0,0,0,0,0,0,0,0,0,0,0,0,0,0,0],"sum_hessian":[3.07408E5,1.86148E5,1.2126E5,1.1647E5,6.9678E4,9.7422E4,2.3838E4,8.0164E4,3.6306E4,3.5262E4,3.4416E4,4.5666E4,5.1756E4,1.9278E4,4.56E3,4.2653E4,3.7511E4,2.2626E4,1.368E4,2.2164E4,1.3098E4,4.986E3,2.943E4,2.1732E4,2.3934E4,2.8626E4,2.313E4,1.3518E4,5.76E3,4.458E3,1.02E2,2.895E4,1.3703E4,1.7189E4,2.0322E4,4.878E3,1.7748E4,9.56E2,1.2724E4,1.932E3,2.0232E4,6.57E3,6.528E3,4.221E3,7.65E2,3.6E2,2.907E4,5.502E3,1.623E4,4.146E3,1.9788E4,7.212E3,2.1414E4,1.539E4,7.74E3,8.25E3,5.268E3,4.731E3,1.029E3,1.152E3,3.306E3,1E2,2E0,1.1688E4,1.7262E4,1.1377E4,2.326E3,1.2761E4,7.561E3,1.614E3,3.264E3,6.828E3,1.092E4,7.41E2,2.15E2,2.046E3,1.0678E4,7.8E1,1.854E3,5.856E3,1.4376E4,4.54E3,2.03E3,2.58E2,6.27E3,3.817E3,4.04E2,2.33E2,1.27E2,5.694E3,2.3376E4,3.588E3,1.914E3,1.3848E4,2.382E3,3.902E3,2.44E2,9.138E3,1.065E4,6.928E3,2.84E2,1.4004E4,7.41E3,1.961E3,1.3429E4,5.304E3,2.436E3,1.188E3,7.062E3,2.792E3,2.476E3,4.06E2,6.23E2,6.12E2,5.4E2,6.3E2,2.676E3,1.029E3,1.0659E4,1.0925E4,6.337E3,3.103E3,8.274E3,1.51E2,2.175E3,9.197E3,3.564E3,2.91E2,7.27E3,1.51E2,1.463E3,2.687E3,5.77E2,1.965E3,4.863E3,1.31E3,9.61E3,1.3E2,6.11E2,2.039E3,7E0,7.115E3,3.563E3,2.8E1,5E1,3.42E2,1.512E3,5.133E3,7.23E2,6.828E3,7.548E3,3.85E2,4.155E3,2.671E3,1.146E3,1.4E2,9.3E1,1.23E2,4E0,2.2E2,5.474E3,1.9044E4,4.332E3,2.083E3,1.505E3,6.08E2,1.306E3,1.3338E4,5.1E2,9.7E1,2.285E3,3.577E3,3.25E2,7.17E3,3.48E3,9.43E2,5.985E3,1.92E2,9.2E1,9.588E3,4.416E3,1.639E3,5.771E3,9.426E3,4.003E3,4.845E3,4.59E2,9.3E1,2.343E3,4.2E2,7.68E2,9.49E2,6.113E3,2.411E3,3.81E2,8.35E2,1.641E3,3.12E2,3E2,5.06E2,3.4E1,4.27E2,2.03E2,6.66E2,3.63E2,7.72E2,9.887E3,4.513E3,6.412E3,5.603E3,7.34E2,2.888E3,2.15E2,1.44E2,7E0,2.84E2,1.891E3,8.05E2,8.392E3,2.842E3,7.22E2,3.5E1,2.56E2,6.899E3,3.71E2,1.47E2,4E0,1.674E3,1.013E3,2.08E2,3.69E2,1.837E3,1.28E2,4.54E3,3.23E2,2.31E2,1.079E3,7.239E3,2.371E3,7.5E1,5.5E1,3.68E2,2.43E2,6E0,1E0,6.551E3,5.64E2,3.308E3,2.55E2,9E0,1.9E1,1E0,4.9E1,3.1E1,3.11E2,1.92E2,1.32E3,4.682E3,4.51E2,2.16E2,5.07E2,2.904E3,3.924E3,5.466E3,2.082E3,2.2E1,3.63E2,1.128E3,3.027E3,7.41E2,4.05E2,3.8E1,1.02E2,2.2E1,7.1E1,8.6E1,3.7E1,1.22E2,9.8E1,1.7747E4,1.297E3,4.086E3,2.46E2,1.493E3,5.9E2,4.93E2,1.012E3,3.48E2,2.6E2,1.189E3,1.17E2,1.275E4,5.88E2,1.52E2,3.58E2,8.1E1,1.6E1,3.283E3,2.94E2,9.09E2,6.261E3,2.849E3,6.31E2,6.36E2,3.07E2,8.56E2,5.129E3,1E0,9.1E1,1.585E3,5.4E1,7.711E3,1.715E3,2.71E2,3.732E3,3.196E3,1.649E3,3E0,4.56E2,4.3E1,5E1,1.12E3,1.223E3,1.93E2,2.27E2,5.24E2,2.44E2,5.69E3,4.23E2,1.416E3,9.95E2,2.24E2,1.57E2,3.68E2,4.67E2,1.83E2,1.458E3,2.94E2,1.8E1,8.1E1,4.25E2,3E0,3.1E1,4.07E2,2E1,1.84E2,1.9E1,2.81E2,3.85E2,4.2E2,3.52E2,4.332E3,5.555E3,4.149E3,3.64E2,1.246E3,4.357E3,4.9E1,1.66E2,6E0,1E0,1.391E3,5E2,1.95E2,6.1E2,5E1,6.72E2,4E0,3.1E1,3.51E2,2E1,8.28E2,8.46E2,7.55E2,2.58E2,1.17E2,9.1E1,5E1,3.19E2,2.9E1,9.9E1,9.33E2,3.607E3,2.94E2,2.9E1,1.4E1,2.17E2,3.4E1,1.045E3,5.068E3,2.171E3,2.042E3,3.29E2,2.8E1,2.7E1,4.2E1,3.26E2,6.6E1,1.77E2,5.44E3,1.111E3,8.2E1,4.82E2,1.28E2,1.27E2,4E0,5E0,2.1E1,2.9E2,1E0,1.91E2,3.53E2,4.329E3,4.3E2,2.1E1,1.24E2,9.2E1,3.66E2,1.41E2,1.68E2,2.736E3,3.744E3,1.8E2,3.411E3,2.055E3,4.7E2,1.612E3,7E0,1.5E1,1.45E2,2.18E2,5.65E2,5.63E2,1.24E2,2.903E3,2.64E2,4.77E2,2.34E2,1.71E2,3.4E1,4E0,1E0,1.01E2,1.4E1,8E0,4.5E1,2.6E1,3E0,3.4E1,7.5E1,4.7E1,1.099E3,1.6648E4,3.68E2,9.29E2,3.724E3,3.62E2,1.72E2,7.4E1,1.397E3,9.6E1,5.8E1,5.32E2,2.03E2,1.45E2,4.57E2,7.32E2,3.7E1,8E1,1.2366E4,3.84E2,1E2,4.88E2,9.2E1,6E1,1.74E2,1.84E2,9E0,7E0,7.29E2,1.8E2,2.94E2,3.42E2,1.81E2,1.26E2,5.58E2,2.98E2,7.84E2,4.345E3,7E0,8.4E1,9.36E2,6.49E2,5E1,4E0,2.441E3,5.27E3,1.37E3,3.45E2,1.04E2,1.67E2,3.222E3,5.1E2,2.035E3,1.161E3,1.348E3,3.01E2,1E0,2E0,2E0,4.1E1,4.8E1,2E0,3.21E2,7.99E2,7E1,1.23E2,1.46E2,8.1E1,1.6E2,3.64E2,2.35E2,9E0,1.2E1,4.11E2,1.011E3,4.05E2,9E1,2.78E2,3.63E2,1.04E2,9.7E1,8.6E1,2.56E2,1.202E3,6E0,2.88E2,4E0,1.4E1,6.6E1,1.5E1,1.46E2,2.79E2,1.1E2,2.97E2,1.2E1,8E0,1.5E1,4E0,1.58E2,1.23E2,1.62E2,2.23E2,3.07E2,4.5E1,1.339E3,2.993E3,1.871E3,3.684E3,3.439E3,7.1E2,1.26E2,2.38E2,1.019E3,2.27E2,3.03E2,4.054E3,1E0,5E0,4.9E2,1.2E2,3.2E1,1.8E1,2.36E2,4.36E2,3E0,1E0,2.64E2,8.7E1,1.5E1,5E0,3.54E2,4.74E2,7.22E2,3.3E1,1.18E2,1.4E2,7.2E1,4.5E1,5E0,8.6E1,3.5E1,1.5E1,1.19E2,2E2,2.8E1,1E0,8.82E2,5.1E1,5.16E2,3.091E3,9E0,5E0,7.3E1,1.44E2,2.4E1,1.021E3,9.41E2,1.23E3,1.33E2,1.96E2,2.9E1,2.97E2,1.29E2,4.8E1,7.48E2,4.692E3,7.44E2,3.67E2,4.81E2,1E0,5E0,1.22E2,2E1,1E0,1.27E2,1.63E2,1.75E2,1.78E2,9E0,1.2E1,1.7E1,1.51E2,2.583E3,1.53E2,2.654E3,1.09E3,1.61E2,1.9E1,7.97E2,1.258E3,4.37E2,3.3E1,1.018E3,5.94E2,1.37E2,8E0,1.42E2,4.21E2,4.7E1,7.7E1,1.89E2,7.5E1,9.6E1,3.81E2,1.68E2,3E0,1.5E1,1.9E1,1E0,3E0,2.5E1,2E1,1E0,2E0,2.8E1,4.7E1,2E0,4.5E1,1.047E3,5.2E1,1.16E2,2.52E2,1.249E3,2.475E3,3.4E1,1.38E2,3.4E1,4E1,9.72E2,4.25E2,7.3E1,2.3E1,4.8E1,1E1,9.528E3,2.838E3,1.36E2,2.48E2,1E1,9E1,3.99E2,8.9E1,3.8E1,2.2E1,7E0,1.67E2,2.6E1,1.58E2,1E0,8E0,2.84E2,4.45E2,2.8E2,1.8E1,3.654E3,6.91E2,5.7E2,3.66E2,2.4E1,2.6E1,4.09E2,4.861E3,7.6E1,1.294E3,3.3E2,1.5E1,9.4E1,1E1,2.785E3,4.37E2,4.28E2,8.2E1,4.12E2,1.623E3,7.29E2,6.19E2,1.38E2,1.63E2,6.3E1,2.58E2,3.26E2,4.73E2,3.5E1,3.5E1,1.14E2,9E0,5.2E1,9.4E1,2.2E1,5.9E1,1.12E2,2.52E2,2.2E2,1.5E1,1E0,8E0,1.1E1,1E0,1.95E2,2.16E2,9E1,9.21E2,4.5E1,4.5E1,2.43E2,3.5E1,1.99E2,1.64E2,1.5E1,2.41E2,7.3E1,1.129E3,2.29E2,5.9E1,3E0,1E0,5.8E1,8E0,1.2E1,3E0,8.7E1,2.3E1,6E0,2E0,9.9E1,5.9E1,6E0,1.17E2,2.2E1,1.4E2,1.59E2,6.4E1,5.6E1,2.51E2,1.6E1,2.9E1,5.12E2,8.27E2,2.664E3,3.29E2,9E1,3.349E3,4.1E1,8.5E1,3.9E1,1.99E2,1.48E2,1.55E2,3.367E3,6.87E2,1.12E2,8E0,2.4E1,8E0,6E0,1.2E1,9E0,2.27E2,5.8E1,2.9E1,6.2E1,2.92E2,2.2E1,1.1E1,2.7E1,1.13E2,5.2E1,2E1,9E0,3.6E1,1.3E1,2E0,5E1,8.32E2,3.5E1,1.6E1,4.15E2,1.01E2,1E0,4E0,7.1E1,2E0,6.5E1,7.9E1,1.1E1,1.3E1,8.48E2,9.3E1,7.3E1,6E1,1.4E1,1.82E2,1.3E1,1.6E1,4E0,4.4E1,1.35E2,6.13E2,4.662E3,3E1,1.72E2,1.95E2,2.9E1,4.52E2,1E0,1.9E1,1.55E2,8E0,6E0,6E0,1.41E2,1.2E1,1.836E3,8.18E2,1.43E2,1.8E1,7.26E2,7.1E1,2E0,3.1E1,8.14E2,2.04E2,9E0,5.85E2,3E0,5E0,2E0,1.4E2,3.3E1,1.4E1,1E1,6.7E1,9.3E1,3E0,2.78E2,1.03E2,2E0,1E0,2.4E1,1E0,5E0,1.5E1,4.6E1,1E0,3.82E2,4.3E1,1.8E1,3E1,6.636E3,2.892E3,1.41E2,2.697E3,1.21E2,1.5E1,2.28E2,2E1,7E0,3E0,7.7E1,1.3E1,1.79E2,2.2E2,7E0,8.2E1,2E0,5E0,2.06E2,7.8E1,2.41E2,2.04E2,1.9E1,7E0,1.17E2,2.92E2,2.087E3,2.774E3,5.2E1,2.4E1,1.53E2,1.141E3,2E0,8E0,2.1E1,4.16E2,2.22E2,2.06E2,4.4E1,3.8E1,3.03E2,1.09E2,5.2E1,1.571E3,1.29E2,4.9E2,2.9E1,3.4E1,4.13E2,6E1,2E0,3.3E1,1E0,8E0,4.3E1,9E0,1E0,9.3E1,1.3E1,9E0,1.1E1,1.01E2,1.5E1,2.37E2,2.3E1,1.97E2,8E0,7E0,3.9E1,1.56E2,3.3E1,1.83E2,2.46E2,6.75E2,4.3E1,2E0,1.14E2,1.29E2,1.7E1,1.8E1,1.81E2,1.8E1,9.1E1,7.3E1,1.4E1,1E0,3.3E1,4E1,1.01E3,1.19E2,2.5E1,3.3E1,6E0,6E0,2E0,1E0,1.5E1,8E0,1.6E1,6E0,2E0,5.4E1,2.25E2,2.6E1,6E0,1E1,2.26E2,2.86E2,2.7E1,8E2,1.913E3,7.51E2,4E0,3.25E2,6.3E1,2.7E1,1.6E1,2.5E1,2.4E1,1.5E1,9.7E1,5.1E1,2.097E3,1.27E3,3.9E1,1.9E1,1.4E1,8E0,1E0,1E1,4E0,2.3E1,1E0,4.9E1,3.04E2,1.11E2,8E0,7.1E1,7E0,4E0,7.6E1,1.7E1,1.9E1,4.1E1,3E0,1.1E1,2.3E1,1.59E2,7E0,9E0,1.3E1,3.1E1,6E0,1.29E2,2E2,4.13E2,2E0,2.8E1,1.36E2,3.6E1,3E0,2.6E1,3.5E2,1.02E2,6E0,1.49E2,1E0,7E0,9E0,1.32E2,4.69E2,2.57E2,8E0,6.3E1,4.12E2,4.02E2,1E0,1E0,6E0,4E0,8.9E1,4E0,2E0,1E0,1.5E1,9E0,1.1E1,4E0,3.55E2,2.7E1,2.7E1,1.6E1,4.146E3,2.49E3,2.163E3,7.29E2,4.4E1,9.7E1,1.2E2,1E0,1.2E1,3E0,2.02E2,2.6E1,2E0,1.1E1,7.1E1,1.08E2,1.45E2,5.9E1,7.2E1,4.5E1,4.9E1,2.43E2,1.91E3,1.77E2,4.89E2,2.285E3,1E0,5.1E1,6.3E1,9E1,1.35E2,1.006E3,3.87E2,2.9E1,1.91E2,1.5E1,8E0,3.6E1,3.7E1,1E0,3E0,4.9E1,1.101E3,4.7E2,2.4E1,1.05E2,4E0,2.9E1,3E0,6E0,1.4E1,7.9E1,4E0,5E0,6.8E1,3.3E1,1E0,1.4E1,1.35E2,6.2E1,1E0,1.55E2,2.7E1,6E0,2.04E2,4.2E1,1.48E2,5.27E2,6E0,3.7E1,1E0,1E0,9E0,8E0,8E0,1E1,1.7E1,1E0,5E1,4.1E1,4.3E1,3E1,3.9E1,1E0,9.03E2,1.07E2,2.9E1,9E1,1.2E1,1.3E1,2E0,4E0,1.3E1,2E0],"tree_param":{"num_deleted":"8","num_feature":"7","num_nodes":"1185","size_leaf_vector":"0"}}]},"name":"gbtree"},"learner_model_param":{"base_score":"5E-1","num_class":"0","num_feature":"7"},"objective":{"name":"reg:squarederror","reg_loss_param":{"scale_pos_weight":"1"}}},"version":[1,4,1]}